{"learner":{"attributes":{"scikit_learn":"{\"n_estimators\": 100, \"objective\": \"reg:squarederror\", \"max_depth\": null, \"learning_rate\": null, \"verbosity\": null, \"booster\": null, \"tree_method\": null, \"gamma\": null, \"min_child_weight\": null, \"max_delta_step\": null, \"subsample\": null, \"colsample_bytree\": null, \"colsample_bylevel\": null, \"colsample_bynode\": null, \"reg_alpha\": null, \"reg_lambda\": null, \"scale_pos_weight\": null, \"base_score\": null, \"missing\": NaN, \"num_parallel_tree\": null, \"kwargs\": {}, \"random_state\": 42, \"n_jobs\": null, \"monotone_constraints\": null, \"interaction_constraints\": null, \"importance_type\": \"gain\", \"gpu_id\": null, \"validate_parameters\": null, \"_estimator_type\": \"regressor\"}"},"feature_names":["Days_Since_Stocked","Sales_History_30D","Inventory_Age_Spread","Category_Benchmark_Price","Discount_Responsiveness","Pack_Size_g_ml","Total_Value_At_Risk","Storage_Space_Used","Festival_Proximity"],"feature_types":["int","int","float","float","float","int","float","float","int"],"gradient_booster":{"model":{"gbtree_model_param":{"num_trees":"100","size_leaf_vector":"0"},"tree_info":[0,0,0,0,0,0,0,0,0,0,0,0,0,0,0,0,0,0,0,0,0,0,0,0,0,0,0,0,0,0,0,0,0,0,0,0,0,0,0,0,0,0,0,0,0,0,0,0,0,0,0,0,0,0,0,0,0,0,0,0,0,0,0,0,0,0,0,0,0,0,0,0,0,0,0,0,0,0,0,0,0,0,0,0,0,0,0,0,0,0,0,0,0,0,0,0,0,0,0,0],"trees":[{"base_weights":[1.075695E1,1.2431306E1,1.0551668E1,1.1092473E1,1.4506581E1,1.05121975E1,1.8613478E1,1.4218E1,9.8265295E0,1.3597981E1,2.5304707E1,9.625423E0,1.0796633E1,2.421077E1,1.0306363E1,1.5518427E1,6.5735292E0,1.2445E1,7.8372903E0,1.0729406E1,1.593805E1,-2.5E-1,2.69175E1,1.0114553E1,6.164183E0,2.02885E1,1.0742872E1,2.627E1,-2.5E-1,2.0795E1,3.7737498E0,2.3479374E1,1.3587433E1,7.4777776E-1,1.1668889E1,1.2951574E1,2.8514285E0,9.776353E0,5.405493E0,1.2199506E1,4.548095E0,2.7714615E1,1.4343396E1,2.7822E1,6.675E0,9.946184E0,2.2948462E1,4.618558E0,9.2558E0,2.1825E0,2.3355293E1,9.937468E0,1.1308558E1,2.883E1,8.98E0,5.1983333E0,-3.3333334E-1,2.663E1,7.37E0,6.392E0,1.5956909E1,3.2433333E0,-4.2857143E-1,1.6776667E1,1.09E0,1.1206309E1,1.82976E1,-4.1666666E-1,1.123E1,8.551013E0,2.220857E1,8.3035713E-1,8.194091E0,1.5063095E1,8.88775E0,1.4805E1,2.0161111E0,2.9045834E1,5.87E0,1.1919836E1,1.7245434E1,8.6E-1,1.0050299E1,-2.5E-1,2.49025E1,9.0037036E-1,5.8464103E0,7.20525E0,1.587091E1,-3.3333334E-1,4.865E0,2.484625E1,-2.5E-1,1.0238023E1,8.289262E0,1.1789948E1,9.367107E0,8.0475E0,-3.3333334E-1],"categories":[],"categories_nodes":[],"categories_segments":[],"categories_sizes":[],"default_left":[true,true,true,true,true,true,true,true,true,true,true,true,true,true,true,true,true,true,true,true,true,false,true,true,true,true,true,true,false,false,true,true,true,true,true,true,true,true,true,true,true,true,true,false,false,true,true,true,true,true,true,true,true,false,false,true,false,false,false,false,false,false,false,false,false,false,false,false,false,false,false,false,false,false,false,false,false,false,false,false,false,false,false,false,false,false,false,false,false,false,false,false,false,false,false,false,false,false,false],"id":0,"left_children":[1,3,5,7,9,11,13,15,17,19,21,23,25,27,29,31,33,35,37,39,41,-1,43,45,47,49,51,53,-1,-1,55,57,59,61,63,65,67,69,71,73,75,77,79,-1,-1,81,83,85,87,89,91,93,95,-1,-1,97,-1,-1,-1,-1,-1,-1,-1,-1,-1,-1,-1,-1,-1,-1,-1,-1,-1,-1,-1,-1,-1,-1,-1,-1,-1,-1,-1,-1,-1,-1,-1,-1,-1,-1,-1,-1,-1,-1,-1,-1,-1,-1,-1],"loss_changes":[1.7905625E3,1.5200469E3,1.39125E3,1.3321914E3,1.9517227E3,1.148375E3,8.199131E2,9.4180273E2,1.298416E3,1.2923555E3,7.07376E2,1.9946406E3,1.696125E3,6.613823E2,6.752252E2,1.0491328E3,4.9590735E2,5.170918E2,6.78042E2,8.623164E2,1.8184648E3,0E0,1.07237305E2,2.068711E3,6.883594E2,1.0595742E3,1.5879688E3,2.7225488E2,0E0,0E0,4.8539833E1,6.158096E2,1.1596602E3,2.7810804E1,4.6802502E2,8.0261523E2,1.9635295E2,1.1049585E3,8.990293E2,6.342871E2,5.155282E2,2.0754004E2,5.3996484E2,0E0,0E0,9.8560156E2,5.955244E2,4.6953613E2,5.6387646E2,2.8616554E1,6.045166E2,6.819844E2,1.9316562E3,0E0,0E0,9.724634E1,0E0,0E0,0E0,0E0,0E0,0E0,0E0,0E0,0E0,0E0,0E0,0E0,0E0,0E0,0E0,0E0,0E0,0E0,0E0,0E0,0E0,0E0,0E0,0E0,0E0,0E0,0E0,0E0,0E0,0E0,0E0,0E0,0E0,0E0,0E0,0E0,0E0,0E0,0E0,0E0,0E0,0E0,0E0],"parents":[2147483647,0,0,1,1,2,2,3,3,4,4,5,5,6,6,7,7,8,8,9,9,10,10,11,11,12,12,13,13,14,14,15,15,16,16,17,17,18,18,19,19,20,20,22,22,23,23,24,24,25,25,26,26,27,27,30,30,31,31,32,32,33,33,34,34,35,35,36,36,37,37,38,38,39,39,40,40,41,41,42,42,45,45,46,46,47,47,48,48,49,49,50,50,51,51,52,52,55,55],"right_children":[2,4,6,8,10,12,14,16,18,20,22,24,26,28,30,32,34,36,38,40,42,-1,44,46,48,50,52,54,-1,-1,56,58,60,62,64,66,68,70,72,74,76,78,80,-1,-1,82,84,86,88,90,92,94,96,-1,-1,98,-1,-1,-1,-1,-1,-1,-1,-1,-1,-1,-1,-1,-1,-1,-1,-1,-1,-1,-1,-1,-1,-1,-1,-1,-1,-1,-1,-1,-1,-1,-1,-1,-1,-1,-1,-1,-1,-1,-1,-1,-1,-1,-1],"split_conditions":[2.654254E-1,1.25E3,1.329E3,2.1745366E-1,2.617784E-1,1.5110558E7,3.3919024E-1,6.931766E-1,1.5E2,3.41E2,5E-1,1.18570526E2,1.15E1,2.8401708E9,3E0,1.41E2,3E1,5.45E1,4.385695E-1,4.4888736E8,6.0671074E1,-7.5E-2,2.6530135E-1,9.32E2,1.6774408E2,2.0343816E7,4.885552E-1,5.55E1,-7.5E-2,6.2385E0,3.3E1,1.2E1,1.5459012E7,7.0250356E-1,7.524966E-1,1.05E1,5.85E1,3.8538623E-1,2.445E2,3.15E1,3.54711E1,5.05E1,6.764321E8,8.346601E0,2.0025E0,1.1048425E5,1.15E1,1.25E1,6.79672E-1,4.8E1,7.783786E-1,4.5467097E-1,4.6074803E8,8.649E0,2.694E0,2.0089258E2,-1.0000001E-1,7.989E0,2.211E0,1.9176002E0,4.787073E0,9.7300005E-1,-1.2857144E-1,5.033E0,3.2700002E-1,3.361893E0,5.48928E0,-1.25E-1,3.369E0,2.565304E0,6.6625714E0,2.4910715E-1,2.4582274E0,4.5189285E0,2.666325E0,4.4415E0,6.0483336E-1,8.713751E0,1.761E0,3.5759509E0,5.17363E0,2.5800002E-1,3.0150898E0,-7.5E-2,7.4707503E0,2.701111E-1,1.7539232E0,2.161575E0,4.761273E0,-1.0000001E-1,1.4595E0,7.4538755E0,-7.5E-2,3.071407E0,2.4867787E0,3.5369847E0,2.8101323E0,2.41425E0,-1.0000001E-1],"split_indices":[2,5,1,2,2,6,4,4,5,1,8,7,1,6,8,1,0,0,4,6,7,0,2,1,7,6,2,0,0,0,0,8,6,4,4,8,0,4,1,0,7,0,6,0,0,6,0,0,4,0,4,2,6,0,0,7,0,0,0,0,0,0,0,0,0,0,0,0,0,0,0,0,0,0,0,0,0,0,0,0,0,0,0,0,0,0,0,0,0,0,0,0,0,0,0,0,0,0,0],"split_type":[0,0,0,0,0,0,0,0,0,0,0,0,0,0,0,0,0,0,0,0,0,0,0,0,0,0,0,0,0,0,0,0,0,0,0,0,0,0,0,0,0,0,0,0,0,0,0,0,0,0,0,0,0,0,0,0,0,0,0,0,0,0,0,0,0,0,0,0,0,0,0,0,0,0,0,0,0,0,0,0,0,0,0,0,0,0,0,0,0,0,0,0,0,0,0,0,0,0,0],"sum_hessian":[5.59E3,6.04E2,4.986E3,3.71E2,2.33E2,4.964E3,2.2E1,1.04E2,2.67E2,2.17E2,1.6E1,1.214E3,3.75E3,1.2E1,1E1,8.8E1,1.6E1,1.13E2,1.54E2,1E2,1.17E2,1E0,1.5E1,1.062E3,1.52E2,1.9E1,3.731E3,1.1E1,1E0,3E0,7E0,1.5E1,7.3E1,8E0,8E0,1.07E2,6E0,8.4E1,7E1,8E1,2E1,1.2E1,1.05E2,1.4E1,1E0,1.05E3,1.2E1,1.03E2,4.9E1,3E0,1.6E1,1.547E3,2.184E3,9E0,2E0,5E0,2E0,1.2E1,3E0,1.9E1,5.4E1,2E0,6E0,5E0,3E0,8.3E1,2.4E1,5E0,1E0,7.8E1,6E0,2.7E1,4.3E1,4.1E1,3.9E1,3E0,1.7E1,1.1E1,1E0,6E1,4.5E1,1.2E1,1.038E3,1E0,1.1E1,2.6E1,7.7E1,3.9E1,1E1,2E0,1E0,1.5E1,1E0,1.304E3,2.43E2,1.746E3,4.38E2,3E0,2E0],"tree_param":{"num_deleted":"0","num_feature":"9","num_nodes":"99","size_leaf_vector":"0"}},{"base_weights":[7.5564885E0,7.5849285E0,6.4357036E-1,8.889397E0,7.425005E0,-1.3237623E0,1.48561535E1,8.435338E0,1.2455975E1,7.3902855E0,1.5248702E1,8.704296E0,-2.215779E0,1.058436E1,7.6601534E0,4.656746E0,1.4281129E1,-3.1973712E0,7.410234E0,1.933425E1,8.821175E0,4.97661E0,-2.8242292E0,1.2710001E1,6.1078806E0,6.6486735E0,1.1159262E1,1.2236145E1,4.01372E-1,1.5242394E1,2.0045018E0,6.8241305E0,7.7610893E0,2.10459E1,7.1839995E0,1.6116123E1,3.3924644E0,-3.092199E0,-2.75E-1,1.5046182E1,8.528203E0,2.3188612E0,1.5839249E1,1.5671689E1,6.140199E0,1.8842072E1,9.93272E0,3.033809E0,1.7359766E1,6.0872774E0,-2.9050558E0,7.699407E0,1.6526407E1,-4.255223E0,1.35217E1,7.2742553E0,4.8924584E0,6.929567E0,8.371435E0,4.90945E0,-2.6666665E-1,-5.524167E-1,-3.2091029E0],"categories":[],"categories_nodes":[],"categories_segments":[],"categories_sizes":[],"default_left":[true,true,true,true,true,true,false,true,true,true,true,false,true,true,true,true,true,false,true,true,true,false,true,true,true,true,true,true,true,true,true,true,true,false,false,false,true,true,false,false,false,false,false,false,false,false,false,false,false,false,false,false,false,false,false,false,false,false,false,false,false,false,false],"id":1,"left_children":[1,3,5,7,9,11,-1,13,15,17,19,-1,21,23,25,27,29,-1,31,33,35,-1,37,39,41,43,45,47,49,51,53,55,57,-1,-1,-1,59,61,-1,-1,-1,-1,-1,-1,-1,-1,-1,-1,-1,-1,-1,-1,-1,-1,-1,-1,-1,-1,-1,-1,-1,-1,-1],"loss_changes":[1.0943125E3,1.0955625E3,6.907271E2,8.714492E2,1.2362188E3,2.1608115E2,0E0,8.1516797E2,8.7299316E2,1.0683125E3,3.809087E2,0E0,1.05955475E2,1.2545234E3,1.3379766E3,4.466332E2,5.949043E2,0E0,9.6228125E2,9.837012E1,3.4134827E2,0E0,1.2811966E1,7.9000977E2,1.696271E3,1.3352197E3,6.420957E2,1.830802E2,2.0568427E2,3.4733594E2,4.1801025E2,1.5790625E3,1.5056406E3,0E0,0E0,0E0,4.016514E1,3.5716248E0,0E0,0E0,0E0,0E0,0E0,0E0,0E0,0E0,0E0,0E0,0E0,0E0,0E0,0E0,0E0,0E0,0E0,0E0,0E0,0E0,0E0,0E0,0E0,0E0,0E0],"parents":[2147483647,0,0,1,1,2,2,3,3,4,4,5,5,7,7,8,8,9,9,10,10,12,12,13,13,14,14,15,15,16,16,18,18,19,19,20,20,22,22,23,23,24,24,25,25,26,26,27,27,28,28,29,29,30,30,31,31,32,32,36,36,37,37],"right_children":[2,4,6,8,10,12,-1,14,16,18,20,-1,22,24,26,28,30,-1,32,34,36,-1,38,40,42,44,46,48,50,52,54,56,58,-1,-1,-1,60,62,-1,-1,-1,-1,-1,-1,-1,-1,-1,-1,-1,-1,-1,-1,-1,-1,-1,-1,-1,-1,-1,-1,-1,-1,-1],"split_conditions":[3.1009764E9,2.654254E-1,6.786722E-1,6.764321E8,1.329E3,2E0,4.456846E0,1.65E1,2.1839976E-1,2.6615047E-1,3.3919024E-1,2.611289E0,3.5E0,9.118605E1,1.2157286E2,2E0,5.15E1,-9.592114E-1,2.25E1,5.55E1,3E0,1.4929831E0,1.32E3,2.4045786E-1,2.4636164E-1,1.5178E6,1.2491021E2,4.585E2,8.1028986E8,3.46E2,5.5E1,1.85E1,2.965E2,6.3137703E0,2.1552E0,4.834837E0,3.3E1,3.065E2,-8.25E-2,4.5138545E0,2.558461E0,6.956584E-1,4.751775E0,4.701507E0,1.8420599E0,5.6526217E0,2.9798162E0,9.101427E-1,5.20793E0,1.8261833E0,-8.7151676E-1,2.3098223E0,4.9579225E0,-1.2765669E0,4.05651E0,2.1822767E0,1.4677376E0,2.07887E0,2.5114307E0,1.4728351E0,-8E-2,-1.6572501E-1,-9.627309E-1],"split_indices":[6,2,4,6,1,8,0,0,2,2,4,0,0,7,7,8,0,0,0,0,8,0,1,2,2,6,7,1,6,1,0,0,1,0,0,0,0,1,0,0,0,0,0,0,0,0,0,0,0,0,0,0,0,0,0,0,0,0,0,0,0,0,0],"split_type":[0,0,0,0,0,0,0,0,0,0,0,0,0,0,0,0,0,0,0,0,0,0,0,0,0,0,0,0,0,0,0,0,0,0,0,0,0,0,0,0,0,0,0,0,0,0,0,0,0,0,0,0,0,0,0,0,0,0,0,0,0,0,0],"sum_hessian":[5.59E3,5.567E3,2.3E1,6.02E2,4.965E3,2.1E1,2E0,5.37E2,6.5E1,4.945E3,2E1,1E0,2E1,1.39E2,3.98E2,1.3E1,5.2E1,9E0,4.936E3,1.1E1,9E0,1E0,1.9E1,9.3E1,4.6E1,3.11E2,8.7E1,4E0,9E0,4.8E1,4E0,1.856E3,3.08E3,9E0,2E0,3E0,6E0,1.7E1,2E0,5.8E1,3.5E1,3.4E1,1.2E1,1.5E1,2.96E2,1E1,7.7E1,2E0,2E0,3E0,6E0,8E0,4E1,3E0,1E0,1.503E3,3.53E2,1.309E3,1.771E3,4E0,2E0,1E0,1.6E1],"tree_param":{"num_deleted":"0","num_feature":"9","num_nodes":"63","size_leaf_vector":"0"}},{"base_weights":[5.302803E0,5.0065227E0,5.803577E0,5.137564E0,2.884409E0,5.562914E0,8.10462E0,5.106046E0,1.4137332E1,1.678624E0,7.876595E0,5.980645E0,3.7775857E0,9.618815E0,1.4195516E0,5.433618E0,4.2862234E0,2.3340303E1,5.544163E0,-7.313734E-1,3.6300347E0,1.3208296E1,2.423709E0,1.1461157E1,5.8701863E0,5.5202975E0,2.1086552E0,7.624356E0,1.2429048E1,-1.9281425E0,6.458046E0,5.3899E0,2.1665384E1,8.9480937E-1,4.636562E0,7.77142E0,-1.5986124E-2,1.1959536E1,-1.4167469E0,9.211158E0,2.43865E0,1.7304583E1,3.1288247E0,6.485904E0,-2.6932964E0,1.6448957E1,1.8039423E0,1.395218E0,6.011481E0,4.3306785E0,1.4037947E1,9.6810875E0,1.3344539E0,8.847727E0,1.0309815E0,1.5181168E1,-7.619003E-1,7.2197676E0,-3.1431706E0,-1.5858728E0,1.1996866E1,5.312657E0,1.3710931E1,6.5281577E0,2.33872E1,-3.5727966E0,1.9841532E0,2.2186344E0,5.1911006E0,-3.041419E0,3.0174398E0,3.151555E0,1.3845011E1,-3.4309537E0,1.7575997E0,1.1310436E0,1.3946122E1,1.6330686E0,1.3873527E1,4.845786E0,2.1803522E1,1.0058477E1,-1.6547321E0,1.2664316E1,-1.8032273E0,-4.146061E0,5.1907926E0,2.4320505E1,8.513241E0,6.700788E0,-1.9515104E0,7.517105E0,-6.8416697E-1,9.477893E0,5.7962985E0,2.7816086E0,8.3007765E0,1.6638102E1,-1.1722373E0,1.3661831E1,-2.605062E0,-3.023383E0,2.2967453E0,4.9635134E0,1.3010185E1,-2.5881226E0,9.510635E0,1.15304985E1,1.9801178E1,-4.8552055E0,8.638512E0,9.884224E0,9.4542766E-1,-1.0356148E0,-4.9649835E0,-4.2825007E0,3.4371316E0,2.2611015E-1,1.5327639E1],"categories":[],"categories_nodes":[],"categories_segments":[],"categories_sizes":[],"default_left":[true,true,true,true,true,true,true,true,true,true,true,true,true,true,true,true,true,false,true,true,true,true,true,true,true,true,true,true,true,true,true,true,true,true,true,false,true,true,true,true,true,true,true,true,true,true,true,true,true,true,true,true,true,true,true,true,true,true,true,true,true,false,false,false,false,false,false,false,false,false,false,false,false,false,false,false,false,false,false,false,false,false,false,false,false,false,false,false,false,false,false,false,false,false,false,false,false,false,false,false,false,false,false,false,false,false,false,false,false,false,false,false,false,false,false,false,false,false,false],"id":2,"left_children":[1,3,5,7,9,11,13,15,17,19,21,23,25,27,29,31,33,-1,35,37,39,41,43,45,47,49,51,53,55,57,59,61,63,65,67,-1,69,71,73,75,77,79,81,83,85,87,89,91,93,95,97,99,101,103,105,107,109,111,113,115,117,-1,-1,-1,-1,-1,-1,-1,-1,-1,-1,-1,-1,-1,-1,-1,-1,-1,-1,-1,-1,-1,-1,-1,-1,-1,-1,-1,-1,-1,-1,-1,-1,-1,-1,-1,-1,-1,-1,-1,-1,-1,-1,-1,-1,-1,-1,-1,-1,-1,-1,-1,-1,-1,-1,-1,-1,-1,-1],"loss_changes":[8.004844E2,9.640469E2,1.1023359E3,8.6784375E2,1.2328154E3,1.3787422E3,1.9501104E3,8.64E2,7.405071E2,7.927412E2,1.1309133E3,8.534922E2,1.032498E3,7.908096E2,6.365436E2,1.5557969E3,1.1222129E3,0E0,8.6811386E1,6.7799255E2,5.959188E2,7.7162476E2,4.539802E2,1.3672065E3,9.356211E2,1.7124385E3,1.0716597E3,7.571616E2,2.334963E3,2.7833722E2,6.873328E2,1.4388906E3,3.7055664E0,4.450973E2,1.1402578E3,0E0,3.670958E1,2.2795593E1,4.7277686E2,5.963712E2,6.9585815E2,6.7906396E2,2.4868283E2,6.374007E2,1.360586E2,9.7981445E2,2.1536526E2,6.0344165E2,1.0243945E3,9.3015405E2,8.500293E2,8.670259E2,7.1564685E2,1.2288545E3,5.1563464E2,6.655869E2,5.0368683E2,4.0808304E1,7.548921E1,1.09535736E2,3.4938562E2,0E0,0E0,0E0,0E0,0E0,0E0,0E0,0E0,0E0,0E0,0E0,0E0,0E0,0E0,0E0,0E0,0E0,0E0,0E0,0E0,0E0,0E0,0E0,0E0,0E0,0E0,0E0,0E0,0E0,0E0,0E0,0E0,0E0,0E0,0E0,0E0,0E0,0E0,0E0,0E0,0E0,0E0,0E0,0E0,0E0,0E0,0E0,0E0,0E0,0E0,0E0,0E0,0E0,0E0,0E0,0E0,0E0,0E0],"parents":[2147483647,0,0,1,1,2,2,3,3,4,4,5,5,6,6,7,7,8,8,9,9,10,10,11,11,12,12,13,13,14,14,15,15,16,16,18,18,19,19,20,20,21,21,22,22,23,23,24,24,25,25,26,26,27,27,28,28,29,29,30,30,31,31,32,32,33,33,34,34,36,36,37,37,38,38,39,39,40,40,41,41,42,42,43,43,44,44,45,45,46,46,47,47,48,48,49,49,50,50,51,51,52,52,53,53,54,54,55,55,56,56,57,57,58,58,59,59,60,60],"right_children":[2,4,6,8,10,12,14,16,18,20,22,24,26,28,30,32,34,-1,36,38,40,42,44,46,48,50,52,54,56,58,60,62,64,66,68,-1,70,72,74,76,78,80,82,84,86,88,90,92,94,96,98,100,102,104,106,108,110,112,114,116,118,-1,-1,-1,-1,-1,-1,-1,-1,-1,-1,-1,-1,-1,-1,-1,-1,-1,-1,-1,-1,-1,-1,-1,-1,-1,-1,-1,-1,-1,-1,-1,-1,-1,-1,-1,-1,-1,-1,-1,-1,-1,-1,-1,-1,-1,-1,-1,-1,-1,-1,-1,-1,-1,-1,-1,-1,-1,-1],"split_conditions":[1.25E3,1.780506E2,7.31117E-1,1.7721774E2,2.1007358E2,1.15E1,1.3264243E2,5.834882E-1,4.957559E2,4.387235E-1,2.1732701E2,6.6145E6,4.957559E2,3.665E2,9.5E0,5.826396E-1,6.025636E-1,7.0020914E0,7.935E2,2.2225901E-1,1.5E0,4.95E1,5.19163E-1,4.957559E2,1.9303552E7,1.5170604E9,1.3813776E1,7.872195E-1,1.3793167E9,1E0,1.6027042E2,7.954424E-1,1.7E1,1.425E2,3.2328033E-1,2.3314261E0,3.75E1,2.1098992E-1,7.455E2,5E-1,5.5E1,4.1843647E-1,6.939619E-1,8.095E2,7.680732E-1,1.75E3,1.4E1,9.5E0,4.95E1,3.85E1,3.0260206E9,4.798166E-1,3.716294E1,6.5E0,7.972323E-1,7.698271E-1,8.21E2,1.75E1,7.636975E-1,8.155E2,9E0,1.5937971E0,4.1132793E0,1.9584473E0,7.01616E0,-1.071839E0,5.9524596E-1,6.6559035E-1,1.5573303E0,-9.1242576E-1,9.05232E-1,9.454666E-1,4.1535034E0,-1.0292861E0,5.272799E-1,3.393131E-1,4.183837E0,4.899206E-1,4.1620584E0,1.4537358E0,6.541057E0,3.0175433E0,-4.9641964E-1,3.799295E0,-5.4096824E-1,-1.2438183E0,1.5572379E0,7.2961516E0,2.5539722E0,2.0102365E0,-5.8545315E-1,2.2551317E0,-2.052501E-1,2.843368E0,1.7388896E0,8.344826E-1,2.490233E0,4.9914308E0,-3.516712E-1,4.0985494E0,-7.8151864E-1,-9.070149E-1,6.890236E-1,1.4890541E0,3.9030557E0,-7.764368E-1,2.8531907E0,3.4591496E0,5.9403534E0,-1.4565617E0,2.5915537E0,2.9652672E0,2.836283E-1,-3.1068447E-1,-1.489495E0,-1.2847502E0,1.0311395E0,6.783304E-2,4.598292E0],"split_indices":[5,7,4,7,7,8,7,4,3,4,7,6,3,1,8,4,4,0,1,2,8,0,4,3,6,6,7,4,6,8,7,2,0,1,2,0,0,2,1,8,0,2,2,1,2,5,1,0,1,0,6,4,7,8,4,4,1,0,4,1,0,0,0,0,0,0,0,0,0,0,0,0,0,0,0,0,0,0,0,0,0,0,0,0,0,0,0,0,0,0,0,0,0,0,0,0,0,0,0,0,0,0,0,0,0,0,0,0,0,0,0,0,0,0,0,0,0,0,0],"split_type":[0,0,0,0,0,0,0,0,0,0,0,0,0,0,0,0,0,0,0,0,0,0,0,0,0,0,0,0,0,0,0,0,0,0,0,0,0,0,0,0,0,0,0,0,0,0,0,0,0,0,0,0,0,0,0,0,0,0,0,0,0,0,0,0,0,0,0,0,0,0,0,0,0,0,0,0,0,0,0,0,0,0,0,0,0,0,0,0,0,0,0,0,0,0,0,0,0,0,0,0,0,0,0,0,0,0,0,0,0,0,0,0,0,0,0,0,0,0,0],"sum_hessian":[5.59E3,3.519E3,2.071E3,3.313E3,2.06E2,1.878E3,1.93E2,3.303E3,1E1,1.67E2,3.9E1,1.52E3,3.58E2,1.57E2,3.6E1,2.356E3,9.47E2,4E0,6E0,7.5E1,9.2E1,1.9E1,2E1,2.8E1,1.492E3,1.74E2,1.84E2,9.4E1,6.3E1,2.2E1,1.4E1,2.351E3,5E0,8.9E1,8.58E2,4E0,2E0,3E0,7.2E1,1.5E1,7.7E1,1.3E1,6E0,1.1E1,9E0,1.8E1,1E1,4.6E1,1.446E3,1.54E2,2E1,1.6E1,1.68E2,7.9E1,1.5E1,5.2E1,1.1E1,2E0,2E1,6E0,8E0,2.331E3,2E1,1E0,4E0,1.7E1,7.2E1,1.61E2,6.97E2,1E0,1E0,1E0,2E0,4.4E1,2.8E1,6E0,9E0,7.3E1,4E0,4E0,9E0,2E0,4E0,6E0,5E0,8E0,1E0,8E0,1E1,4E0,6E0,1.1E1,3.5E1,8.2E1,1.364E3,1.12E2,4.2E1,1.7E1,3E0,1.2E1,4E0,3E1,1.38E2,4.2E1,3.7E1,1.1E1,4E0,3.1E1,2.1E1,8E0,3E0,1E0,1E0,1E1,1E1,4E0,2E0,2E0,6E0],"tree_param":{"num_deleted":"0","num_feature":"9","num_nodes":"119","size_leaf_vector":"0"}},{"base_weights":[3.7310014E0,4.62812E0,3.5778234E0,4.412286E0,1.3404143E1,1.7557836E0,3.7570693E0,4.6541734E0,1.3756227E0,7.518854E-1,1.78691E1,4.094932E0,7.945112E-1,1.0826747E1,3.7235627E0,4.748793E0,-2.6806543E0,4.330492E0,-3.9250827E0,-5.3901863E0,1.5731122E1,2.3362596E0,1.8884224E1,1.1753358E0,7.5573387E0,1.7975396E-1,6.4442863E0,1.7106998E1,4.1331773E0,3.708179E0,1.9441544E1,4.6353846E0,1.4347801E1,-3.9743485E0,1.6627483E0,9.477522E0,-7.755515E-2,-5.815709E0,9.987454E0,-2.0491764E-1,1.3429711E1,1.9718393E1,5.1694446E0,-4.219325E0,7.920037E-1,-1.3657294E-1,1.1484742E1,-7.200787E-1,1.9167793E1,7.500943E0,7.654802E-2,4.7987933E0,3.5252638E0,3.7324913E0,5.5105844E0,-8.663386E-1,1.6645012E1,5.2270613E0,-2.7329388E0,1.5252401E0,1.4399407E1,-2.4035087E0,8.311388E0,2.151387E0,-5.378542E0,1.51474E-1,1.5617506E1,8.242118E0,1.6253215E0,-4.7499785E0,6.646121E0,1.2928108E1,5.8728826E-1,5.2625213E0,-6.287456E0,1.5251285E0,1.4431921E1,2.0405848E1,4.6316824E0,1.7262595E0,8.310628E0,-4.995049E0,3.8611088E0,7.620439E-2,5.0988955E0,1.9617038E0,3.8315973E0],"categories":[],"categories_nodes":[],"categories_segments":[],"categories_sizes":[],"default_left":[true,true,true,true,true,true,true,true,true,true,true,true,true,true,true,true,true,true,true,false,false,false,false,true,true,true,true,true,true,true,false,true,true,false,true,true,true,false,false,true,true,false,true,true,true,true,true,false,true,true,true,true,true,false,false,false,false,false,false,false,false,false,false,false,false,false,false,false,false,false,false,false,false,false,false,false,false,false,false,false,false,false,false,false,false,false,false],"id":3,"left_children":[1,3,5,7,9,11,13,15,17,19,21,23,25,27,29,31,33,35,37,-1,-1,-1,-1,39,41,43,45,47,49,51,-1,53,55,-1,57,59,61,-1,-1,63,65,-1,67,69,71,73,75,-1,77,79,81,83,85,-1,-1,-1,-1,-1,-1,-1,-1,-1,-1,-1,-1,-1,-1,-1,-1,-1,-1,-1,-1,-1,-1,-1,-1,-1,-1,-1,-1,-1,-1,-1,-1,-1,-1],"loss_changes":[7.5175E2,1.4789219E3,1.5545195E3,5.768154E2,1.0599089E3,9.636266E2,9.9035156E2,5.2283496E2,9.56771E2,6.3681494E2,1.766294E2,1.2547214E3,1.0616532E3,7.700398E2,9.753789E2,7.238252E2,6.2798683E1,8.8558075E2,6.3675916E2,0E0,0E0,0E0,0E0,1.169828E3,1.5533074E3,7.4939557E2,9.966846E2,3.811819E2,1.4970537E2,8.466758E2,0E0,5.475947E2,2.94021E2,0E0,6.1288048E1,6.825614E2,4.4924692E2,0E0,0E0,7.7958136E2,2.0098474E2,0E0,5.202106E2,2.2760571E2,5.9861285E2,4.9801663E2,4.7698633E2,0E0,6.745508E1,1.3707733E1,1.3444904E2,8.768955E2,1.7699453E3,0E0,0E0,0E0,0E0,0E0,0E0,0E0,0E0,0E0,0E0,0E0,0E0,0E0,0E0,0E0,0E0,0E0,0E0,0E0,0E0,0E0,0E0,0E0,0E0,0E0,0E0,0E0,0E0,0E0,0E0,0E0,0E0,0E0,0E0],"parents":[2147483647,0,0,1,1,2,2,3,3,4,4,5,5,6,6,7,7,8,8,9,9,10,10,11,11,12,12,13,13,14,14,15,15,16,16,17,17,18,18,23,23,24,24,25,25,26,26,27,27,28,28,29,29,31,31,32,32,34,34,35,35,36,36,39,39,40,40,42,42,43,43,44,44,45,45,46,46,48,48,49,49,50,50,51,51,52,52],"right_children":[2,4,6,8,10,12,14,16,18,20,22,24,26,28,30,32,34,36,38,-1,-1,-1,-1,40,42,44,46,48,50,52,-1,54,56,-1,58,60,62,-1,-1,64,66,-1,68,70,72,74,76,-1,78,80,82,84,86,-1,-1,-1,-1,-1,-1,-1,-1,-1,-1,-1,-1,-1,-1,-1,-1,-1,-1,-1,-1,-1,-1,-1,-1,-1,-1,-1,-1,-1,-1,-1,-1,-1,-1],"split_conditions":[2.882414E-1,2.8628185E-1,3.356027E-1,1.35E1,2.07E2,2.4886075E-1,3.3742628E-1,7.8388715E-1,2.5929442E-1,2.8784895E-1,9.5E0,7.843301E1,8.655E2,8.5235634E1,7.992261E-1,7.7201754E-1,9E0,7.805959E1,7.635E2,-1.617056E0,4.719337E0,7.008779E-1,5.6652675E0,2.3537773E-1,1.7213568E7,2.9366636E-1,9.494248E7,8.85E1,1.24087204E2,9.05E1,5.8324633E0,3.33E2,2.165226E-1,-1.1923046E0,3.9E1,4.827536E1,2.4572775E-1,-1.7447128E0,2.9962363E0,5.1671513E1,6.6E1,5.9155183E0,5.02E2,5.7E1,1.2E1,1.5E2,2.35E1,-2.1602362E-1,5.85E1,1.25E2,3.1E1,9.446828E-2,1.925E2,1.1197474E0,1.6531754E0,-2.5990158E-1,4.9935036E0,1.5681185E0,-8.198817E-1,4.5757204E-1,4.3198223E0,-7.2105265E-1,2.4934165E0,6.4541614E-1,-1.6135627E0,4.54422E-2,4.685252E0,2.4726355E0,4.8759648E-1,-1.4249936E0,1.9938364E0,3.8784325E0,1.7618649E-1,1.5787565E0,-1.8862369E0,4.5753857E-1,4.3295765E0,6.1217546E0,1.3895048E0,5.178779E-1,2.4931884E0,-1.4985148E0,1.1583327E0,2.2861317E-2,1.5296687E0,5.8851117E-1,1.1494793E0],"split_indices":[2,2,2,8,1,4,2,4,2,2,0,7,1,7,4,4,8,7,1,0,0,0,0,4,6,2,6,1,7,1,0,1,2,0,0,7,2,0,0,7,1,0,1,0,1,5,0,0,0,5,0,4,1,0,0,0,0,0,0,0,0,0,0,0,0,0,0,0,0,0,0,0,0,0,0,0,0,0,0,0,0,0,0,0,0,0,0],"split_type":[0,0,0,0,0,0,0,0,0,0,0,0,0,0,0,0,0,0,0,0,0,0,0,0,0,0,0,0,0,0,0,0,0,0,0,0,0,0,0,0,0,0,0,0,0,0,0,0,0,0,0,0,0,0,0,0,0,0,0,0,0,0,0,0,0,0,0,0,0,0,0,0,0,0,0,0,0,0,0,0,0,0,0,0,0,0,0],"sum_hessian":[5.59E3,8.11E2,4.779E3,7.93E2,1.8E1,4.29E2,4.35E3,7.34E2,5.9E1,5E0,1.3E1,1.24E2,3.05E2,1.9E1,4.331E3,7.25E2,9E0,3.8E1,2.1E1,4E0,1E0,1E0,1.2E1,6.8E1,5.6E1,2.76E2,2.9E1,9E0,1E1,4.328E3,3E0,7.18E2,7E0,7E0,2E0,1.7E1,2.1E1,1.9E1,2E0,6.2E1,6E0,8E0,4.8E1,3.3E1,2.43E2,1.3E1,1.6E1,1E0,8E0,5E0,5E0,6.18E2,3.71E3,3.56E2,3.62E2,1E0,6E0,1E0,1E0,7E0,1E1,1.7E1,4E0,4.3E1,1.9E1,1E0,5E0,2.5E1,2.3E1,3.2E1,1E0,3E0,2.4E2,7E0,6E0,4E0,1.2E1,7E0,1E0,1E0,4E0,2E0,3E0,3.7E1,5.81E2,6.09E2,3.101E3],"tree_param":{"num_deleted":"0","num_feature":"9","num_nodes":"87","size_leaf_vector":"0"}},{"base_weights":[2.6233559E0,2.0024645E0,2.823042E0,2.328245E0,-8.631096E-2,4.718875E0,2.7257586E0,2.18016E0,9.682774E0,-1.4230064E0,2.722188E0,-2.3969898E0,5.5874324E0,3.3818066E0,2.3059745E0,2.0531943E0,9.68335E0,-2.8805528E0,1.3332618E1,-3.8747542E0,-6.0181372E-2,9.6334305E0,4.0934402E-1,-3.499343E0,1.0927388E1,7.5005717E0,2.0823135E0,3.0300515E0,6.812961E0,3.280808E-1,2.6009324E0,3.683624E0,1.557627E0,-5.660576E0,1.1821493E1,3.6496782E0,-4.916535E0,5.4307218E0,1.6831005E1,-1.1845422E0,-5.1803756E0,-1.0428753E0,5.7591057E0,-4.648885E-1,1.6417297E1,-6.706534E-1,1.6112858E1,-4.5235167E0,9.004154E0,9.44115E0,1.4935044E0,9.563996E0,5.7551295E-1,4.272807E0,2.229078E0,-1.7712547E0,7.530854E0,3.040938E-2,7.3553667E0,1.5816825E1,2.5749538E0,2.7738583E0,9.582832E0,2.0429833E0,-1.5774846E0,-1.4009869E-1,1.4394698E1,-4.202088E0,7.736538E0,1.8165625E1,1.0751014E0,4.642E0,-4.2549706E0,-2.6281068E0,-5.9890137E0,6.8855095E0,-1.4939144E0,1.5083453E1,-7.884994E-1,1.094244E1,-4.18985E0,-3.7360818E0,1.940348E1,-1.5820657E0,6.7547755E0,3.3580595E-1,-7.5397005E0,8.415228E0,1.6704412E1,5.5314035E0,-7.135434E0,-5.483246E0,1.3517078E1,-9.112811E-1,1.3117344E1,3.6941853E0,9.094156E0,8.375457E-1,2.8833296E0,-4.162469E0,1.226605E1,2.2649236E0,8.717857E0,1.8575809E0,-1.1618116E0,1.2084379E1,2.889186E0,1.8444759E0,3.036309E0],"categories":[],"categories_nodes":[],"categories_segments":[],"categories_sizes":[],"default_left":[true,true,true,true,true,true,true,true,true,true,true,true,true,true,true,true,true,true,true,true,true,true,true,true,false,true,true,true,true,true,true,true,true,false,true,false,false,true,true,true,true,true,true,true,true,true,false,true,false,true,true,true,true,true,true,true,true,true,true,false,true,false,false,false,false,false,false,false,false,false,false,false,false,false,false,false,false,false,false,false,false,false,false,false,false,false,false,false,false,false,false,false,false,false,false,false,false,false,false,false,false,false,false,false,false,false,false,false,false],"id":4,"left_children":[1,3,5,7,9,11,13,15,17,19,21,23,25,27,29,31,33,35,37,39,41,43,45,47,-1,49,51,53,55,57,59,61,63,-1,65,-1,-1,67,69,71,73,75,77,79,81,83,-1,85,-1,87,89,91,93,95,97,99,101,103,105,-1,107,-1,-1,-1,-1,-1,-1,-1,-1,-1,-1,-1,-1,-1,-1,-1,-1,-1,-1,-1,-1,-1,-1,-1,-1,-1,-1,-1,-1,-1,-1,-1,-1,-1,-1,-1,-1,-1,-1,-1,-1,-1,-1,-1,-1,-1,-1,-1,-1],"loss_changes":[6.8753516E2,9.283789E2,7.669219E2,1.2640225E3,6.9838367E2,1.2804033E3,1.1004062E3,1.0832832E3,1.0930513E3,4.2077106E2,9.551342E2,3.7606653E2,1.2115391E3,1.8718164E3,1.4325488E3,9.1536816E2,6.9025903E2,9.771637E1,4.061858E2,1.5192151E2,4.749294E2,1.0352172E3,7.9095483E2,3.2245703E2,0E0,1.3614473E3,7.385404E2,1.4079453E3,9.069082E2,6.6915936E2,6.9331445E2,1.3956472E3,1.3361853E3,0E0,5.252705E2,0E0,0E0,1.8799004E2,2.3280762E2,3.0599124E2,4.6176147E1,2.6418323E2,7.4451917E2,3.432902E2,6.141279E2,3.0846213E2,0E0,3.103207E2,0E0,5.226157E2,1.0847526E3,7.2843024E2,1.0561923E3,1.5202891E3,7.8782324E2,4.538515E2,8.178452E2,6.7310297E2,2.3965411E2,0E0,7.13916E2,0E0,0E0,0E0,0E0,0E0,0E0,0E0,0E0,0E0,0E0,0E0,0E0,0E0,0E0,0E0,0E0,0E0,0E0,0E0,0E0,0E0,0E0,0E0,0E0,0E0,0E0,0E0,0E0,0E0,0E0,0E0,0E0,0E0,0E0,0E0,0E0,0E0,0E0,0E0,0E0,0E0,0E0,0E0,0E0,0E0,0E0,0E0,0E0],"parents":[2147483647,0,0,1,1,2,2,3,3,4,4,5,5,6,6,7,7,8,8,9,9,10,10,11,11,12,12,13,13,14,14,15,15,16,16,17,17,18,18,19,19,20,20,21,21,22,22,23,23,25,25,26,26,27,27,28,28,29,29,30,30,31,31,32,32,34,34,37,37,38,38,39,39,40,40,41,41,42,42,43,43,44,44,45,45,47,47,49,49,50,50,51,51,52,52,53,53,54,54,55,55,56,56,57,57,58,58,60,60],"right_children":[2,4,6,8,10,12,14,16,18,20,22,24,26,28,30,32,34,36,38,40,42,44,46,48,-1,50,52,54,56,58,60,62,64,-1,66,-1,-1,68,70,72,74,76,78,80,82,84,-1,86,-1,88,90,92,94,96,98,100,102,104,106,-1,108,-1,-1,-1,-1,-1,-1,-1,-1,-1,-1,-1,-1,-1,-1,-1,-1,-1,-1,-1,-1,-1,-1,-1,-1,-1,-1,-1,-1,-1,-1,-1,-1,-1,-1,-1,-1,-1,-1,-1,-1,-1,-1,-1,-1,-1,-1,-1,-1],"split_conditions":[1.5322869E7,1.1531495E2,7.5E1,8.455E2,7.13E2,7.016085E1,6.542607E1,5.85E1,1.15E1,1.3376974E2,7.57E2,7.937334E-1,2.4220452E7,5.025E2,7.533063E1,1.1307337E1,5E-1,8.71E2,3.8621622E-1,4.5E0,1.25E1,2.7E1,2.0195705E2,5.55E1,3.2782166E0,8.535E2,1.05E1,3.2263014E-1,2.3731047E-1,9.085E2,2.009497E-1,5.15E1,1.262162E7,-1.6981728E0,1.5407461E-1,1.0949035E0,-1.4749606E0,8.67E2,5.25E1,4.165E2,4.0185803E-1,1.3636784E2,1.35E1,4.3527532E-1,2.5E0,1.285E3,4.8338575E0,3.3792627E-1,2.7012463E0,7.1687436E-1,6.219607E-1,9.381188E1,3.795973E7,1.25E1,4.972289E7,7.695E2,1.15E1,2.45E1,1.25E3,4.7450476E0,5.5E0,8.3215755E-1,2.8748498E0,6.12895E-1,-4.732454E-1,-4.2029608E-2,4.3184094E0,-1.2606264E0,2.3209615E0,5.4496875E0,3.2253042E-1,1.3926E0,-1.2764912E0,-7.8843206E-1,-1.7967042E0,2.0656528E0,-4.4817433E-1,4.5250363E0,-2.3654984E-1,3.2827322E0,-1.256955E0,-1.1208246E0,5.8210444E0,-4.7461972E-1,2.0264328E0,1.0074179E-1,-2.2619102E0,2.5245686E0,5.011324E0,1.6594211E0,-2.1406302E0,-1.6449739E0,4.055124E0,-2.7338433E-1,3.9352033E0,1.1082556E0,2.728247E0,2.512637E-1,8.6499894E-1,-1.2487407E0,3.6798153E0,6.794771E-1,2.6153574E0,5.572743E-1,-3.485435E-1,3.625314E0,8.667558E-1,5.5334276E-1,9.108927E-1],"split_indices":[6,7,5,1,1,7,7,0,0,7,1,4,6,1,7,7,8,1,2,8,8,0,7,0,0,1,0,4,2,1,2,0,6,0,4,0,0,1,0,1,2,7,8,2,8,1,0,2,0,2,2,7,6,8,6,1,0,0,5,0,8,0,0,0,0,0,0,0,0,0,0,0,0,0,0,0,0,0,0,0,0,0,0,0,0,0,0,0,0,0,0,0,0,0,0,0,0,0,0,0,0,0,0,0,0,0,0,0,0],"split_type":[0,0,0,0,0,0,0,0,0,0,0,0,0,0,0,0,0,0,0,0,0,0,0,0,0,0,0,0,0,0,0,0,0,0,0,0,0,0,0,0,0,0,0,0,0,0,0,0,0,0,0,0,0,0,0,0,0,0,0,0,0,0,0,0,0,0,0,0,0,0,0,0,0,0,0,0,0,0,0,0,0,0,0,0,0,0,0,0,0,0,0,0,0,0,0,0,0,0,0,0,0,0,0,0,0,0,0,0,0],"sum_hessian":[5.59E3,1.363E3,4.227E3,1.179E3,1.84E2,2.04E2,4.023E3,1.157E3,2.2E1,1.25E2,5.9E1,2.2E1,1.82E2,1.567E3,2.456E3,1.139E3,1.8E1,5E0,1.7E1,4.4E1,8.1E1,1.4E1,4.5E1,2.1E1,1E0,1.17E2,6.5E1,1.423E3,1.44E2,3.19E2,2.137E3,2.64E2,8.75E2,2E0,1.6E1,1E0,4E0,6E0,1.1E1,1.5E1,2.9E1,7E1,1.1E1,6E0,8E0,4.3E1,2E0,2E1,1E0,8.8E1,2.9E1,1E1,5.5E1,5.56E2,8.67E2,1.1E1,1.33E2,3.07E2,1.2E1,3E0,2.134E3,2.3E2,3.4E1,7.58E2,1.17E2,3E0,1.3E1,1E0,5E0,1E1,1E0,5E0,1E1,8E0,2.1E1,3E0,6.7E1,4E0,7E0,1E0,5E0,1E0,7E0,3.9E1,4E0,8E0,1.2E1,7.9E1,9E0,2E1,9E0,2E0,8E0,5E1,5E0,4.98E2,5.8E1,2.78E2,5.89E2,1E1,1E0,2.5E1,1.08E2,1.21E2,1.86E2,5E0,7E0,8.28E2,1.306E3],"tree_param":{"num_deleted":"0","num_feature":"9","num_nodes":"109","size_leaf_vector":"0"}},{"base_weights":[1.8485044E0,4.7865668E-1,1.9277276E0,-8.5939294E-1,3.5668504E0,6.335196E0,1.8878195E0,2.6029912E-1,-4.465075E0,2.1287453E0,8.7094965E0,1.2658425E1,-2.5199977E-1,9.098757E0,1.8722892E0,1.844214E0,-3.6389146E0,-5.745847E0,7.1462655E-1,1.287932E1,9.9076337E-1,1.9312515E1,5.7023454E0,1.4668754E1,-6.3034587E0,4.299885E0,-7.0546265E0,8.737849E-1,1.8793966E1,9.214315E0,1.8578653E0,-4.2510167E-1,5.6704516E0,1.7539734E-1,-5.378008E0,-7.1672688E0,-2.1329947E0,8.087679E0,-6.77753E0,-4.7747912E0,1.6617472E1,4.0161014E0,-2.152695E0,-6.7293334E0,8.846943E0,1.5718234E1,-3.6851666E0,1.6899319E1,-1.8180294E0,8.879827E0,-4.104597E0,-2.1103735E0,1.4369236E1,2.1390681E0,1.5298606E0,-6.324881E0,5.798626E-1,1.2931615E1,2.208299E0,8.090114E0,-2.2733922E0,1.7828035E-1,-6.6193414E0,4.8323107E-1,-7.4577594E0,1.2278231E1,-4.3571157E0,-4.5085354E0,1.1508629E1,1.1001939E1,7.816884E-1,-8.041338E0,1.8755763E0,1.1295389E1,-3.8958206E0,8.689042E0,1.7950642E1,-4.9244785E0,1.462323E1,1.08744545E1,2.4452853E0,4.3306446E0,-7.2960687E0,1.6614246E-1,-4.4699607E0,-6.4445925E-1,1.6978928E1,2.2922199E0,-8.8676596E-1,1.3254693E0,4.3065042E0],"categories":[],"categories_nodes":[],"categories_segments":[],"categories_sizes":[],"default_left":[true,true,true,true,true,true,true,true,true,true,true,true,true,true,true,true,true,true,true,true,true,false,true,true,false,true,false,true,false,true,true,true,true,true,true,true,true,true,false,false,false,true,true,false,true,true,false,false,true,true,true,true,true,true,true,false,false,false,false,false,false,false,false,false,false,false,false,false,false,false,false,false,false,false,false,false,false,false,false,false,false,false,false,false,false,false,false,false,false,false,false],"id":5,"left_children":[1,3,5,7,9,11,13,15,17,19,21,23,25,27,29,31,33,35,37,39,41,-1,43,45,-1,47,-1,49,-1,51,53,55,57,59,61,63,65,67,-1,-1,-1,69,71,-1,73,75,-1,-1,77,79,81,83,85,87,89,-1,-1,-1,-1,-1,-1,-1,-1,-1,-1,-1,-1,-1,-1,-1,-1,-1,-1,-1,-1,-1,-1,-1,-1,-1,-1,-1,-1,-1,-1,-1,-1,-1,-1,-1,-1],"loss_changes":[6.05834E2,1.2716373E3,9.176406E2,8.691719E2,6.692566E2,1.9608503E3,5.696719E2,1.0257546E3,3.4244092E2,8.9255273E2,5.275709E2,1.0073347E3,7.734886E2,8.607493E2,5.366328E2,1.0269976E3,3.1934857E2,1.9526306E2,6.6245514E2,5.41301E2,6.55327E2,0E0,7.2410876E2,4.8168994E2,0E0,1.1869573E3,0E0,3.1544803E2,0E0,6.14103E2,4.7819727E2,4.4834763E2,1.0775704E3,3.2849557E2,2.2878796E2,6.8053345E1,4.701777E2,3.104332E2,0E0,0E0,0E0,7.822277E2,8.215979E2,0E0,4.8080432E2,1.735586E2,0E0,0E0,6.33825E2,1.1912415E1,1.6620084E2,2.2229202E1,2.852102E2,1.303293E3,1.3637222E3,0E0,0E0,0E0,0E0,0E0,0E0,0E0,0E0,0E0,0E0,0E0,0E0,0E0,0E0,0E0,0E0,0E0,0E0,0E0,0E0,0E0,0E0,0E0,0E0,0E0,0E0,0E0,0E0,0E0,0E0,0E0,0E0,0E0,0E0,0E0,0E0],"parents":[2147483647,0,0,1,1,2,2,3,3,4,4,5,5,6,6,7,7,8,8,9,9,10,10,11,11,12,12,13,13,14,14,15,15,16,16,17,17,18,18,19,19,20,20,22,22,23,23,25,25,27,27,29,29,30,30,31,31,32,32,33,33,34,34,35,35,36,36,37,37,41,41,42,42,44,44,45,45,48,48,49,49,50,50,51,51,52,52,53,53,54,54],"right_children":[2,4,6,8,10,12,14,16,18,20,22,24,26,28,30,32,34,36,38,40,42,-1,44,46,-1,48,-1,50,-1,52,54,56,58,60,62,64,66,68,-1,-1,-1,70,72,-1,74,76,-1,-1,78,80,82,84,86,88,90,-1,-1,-1,-1,-1,-1,-1,-1,-1,-1,-1,-1,-1,-1,-1,-1,-1,-1,-1,-1,-1,-1,-1,-1,-1,-1,-1,-1,-1,-1,-1,-1,-1,-1,-1,-1],"split_conditions":[2.3069452E6,1.05E1,2.7141265E6,2.34E2,2.26E2,1.29E2,1.4285069E0,1.674659E6,6.138823E-1,2.6016998E0,2.57E2,7.433532E-1,5.5578035E-1,7.5E0,5.1594954E-2,5.95E1,4.25E1,1.657341E6,9.84717E5,8E0,1.25E1,5.7937546E0,3.03E2,1.75E3,-1.8910377E0,3.5E0,-2.116388E0,6.057855E6,5.6381903E0,4.7259343E-1,7.5E0,1.76951E5,1.75E1,2.4727094E-1,1.4950433E-1,2.2837292E1,1.3E1,2.1E1,-2.0332592E0,-1.4324374E0,4.985242E0,9.32785E0,2.05E1,-2.0188E0,5.4E1,2.5E1,-1.10555E0,5.0697956E0,6E2,1.65E1,5.5E0,5.2E1,1.5E0,1.1689887E9,9.1112794E8,-1.8974644E0,1.7395878E-1,3.8794847E0,6.624897E-1,2.4270341E0,-6.820177E-1,5.348411E-2,-1.9858025E0,1.4496933E-1,-2.2373278E0,3.6834693E0,-1.3071347E0,-1.3525606E0,3.4525888E0,3.3005817E0,2.3450653E-1,-2.4124014E0,5.626729E-1,3.3886168E0,-1.1687462E0,2.6067128E0,5.385193E0,-1.4773436E0,4.386969E0,3.2623365E0,7.335856E-1,1.2991934E0,-2.1888206E0,4.984274E-2,-1.3409883E0,-1.9333778E-1,5.0936785E0,6.87666E-1,-2.660298E-1,3.976408E-1,1.2919513E0],"split_indices":[6,8,6,1,1,1,7,6,4,7,1,4,4,1,4,1,1,6,6,1,8,0,1,5,0,8,0,6,0,2,8,6,0,4,4,7,0,0,0,0,0,7,0,0,0,1,0,0,5,0,1,0,0,6,6,0,0,0,0,0,0,0,0,0,0,0,0,0,0,0,0,0,0,0,0,0,0,0,0,0,0,0,0,0,0,0,0,0,0,0,0],"split_type":[0,0,0,0,0,0,0,0,0,0,0,0,0,0,0,0,0,0,0,0,0,0,0,0,0,0,0,0,0,0,0,0,0,0,0,0,0,0,0,0,0,0,0,0,0,0,0,0,0,0,0,0,0,0,0,0,0,0,0,0,0,0,0,0,0,0,0,0,0,0,0,0,0,0,0,0,0,0,0,0,0,0,0,0,0,0,0,0,0,0,0],"sum_hessian":[5.59E3,3.06E2,5.284E3,2.14E2,9.2E1,4.6E1,5.238E3,1.64E2,5E1,7.3E1,1.9E1,2.3E1,2.3E1,1E1,5.228E3,1.17E2,4.7E1,4E1,1E1,6E0,6.7E1,3E0,1.6E1,2.1E1,2E0,1.4E1,9E0,6E0,4E0,9E0,5.219E3,7.4E1,4.3E1,1.5E1,3.2E1,2.8E1,1.2E1,5E0,5E0,1E0,5E0,3.4E1,3.3E1,3E0,1.3E1,2E1,1E0,4E0,1E1,2E0,4E0,3E0,6E0,2.807E3,2.412E3,1E1,6.4E1,1.3E1,3E1,3E0,1.2E1,6E0,2.6E1,1E0,2.7E1,1E0,1.1E1,1E0,4E0,1E1,2.4E1,1.3E1,2E1,1.1E1,2E0,6E0,1.4E1,9E0,1E0,1E0,1E0,1E0,3E0,2E0,1E0,1E0,5E0,2.672E3,1.35E2,2.248E3,1.64E2],"tree_param":{"num_deleted":"0","num_feature":"9","num_nodes":"91","size_leaf_vector":"0"}},{"base_weights":[1.3010247E0,1.3201655E0,-3.1938722E0,1.3079128E0,8.742943E0,-4.5563254E0,7.8620777E0,2.5652297E0,1.2427548E0,-3.6324475E0,1.9369745E1,5.8108106E0,-5.326704E0,9.409911E0,2.2691965E0,-2.5587664E0,1.2809974E0,-6.6572247E0,4.2333307E0,2.6422777E0,-5.857267E0,-3.5916586E0,1.1069234E1,1.9411128E0,8.429185E0,2.675798E-1,-7.6305213E0,1.2128683E0,3.3164842E0,-5.990905E0,-1.659076E0,1.2850084E1,-2.4792113E0,2.3088257E0,-5.5749044E0,6.744995E-1,1.49797E1,5.015052E0,-3.543777E0,-5.522826E0,-9.838249E0,9.68004E0,1.1975684E0,5.208809E0,-2.9986405E-1],"categories":[],"categories_nodes":[],"categories_segments":[],"categories_sizes":[],"default_left":[true,true,true,true,true,true,false,true,true,true,false,false,true,true,true,true,true,false,false,false,true,false,true,true,true,true,true,true,true,false,false,false,false,false,false,false,false,false,false,false,false,false,false,false,false],"id":6,"left_children":[1,3,5,7,9,11,-1,13,15,17,-1,-1,19,21,23,25,27,-1,-1,-1,29,-1,31,33,35,37,39,41,43,-1,-1,-1,-1,-1,-1,-1,-1,-1,-1,-1,-1,-1,-1,-1,-1],"loss_changes":[4.8524512E2,4.949707E2,3.9733942E2,4.5231055E2,1.253957E3,2.0665811E2,0E0,5.3181396E2,7.720459E2,1.4714337E2,0E0,0E0,1.042655E2,2.770688E2,5.1515906E2,7.617722E2,7.22084E2,0E0,0E0,0E0,1.2813721E0,0E0,2.7313562E2,7.065693E2,6.502597E2,6.5107306E2,3.407617E1,6.449507E2,1.1580806E3,0E0,0E0,0E0,0E0,0E0,0E0,0E0,0E0,0E0,0E0,0E0,0E0,0E0,0E0,0E0,0E0],"parents":[2147483647,0,0,1,1,2,2,3,3,4,4,5,5,7,7,8,8,9,9,12,12,13,13,14,14,15,15,16,16,20,20,22,22,23,23,24,24,25,25,26,26,27,27,28,28],"right_children":[2,4,6,8,10,12,-1,14,16,18,-1,-1,20,22,24,26,28,-1,-1,-1,30,-1,32,34,36,38,40,42,44,-1,-1,-1,-1,-1,-1,-1,-1,-1,-1,-1,-1,-1,-1,-1,-1],"split_conditions":[3.1009764E9,3.011045E9,6.786722E-1,2.3012888E-1,1.4556567E2,2E0,2.3586235E0,1.5178E6,2.3511776E-1,7.945169E-1,5.8109236E0,1.7432432E0,3.5E0,2.0518366E-1,2.2893077E-1,2.3291424E-1,1.0505E3,-1.9971675E0,1.2699993E0,7.9268336E-1,4.1551647E9,-1.0774976E0,5.45E1,9.85E2,8.0364746E1,5.800544E1,6.5400856E7,2.3604937E-1,1.7626016E2,-1.7972715E0,-4.977228E-1,3.8550255E0,-7.4376345E-1,6.9264776E-1,-1.6724714E0,2.0234986E-1,4.4939103E0,1.5045156E0,-1.0631331E0,-1.656848E0,-2.951475E0,2.9040122E0,3.5927054E-1,1.5626427E0,-8.995922E-2],"split_indices":[6,6,4,2,7,8,0,6,2,2,0,0,0,2,2,2,1,0,0,0,6,0,0,1,7,7,6,2,7,0,0,0,0,0,0,0,0,0,0,0,0,0,0,0,0],"split_type":[0,0,0,0,0,0,0,0,0,0,0,0,0,0,0,0,0,0,0,0,0,0,0,0,0,0,0,0,0,0,0,0,0,0,0,0,0,0,0,0,0,0,0,0,0],"sum_hessian":[5.59E3,5.567E3,2.3E1,5.559E3,8E0,2.1E1,2E0,2.72E2,5.287E3,4E0,4E0,1E0,2E1,1E1,2.62E2,5.2E1,5.235E3,3E0,1E0,1E0,1.9E1,1E0,9E0,2.5E2,1.2E1,3.4E1,1.8E1,5.067E3,1.68E2,1.8E1,1E0,8E0,1E0,2.39E2,1.1E1,6E0,6E0,1.5E1,1.9E1,1.1E1,7E0,8E0,5.059E3,1.1E2,5.8E1],"tree_param":{"num_deleted":"0","num_feature":"9","num_nodes":"45","size_leaf_vector":"0"}},{"base_weights":[9.132221E-1,9.04602E-1,1.0362692E1,8.817929E-1,3.8949509E0,3.9222836E-1,1.2757251E1,1.0147699E0,2.382134E-1,-8.769522E0,5.4588304E0,9.315077E-1,5.4760485E0,6.6530496E-2,6.343604E0,6.327189E0,-6.7810845E0,9.448686E-1,-7.8040757E0,1.3950142E1,4.008033E0,-1.4147455E0,7.1736056E-1,1.2122609E1,-1.4087851E0,1.1271384E1,3.3854501E0,7.5527453E-1,1.5258026E0,5.6492867E0,1.739441E1,2.081784E0,1.0740182E1,-4.8130172E-1,-4.358997E0,1.8460457E0,-7.4726135E-1,-4.7331886E0,1.50799E1,7.6059995E0,-3.972342E0,1.2828938E1,-3.7096303E0,-2.469969E0,1.0530033E1],"categories":[],"categories_nodes":[],"categories_segments":[],"categories_sizes":[],"default_left":[true,true,true,true,true,false,false,true,true,false,true,true,true,true,true,true,false,true,false,true,true,true,true,true,true,true,true,false,false,false,false,false,false,false,false,false,false,false,false,false,false,false,false,false,false],"id":7,"left_children":[1,3,5,7,9,-1,-1,11,13,-1,15,17,19,21,23,25,-1,27,-1,29,31,33,35,37,39,41,43,-1,-1,-1,-1,-1,-1,-1,-1,-1,-1,-1,-1,-1,-1,-1,-1,-1,-1],"loss_changes":[4.4604346E2,3.7763867E2,1.14370544E2,4.743921E2,8.7971106E2,0E0,0E0,1.7021099E3,9.9640784E2,0E0,4.4679333E2,5.341094E2,9.8905615E2,8.937335E2,1.1819067E3,4.8544446E2,0E0,4.952556E2,0E0,2.4481836E2,9.242903E2,7.75669E2,1.065974E3,8.190884E2,3.075326E2,3.5092908E2,1.0300375E3,0E0,0E0,0E0,0E0,0E0,0E0,0E0,0E0,0E0,0E0,0E0,0E0,0E0,0E0,0E0,0E0,0E0,0E0],"parents":[2147483647,0,0,1,1,2,2,3,3,4,4,7,7,8,8,10,10,11,11,12,12,13,13,14,14,15,15,17,17,19,19,20,20,21,21,22,22,23,23,24,24,25,25,26,26],"right_children":[2,4,6,8,10,-1,-1,12,14,-1,16,18,20,22,24,26,-1,28,-1,30,32,34,36,38,40,42,44,-1,-1,-1,-1,-1,-1,-1,-1,-1,-1,-1,-1,-1,-1,-1,-1,-1,-1],"split_conditions":[7.992261E-1,7.958778E-1,4.1062534E-1,6.915294E-1,6.65E1,1.1766852E-1,3.8271754E0,6.839628E-1,1.0585E3,-2.6308565E0,5.75E1,6.828124E-1,7.05E1,7.2586167E-1,1.674332E2,7.9723155E-1,-2.0343254E0,1.75E3,-2.3412228E0,3.5E0,1.15E1,5.575E2,4.7193688E-1,3.0029198E7,1.082E3,3.5E3,3.35E1,2.2658236E-1,4.577408E-1,1.6947861E0,5.2183228E0,6.245352E-1,3.2220547E0,-1.4439052E-1,-1.3076991E0,5.5381376E-1,-2.2417842E-1,-1.4199567E0,4.52397E0,2.2818E0,-1.1917026E0,3.8486814E0,-1.1128892E0,-7.4099076E-1,3.1590102E0],"split_indices":[4,2,2,2,1,0,0,2,1,0,0,2,1,2,7,2,0,5,0,8,8,1,4,6,1,5,0,0,0,0,0,0,0,0,0,0,0,0,0,0,0,0,0,0,0],"split_type":[0,0,0,0,0,0,0,0,0,0,0,0,0,0,0,0,0,0,0,0,0,0,0,0,0,0,0,0,0,0,0,0,0,0,0,0,0,0,0,0,0,0,0,0,0],"sum_hessian":[5.59E3,5.586E3,4E0,5.545E3,4.1E1,1E0,3E0,4.595E3,9.5E2,4E0,3.7E1,4.512E3,8.3E1,9.25E2,2.5E1,3.5E1,2E0,4.506E3,6E0,1.1E1,7.2E1,2.82E2,6.43E2,1.4E1,1.1E1,1.2E1,2.3E1,3.399E3,1.107E3,4E0,7E0,5.7E1,1.5E1,2.15E2,6.7E1,3.63E2,2.8E2,2E0,1.2E1,2E0,9E0,1.1E1,1E0,1.3E1,1E1],"tree_param":{"num_deleted":"0","num_feature":"9","num_nodes":"45","size_leaf_vector":"0"}},{"base_weights":[6.422258E-1,7.631581E-1,3.9979093E-2,7.2552073E-1,5.317998E0,-1.4427304E0,8.125599E-1,-2.7467165E0,7.4958044E-1,-1.3637948E0,1.079201E1,-7.894769E-1,-5.8847184E0,1.8792056E0,-2.8833696E-1,2.3953364E0,-6.3910336E0,6.579226E0,7.046118E-1,-4.8208804E0,1.1941225E1,1.7855705E1,5.9847555E0,-1.1887561E0,1.7708948E1,-3.1901853E0,-8.8368E0,4.156733E0,1.05756596E-1,-7.9061046E0,1.0667976E-1,-7.8363943E-1,1.4312794E1,-8.488267E0,1.1788731E0,1.3213813E1,2.0581605E0,-5.885341E-1,7.891443E-1,2.059357E0,-8.466934E0,1.3837804E1,1.459756E0,-9.503663E0,-9.0508854E-1,-6.573281E0,3.9747787E0,1.1834707E0,-9.45923E0,2.4573324E0,8.075883E0,-5.726483E-1,9.4815445E0,-1.9614116E0,-8.669795E0,9.16932E0,-2.1621376E-1,8.293776E0,-3.4285002E0,-9.41197E0,-1.6561294E0,3.9581966E0,-4.9692106E0,3.4034545E0,1.4565252E1,6.6590033E0,-5.3273907E0,-4.170529E0,1.1512673E-1,1.3302607E1,7.772428E-1,4.3955793E0,-4.810878E0,-2.9602537E0,-9.473573E0,-4.319664E0,8.103108E0,8.437546E0,-1.078604E0,-3.8250148E0,-8.84342E0,9.133764E0,-7.668119E0,3.214193E0,-4.448776E0,3.9247448E0,1.6714891E1,-1.5023655E0,3.5245833E0,1.5511333E1,-2.0624263E0,-6.2313476E0,1.3798405E1,-6.4783484E-1,4.6536155E0],"categories":[],"categories_nodes":[],"categories_segments":[],"categories_sizes":[],"default_left":[true,true,true,true,true,true,true,true,true,true,true,true,true,true,true,true,true,true,true,true,false,false,true,true,false,true,true,true,true,true,true,true,false,true,true,true,true,true,true,true,true,false,true,false,true,true,true,false,false,true,true,true,true,false,false,true,true,false,false,false,false,false,false,false,false,false,false,false,false,false,false,false,false,false,false,false,false,false,false,false,false,false,false,false,false,false,false,false,false,false,false,false,false,false,false],"id":8,"left_children":[1,3,5,7,9,11,13,15,17,19,21,23,25,27,29,31,33,35,37,39,-1,-1,41,43,-1,45,47,49,51,53,55,57,-1,59,61,63,65,67,69,71,73,-1,75,-1,77,79,81,-1,-1,83,85,87,89,-1,-1,91,93,-1,-1,-1,-1,-1,-1,-1,-1,-1,-1,-1,-1,-1,-1,-1,-1,-1,-1,-1,-1,-1,-1,-1,-1,-1,-1,-1,-1,-1,-1,-1,-1,-1,-1,-1,-1,-1,-1],"loss_changes":[4.0716797E2,7.943301E2,1.0733723E3,3.879353E2,1.4046141E3,9.268141E2,7.2389026E2,6.1496533E2,1.198114E3,8.8550586E2,6.062346E2,2.096528E3,2.9794275E2,1.2637921E3,9.156237E2,5.4161035E2,3.11648E2,1.02264307E3,4.982749E2,3.937222E2,0E0,0E0,4.7729077E2,6.4239124E2,0E0,5.836417E2,1.2969617E2,8.92603E2,1.1312523E3,5.1093567E1,8.506002E2,3.165372E2,0E0,7.907556E1,1.0510668E2,1.3604126E2,7.8302985E2,7.062228E2,6.2632935E2,1.1744898E2,2.7388184E1,0E0,4.1894998E2,0E0,4.4355334E2,6.599695E1,5.505632E2,0E0,0E0,5.2131464E2,1.4047288E3,6.376335E2,8.6728345E2,0E0,0E0,7.988927E2,5.9365454E2,0E0,0E0,0E0,0E0,0E0,0E0,0E0,0E0,0E0,0E0,0E0,0E0,0E0,0E0,0E0,0E0,0E0,0E0,0E0,0E0,0E0,0E0,0E0,0E0,0E0,0E0,0E0,0E0,0E0,0E0,0E0,0E0,0E0,0E0,0E0,0E0,0E0,0E0],"parents":[2147483647,0,0,1,1,2,2,3,3,4,4,5,5,6,6,7,7,8,8,9,9,10,10,11,11,12,12,13,13,14,14,15,15,16,16,17,17,18,18,19,19,22,22,23,23,25,25,26,26,27,27,28,28,29,29,30,30,31,31,33,33,34,34,35,35,36,36,37,37,38,38,39,39,40,40,42,42,44,44,45,45,46,46,49,49,50,50,51,51,52,52,55,55,56,56],"right_children":[2,4,6,8,10,12,14,16,18,20,22,24,26,28,30,32,34,36,38,40,-1,-1,42,44,-1,46,48,50,52,54,56,58,-1,60,62,64,66,68,70,72,74,-1,76,-1,78,80,82,-1,-1,84,86,88,90,-1,-1,92,94,-1,-1,-1,-1,-1,-1,-1,-1,-1,-1,-1,-1,-1,-1,-1,-1,-1,-1,-1,-1,-1,-1,-1,-1,-1,-1,-1,-1,-1,-1,-1,-1,-1,-1,-1,-1,-1,-1],"split_conditions":[4.4276365E8,4.280837E8,6.536961E8,6.5E0,4.5568782E-1,6.1838406E8,4.957559E2,2.95E1,9.5E0,8.26E2,5.669772E-1,6.145288E8,1.004445E2,4.5499927E-1,1.63E2,2.4E1,6.5136683E-1,3.4557545E-1,2.3069452E6,3E0,3.5823677E0,5.356712E0,4.3411293E8,4.457307E8,5.3126845E0,7.272616E1,1.1109517E-1,3.8113213E-1,7.813095E-1,7.3896275E8,1.985E2,3.5E0,4.2938385E0,7.0414376E-1,6.970731E-1,2.5551745E-1,5.560076E-1,2.5E0,2.332545E6,6.315E2,4.316907E8,4.1513414E0,5.5447865E-1,-2.851099E0,5.5E1,5.255708E1,1.048E3,3.5504124E-1,-2.8377693E0,1.0135E3,5.286445E-1,8.29E2,8.5E0,-5.884235E-1,-2.6009386E0,1.85E1,1.064E3,2.4881327E0,-1.0285501E0,-2.8235912E0,-4.9683884E-1,1.187459E0,-1.4907632E0,1.0210364E0,4.369576E0,1.997701E0,-1.5982172E0,-1.2511587E0,3.453802E-2,3.990782E0,2.3317285E-1,1.3186738E0,-1.4432634E0,-8.880761E-1,-2.842072E0,-1.2958993E0,2.4309325E0,2.5312638E0,-3.2358122E-1,-1.1475044E0,-2.653026E0,2.7401295E0,-2.3004358E0,9.6425796E-1,-1.3346328E0,1.1774235E0,5.0144677E0,-4.5070967E-1,1.0573751E0,4.6534004E0,-6.187279E-1,-1.8694043E0,4.1395216E0,-1.9435047E-1,1.3960847E0],"split_indices":[6,6,6,1,4,6,3,0,1,1,4,6,7,2,1,0,2,4,6,8,0,0,6,6,0,7,4,2,2,6,1,8,0,4,2,2,2,8,6,1,6,0,2,0,1,7,1,0,0,1,4,1,8,0,0,0,1,0,0,0,0,0,0,0,0,0,0,0,0,0,0,0,0,0,0,0,0,0,0,0,0,0,0,0,0,0,0,0,0,0,0,0,0,0,0],"split_type":[0,0,0,0,0,0,0,0,0,0,0,0,0,0,0,0,0,0,0,0,0,0,0,0,0,0,0,0,0,0,0,0,0,0,0,0,0,0,0,0,0,0,0,0,0,0,0,0,0,0,0,0,0,0,0,0,0,0,0,0,0,0,0,0,0,0,0,0,0,0,0,0,0,0,0,0,0,0,0,0,0,0,0,0,0,0,0,0,0,0,0,0,0,0,0],"sum_hessian":[5.59E3,4.655E3,9.35E2,4.618E3,3.7E1,3.2E2,6.15E2,3.1E1,4.587E3,1.7E1,2E1,2.8E2,4E1,3.12E2,3.03E2,1.3E1,1.8E1,3.4E1,4.553E3,1.4E1,3E0,7E0,1.3E1,2.75E2,5E0,2.2E1,1.8E1,1.36E2,1.76E2,1.4E1,2.89E2,1.1E1,2E0,1.4E1,4E0,1.3E1,2.1E1,2.79E2,4.274E3,5E0,9E0,4E0,9E0,8E0,2.67E2,1.5E1,7E0,1E0,1.7E1,9.6E1,4E1,1.65E2,1.1E1,2E0,1.2E1,9E0,2.8E2,2E0,9E0,1.2E1,2E0,3E0,1E0,2E0,1.1E1,1.3E1,8E0,4.5E1,2.34E2,3E0,4.271E3,4E0,1E0,2E0,7E0,5E0,4E0,4E0,2.63E2,8E0,7E0,5E0,2E0,8.7E1,9E0,2.8E1,1.2E1,1.35E2,3E1,7E0,4E0,2E0,7E0,2.58E2,2.2E1],"tree_param":{"num_deleted":"0","num_feature":"9","num_nodes":"95","size_leaf_vector":"0"}},{"base_weights":[4.5507953E-1,1.1723319E1,4.4894966E-1,4.5700553E-1,-7.1232085E0,6.1479774E0,4.4671553E-1,-2.2515922E0,1.0069448E1,-2.8768623E0,4.6883607E-1,-3.3864436E-1,-3.9952178E0,1.5281301E1,2.3402345E0,-9.002498E0,-2.7468237E-1,1.5385094E1,4.6066964E-1,-6.346345E-1,1.2666798E-1,-1.0728822E0,3.8355675E0,-9.873409E-1,-9.705279E0,8.105404E0,-2.547675E0,2.5701421E-1,7.40662E-1],"categories":[],"categories_nodes":[],"categories_segments":[],"categories_sizes":[],"default_left":[true,false,true,true,false,true,true,true,true,true,true,true,false,false,true,true,true,false,true,false,false,false,false,false,false,false,false,false,false],"id":9,"left_children":[1,-1,3,5,-1,7,9,11,13,15,17,19,-1,-1,21,23,25,-1,27,-1,-1,-1,-1,-1,-1,-1,-1,-1,-1],"loss_changes":[3.809226E2,0E0,3.4418628E2,3.2425305E2,0E0,3.5205905E2,4.11219E2,1.1988901E1,2.4622278E2,5.8730743E2,6.6763354E2,4.9357146E-1,0E0,0E0,2.4530096E1,5.2379517E1,5.3494257E2,0E0,3.1554028E2,0E0,0E0,0E0,0E0,0E0,0E0,0E0,0E0,0E0,0E0],"parents":[2147483647,0,0,2,2,3,3,5,5,6,6,7,7,8,8,9,9,10,10,11,11,14,14,15,15,16,16,18,18],"right_children":[2,-1,4,6,-1,8,10,12,14,16,18,20,-1,-1,22,24,26,-1,28,-1,-1,-1,-1,-1,-1,-1,-1,-1,-1],"split_conditions":[2.0040527E-1,3.516996E0,2.3242065E2,5.1594954E-2,-2.1369627E0,4.7259343E-1,5.6538317E-2,5.2E1,4.957559E2,3.5E2,5.6782603E-2,3.2E1,-1.1985654E0,4.58439E0,1.5E0,9E0,2.8398728E7,4.615528E0,3.45E1,-1.9039036E-1,3.8000394E-2,-3.2186466E-1,1.1506703E0,-2.962023E-1,-2.911584E0,2.4316213E0,-7.643025E-1,7.710427E-2,2.221986E-1],"split_indices":[2,0,7,4,0,2,4,0,3,5,4,0,0,0,0,0,6,0,0,0,0,0,0,0,0,0,0,0,0],"split_type":[0,0,0,0,0,0,0,0,0,0,0,0,0,0,0,0,0,0,0,0,0,0,0,0,0,0,0,0,0],"sum_hessian":[5.59E3,2E0,5.588E3,5.583E3,5E0,9E0,5.574E3,3E0,6E0,3.6E1,5.538E3,2E0,1E0,3E0,3E0,1E1,2.6E1,2E0,5.536E3,1E0,1E0,1E0,2E0,1E0,9E0,5E0,2.1E1,3.206E3,2.33E3],"tree_param":{"num_deleted":"0","num_feature":"9","num_nodes":"29","size_leaf_vector":"0"}},{"base_weights":[3.201325E-1,1.185315E0,2.603636E-1,1.9680921E0,-7.679714E-1,3.0217497E0,2.3366934E-1,2.7348335E0,-1.4433769E0,-4.0355124E0,2.7068362E0,-8.7087965E-1,1.4167763E1,-3.278182E0,2.6921457E-1,2.0799713E0,1.1153034E1,-3.7473557E0,1.0544937E1,-6.430923E0,5.9129953E0,6.0637603E0,-2.6720008E-1,-3.0166738E0,6.3785315E0,-5.097579E0,1.6198006E1,6.3542384E-1,-4.5990105E0,1.2851562E1,2.6180255E-1,2.9698548E0,-2.6012995E0,1.9325748E1,5.1341023E0,8.639967E0,-4.95267E0,1.7266338E1,-4.9304938E-1,-6.5777975E-1,-8.8307E0,1.6493998E1,-5.6535063E0,1.0187786E1,-5.4071302E0,-4.1779394E0,2.9269755E0,1.93136E0,-5.9829755E0,-1.3990166E0,1.2880373E1,-2.6374326E0,5.4388046E0,-5.879536E0,2.094755E0,6.0469613E0,2.4592021E-1,1.1484045E0,6.0066686E0,2.6497424E0,-4.177581E0,1.2590628E1,-4.840549E0,-5.3413086E0,1.5080829E1,-5.7182097E0,2.983973E0,-6.8215384E0,9.246209E0,-6.2317133E0,1.0621643E1,-3.457206E0,-1.0871801E1,-6.6537557E0,-3.2612872E-1,1.5244692E1,-2.4668052E0,-6.682979E0,1.1239815E0,-5.8581634E0,3.3755286E0,5.474341E0,-6.083707E0,-2.3475165E0,1.5550495E1,6.4394E-2,-6.6982183E0,7.7577353E0,-5.6276383E0,-4.4388857E0,5.8870964E0,1.2194691E0,6.038778E0,-6.6748114E0,4.2981563E0,7.4308343E0,-3.7650132E0,1.9051749E0,1.3121141E1,-2.4841955E-1,3.888419E-1],"categories":[],"categories_nodes":[],"categories_segments":[],"categories_sizes":[],"default_left":[true,true,true,true,true,true,true,true,true,true,true,true,true,true,true,true,true,true,true,true,true,true,true,true,true,false,false,true,true,false,true,true,true,false,true,true,true,false,true,true,true,false,true,true,true,true,true,true,true,true,false,true,true,true,true,true,true,false,false,false,false,false,false,false,false,false,false,false,false,false,false,false,false,false,false,false,false,false,false,false,false,false,false,false,false,false,false,false,false,false,false,false,false,false,false,false,false,false,false,false,false],"id":10,"left_children":[1,3,5,7,9,11,13,15,17,19,21,23,25,27,29,31,33,35,37,39,41,43,45,47,49,-1,-1,51,53,-1,55,57,59,-1,61,63,65,-1,67,69,71,-1,73,75,77,79,81,83,85,87,-1,89,91,93,95,97,99,-1,-1,-1,-1,-1,-1,-1,-1,-1,-1,-1,-1,-1,-1,-1,-1,-1,-1,-1,-1,-1,-1,-1,-1,-1,-1,-1,-1,-1,-1,-1,-1,-1,-1,-1,-1,-1,-1,-1,-1,-1,-1,-1,-1],"loss_changes":[2.8880762E2,5.5347595E2,3.8488748E2,6.788016E2,1.1917473E3,2.1817031E3,6.477495E2,1.1399948E3,1.3653152E3,1.324887E3,5.1078455E2,6.103602E2,5.9104395E2,2.7172083E2,4.7515567E2,8.283854E2,6.386448E2,6.549461E2,6.020391E2,6.037787E2,1.4394858E3,1.1904368E3,3.6199316E2,4.5187613E2,4.7313535E2,0E0,0E0,2.3443535E2,3.4660614E2,0E0,4.6977484E2,9.113153E2,2.7593735E2,0E0,8.04708E2,4.4075717E2,2.4794403E2,0E0,3.0961258E2,9.4638165E2,3.02417E2,0E0,2.9802277E1,1.1894808E3,6.584053E1,1.8476414E2,4.0056036E2,7.358002E2,8.261273E1,2.3725993E2,0E0,1.6434102E2,7.824829E0,2.957937E2,2.468545E2,3.851984E2,3.6155154E2,0E0,0E0,0E0,0E0,0E0,0E0,0E0,0E0,0E0,0E0,0E0,0E0,0E0,0E0,0E0,0E0,0E0,0E0,0E0,0E0,0E0,0E0,0E0,0E0,0E0,0E0,0E0,0E0,0E0,0E0,0E0,0E0,0E0,0E0,0E0,0E0,0E0,0E0,0E0,0E0,0E0,0E0,0E0,0E0],"parents":[2147483647,0,0,1,1,2,2,3,3,4,4,5,5,6,6,7,7,8,8,9,9,10,10,11,11,12,12,13,13,14,14,15,15,16,16,17,17,18,18,19,19,20,20,21,21,22,22,23,23,24,24,27,27,28,28,30,30,31,31,32,32,34,34,35,35,36,36,38,38,39,39,40,40,42,42,43,43,44,44,45,45,46,46,47,47,48,48,49,49,51,51,52,52,53,53,54,54,55,55,56,56],"right_children":[2,4,6,8,10,12,14,16,18,20,22,24,26,28,30,32,34,36,38,40,42,44,46,48,50,-1,-1,52,54,-1,56,58,60,-1,62,64,66,-1,68,70,72,-1,74,76,78,80,82,84,86,88,-1,90,92,94,96,98,100,-1,-1,-1,-1,-1,-1,-1,-1,-1,-1,-1,-1,-1,-1,-1,-1,-1,-1,-1,-1,-1,-1,-1,-1,-1,-1,-1,-1,-1,-1,-1,-1,-1,-1,-1,-1,-1,-1,-1,-1,-1,-1,-1,-1],"split_conditions":[5E-1,4.35E1,4.1452725E5,7.0189977E-1,4.0229815E-1,3.139515E5,7.684995E5,6.68273E-1,7.910403E-1,5.65E1,4.957559E2,6.383636E-1,1.6927942E0,5.1085275E5,7.830405E5,3.5E3,1.5E1,7.1E1,6.197426E1,3.8618255E-1,1.9156498E-1,5.35E1,4.75E1,3.2387727E-1,3.65E1,-1.5292737E0,4.8594017E0,4.769575E5,7.2215396E-1,3.8554685E0,1.3736433E0,8.2771336E7,2.949615E-1,5.7977247E0,6.8453944E-1,3.1E1,9.767616E8,5.1799016E0,3.15E1,1.9390608E8,2.2535188E7,4.9481993E0,5.16E2,7.00516E-1,3.3E2,7.824588E-1,3.065334E8,6.4225763E-1,2.2264109E0,2.15E1,3.8641121E0,3.25E2,9E0,5.75E1,7.5E1,7.5E0,1.5110558E7,3.4452134E-1,1.8020006E0,7.9492277E-1,-1.2532743E0,3.7771885E0,-1.4521648E0,-1.6023927E0,4.5242486E0,-1.715463E0,8.9519197E-1,-2.0464616E0,2.7738628E0,-1.8695141E0,3.1864932E0,-1.0371618E0,-3.2615407E0,-1.9961268E0,-9.783862E-2,4.5734076E0,-7.400416E-1,-2.0048938E0,3.3719444E-1,-1.757449E0,1.0126586E0,1.6423024E0,-1.8251121E0,-7.04255E-1,4.6651487E0,1.93182E-2,-2.0094657E0,2.3273206E0,-1.6882915E0,-1.3316658E0,1.766129E0,3.6584073E-1,1.8116335E0,-2.0024436E0,1.289447E0,2.2292504E0,-1.129504E0,5.7155246E-1,3.9363425E0,-7.452587E-2,1.1665257E-1],"split_indices":[8,0,6,2,4,6,6,2,2,0,3,4,7,6,6,5,0,1,7,2,4,0,0,4,1,0,0,6,4,0,7,6,2,0,2,0,6,0,0,6,6,0,1,4,1,4,6,2,7,0,0,1,1,0,5,1,6,0,0,0,0,0,0,0,0,0,0,0,0,0,0,0,0,0,0,0,0,0,0,0,0,0,0,0,0,0,0,0,0,0,0,0,0,0,0,0,0,0,0,0,0],"split_type":[0,0,0,0,0,0,0,0,0,0,0,0,0,0,0,0,0,0,0,0,0,0,0,0,0,0,0,0,0,0,0,0,0,0,0,0,0,0,0,0,0,0,0,0,0,0,0,0,0,0,0,0,0,0,0,0,0,0,0,0,0,0,0,0,0,0,0,0,0,0,0,0,0,0,0,0,0,0,0,0,0,0,0,0,0,0,0,0,0,0,0,0,0,0,0,0,0,0,0,0,0],"sum_hessian":[5.59E3,3.6E2,5.23E3,2.57E2,1.03E2,4.9E1,5.181E3,2.1E2,4.7E1,5.3E1,5E1,3.7E1,1.2E1,5.1E1,5.13E3,1.96E2,1.4E1,4E1,7E0,4.3E1,1E1,2.3E1,2.7E1,2.9E1,8E0,1E0,1.1E1,1.3E1,3.8E1,2E0,5.128E3,1.65E2,3.1E1,5E0,9E0,3E0,3.7E1,4E0,3E0,1.3E1,3E1,5E0,5E0,1.7E1,6E0,1.2E1,1.5E1,1.1E1,1.8E1,4E0,4E0,8E0,5E0,3.2E1,6E0,1.3E1,5.115E3,1.04E2,6.1E1,7E0,2.4E1,5E0,4E0,1E0,2E0,3.4E1,3E0,2E0,1E0,9E0,4E0,9E0,2.1E1,4E0,1E0,1.2E1,5E0,5E0,1E0,1E1,2E0,1.2E1,3E0,9E0,2E0,2E0,1.6E1,1E0,3E0,7E0,1E0,1E0,4E0,3E1,2E0,3E0,3E0,9E0,4E0,1.147E3,3.968E3],"tree_param":{"num_deleted":"0","num_feature":"9","num_nodes":"101","size_leaf_vector":"0"}},{"base_weights":[2.312719E-1,4.120787E-1,-9.636923E-2,3.736077E-1,1.7653282E1,-1.556694E0,1.6801974E-1,2.3470041E-3,7.502748E-1,1.8802519E0,-2.6658466E0,7.254523E0,1.000245E-1,1.7944865E-1,-3.7845962E0,5.7653368E-2,1.690773E0,1.0777907E1,3.4556788E-1,7.400283E0,-3.1072676E0,9.655311E0,-6.3673267E0,-4.8879576E-1,8.461006E-1,3.1380408E-2,4.3775296E0,-6.5160165E0,-1.564689E0,8.3825743E-1,-1.2287859E0,1.5925883E0,1.3714797E1,1.3816127E-1,1.6838024E1,5.528967E0,-1.6054062E0,-8.3275E0,1.5330404E1,-5.6505623E0,-6.48264E-1,1.2724767E1,-1.199522E0,-3.340749E0,-1.7697075E-1,7.1741023E0,5.2038246E-1,7.351457E-1,-1.0190779E0,-1.1429027E0,7.4583716E0,7.8627696E0,-7.1514897E0,2.0675554E0,-6.3899846E0,1.5970026E0,-1.3248695E0,-2.6499627E0,8.2183564E-1,-9.028381E-1,2.110747E0,1.7409376E1,-2.3790503E0,4.776301E0,-4.5460324E0,4.6974263E0,1.8078554E1,-4.886453E0,8.853834E0,2.9008949E0,-7.5373597E0,1.7792297E1,2.7951908E-1,-7.428152E0,-1.3316234E0,-2.1752198E0,4.3524904E0,1.5119743E1,-5.6124997E0,5.1112666E0,-5.0068736E0,-7.665929E-1,-6.386968E0,3.7246042E-1,-1.9686656E0,1.3664154E1,1.8876766E0,1.7122018E0,-9.922157E-1],"categories":[],"categories_nodes":[],"categories_segments":[],"categories_sizes":[],"default_left":[true,true,true,true,false,true,true,true,true,true,true,true,true,true,true,true,true,true,true,true,true,true,false,true,true,true,true,true,true,true,true,true,true,true,true,true,true,false,true,true,true,true,true,true,true,true,true,false,false,false,false,false,false,false,false,false,false,false,false,false,false,false,false,false,false,false,false,false,false,false,false,false,false,false,false,false,false,false,false,false,false,false,false,false,false,false,false,false,false],"id":11,"left_children":[1,3,5,7,-1,9,11,13,15,17,19,21,23,25,27,29,31,33,35,37,39,41,-1,43,45,47,49,51,53,55,57,59,61,63,65,67,69,-1,71,73,75,77,79,81,83,85,87,-1,-1,-1,-1,-1,-1,-1,-1,-1,-1,-1,-1,-1,-1,-1,-1,-1,-1,-1,-1,-1,-1,-1,-1,-1,-1,-1,-1,-1,-1,-1,-1,-1,-1,-1,-1,-1,-1,-1,-1,-1,-1],"loss_changes":[3.3124915E2,2.383225E3,7.68202E2,5.0286896E2,0E0,1.1677021E3,8.111892E2,1.2159402E3,1.1626682E3,1.0204072E3,1.0494202E3,5.847292E2,7.340524E2,1.0764781E3,4.80948E2,1.0343516E3,8.7185376E2,7.0693286E2,6.662003E2,1.3748962E3,1.3847183E3,4.8172168E2,0E0,8.3002466E2,1.5153307E3,1.2382972E3,1.01197144E3,3.8517432E2,8.194377E2,1.0541648E3,1.1358387E3,9.742617E2,3.9817773E2,1.3034294E2,2.0502686E1,6.666017E2,1.3049612E3,0E0,2.5440247E2,8.269341E2,8.799637E2,5.679501E2,1.21701035E2,7.165166E2,8.305934E2,1.2093368E3,1.2672251E3,0E0,0E0,0E0,0E0,0E0,0E0,0E0,0E0,0E0,0E0,0E0,0E0,0E0,0E0,0E0,0E0,0E0,0E0,0E0,0E0,0E0,0E0,0E0,0E0,0E0,0E0,0E0,0E0,0E0,0E0,0E0,0E0,0E0,0E0,0E0,0E0,0E0,0E0,0E0,0E0,0E0,0E0],"parents":[2147483647,0,0,1,1,2,2,3,3,5,5,6,6,7,7,8,8,9,9,10,10,11,11,12,12,13,13,14,14,15,15,16,16,17,17,18,18,19,19,20,20,21,21,23,23,24,24,25,25,26,26,27,27,28,28,29,29,30,30,31,31,32,32,33,33,34,34,35,35,36,36,38,38,39,39,40,40,41,41,42,42,43,43,44,44,45,45,46,46],"right_children":[2,4,6,8,-1,10,12,14,16,18,20,22,24,26,28,30,32,34,36,38,40,42,-1,44,46,48,50,52,54,56,58,60,62,64,66,68,70,-1,72,74,76,78,80,82,84,86,88,-1,-1,-1,-1,-1,-1,-1,-1,-1,-1,-1,-1,-1,-1,-1,-1,-1,-1,-1,-1,-1,-1,-1,-1,-1,-1,-1,-1,-1,-1,-1,-1,-1,-1,-1,-1,-1,-1,-1,-1,-1,-1],"split_conditions":[1.5561226E8,1.5369688E8,1.627039E-1,2.915E2,5.2959847E0,3.1756932E-1,1.6712993E-1,1.15174484E2,3.45E1,2.38E2,2.2966484E1,6.69E2,5.349384E-1,9.479274E1,4.50301E-1,5.711825E-1,1.5082202E8,1.4E1,2.05E1,1.4078903E1,4.656221E8,6.8020326E-1,-1.9101981E0,7.5E2,5.474323E-1,1.415E2,1.995E2,2E0,6.879701E-1,7.345E2,6.02E2,6.1343925E1,5.1E1,1.03456855E-1,2.4E1,6.403504E-2,1.1935625E-1,-2.4982502E0,6.8246555E-1,9.5E0,1.593258E2,5.2E1,2.45E1,2.1396966E8,4.5526975E-1,4.2940758E8,4.6074803E8,2.2054371E-1,-3.0572337E-1,-3.4287083E-1,2.2375116E0,2.358831E0,-2.145447E0,6.202667E-1,-1.9169954E0,4.791008E-1,-3.9746088E-1,-7.949888E-1,2.465507E-1,-2.7085143E-1,6.332241E-1,5.222813E0,-7.137151E-1,1.4328903E0,-1.3638098E0,1.409228E0,5.4235663E0,-1.465936E0,2.6561503E0,8.702685E-1,-2.261208E0,5.3376894E0,8.3855726E-2,-2.2284458E0,-3.9948705E-1,-6.5256596E-1,1.3057472E0,4.535923E0,-1.68375E0,1.53338E0,-1.5020622E0,-2.2997789E-1,-1.9160905E0,1.1173813E-1,-5.905997E-1,4.0992465E0,5.66303E-1,5.1366055E-1,-2.9766473E-1],"split_indices":[6,6,4,1,0,2,4,7,0,1,7,1,2,7,2,2,6,0,0,7,6,2,0,5,2,1,1,0,2,1,1,7,0,4,0,4,4,0,2,8,7,0,0,6,2,6,6,0,0,0,0,0,0,0,0,0,0,0,0,0,0,0,0,0,0,0,0,0,0,0,0,0,0,0,0,0,0,0,0,0,0,0,0,0,0,0,0,0,0],"split_type":[0,0,0,0,0,0,0,0,0,0,0,0,0,0,0,0,0,0,0,0,0,0,0,0,0,0,0,0,0,0,0,0,0,0,0,0,0,0,0,0,0,0,0,0,0,0,0,0,0,0,0,0,0,0,0,0,0,0,0,0,0,0,0,0,0,0,0,0,0,0,0,0,0,0,0,0,0,0,0,0,0,0,0,0,0,0,0,0,0],"sum_hessian":[5.59E3,3.602E3,1.988E3,3.595E3,7E0,3.04E2,1.684E3,1.811E3,1.784E3,7.4E1,2.3E2,1.5E1,1.669E3,1.731E3,8E1,1.028E3,7.56E2,1E1,6.4E1,9E0,2.21E2,1.3E1,2E0,9.33E2,7.36E2,1.673E3,5.8E1,3.5E1,4.5E1,6.4E2,3.88E2,7.51E2,5E0,4E0,6E0,1.7E1,4.7E1,3E0,6E0,1.08E2,1.13E2,1E1,3E0,9.1E1,8.42E2,3.5E1,7.01E2,1.002E3,6.71E2,2.1E1,3.7E1,1E0,3.4E1,2.6E1,1.9E1,4.74E2,1.66E2,2.29E2,1.59E2,1.29E2,6.22E2,4E0,1E0,2E0,2E0,1E0,5E0,4E0,1.3E1,2.7E1,2E1,5E0,1E0,7.6E1,3.2E1,8.7E1,2.6E1,9E0,1E0,1E0,2E0,5E1,4.1E1,6.45E2,1.97E2,1.5E1,2E1,3.92E2,3.09E2],"tree_param":{"num_deleted":"0","num_feature":"9","num_nodes":"89","size_leaf_vector":"0"}},{"base_weights":[1.6570105E-1,2.1897168E-1,-7.009515E-1,1.417243E-1,1.4754866E0,2.7375355E0,-1.0740936E0,1.6947562E-1,-4.279783E0,4.356586E0,3.242028E-1,-6.8354325E0,3.9635472E0,-1.6219195E0,9.114382E-1,1.5814202E-1,8.124125E0,-5.3574495E0,7.564255E0,5.5095644E0,-2.6303322E0,1.3993154E0,-3.535038E0,-1.3634181E0,6.4288526E0,-3.6759672E0,-7.72876E-1,5.5169954E0,-1.9898208E0,2.6537985E-1,-6.38438E-1,-3.0489743E0,1.3203158E1,-6.2226996E0,4.2156167E0,2.097703E0,9.788366E0,6.3176126E0,-7.3091536E0,7.9269876E0,2.8721315E-1,-3.975248E0,8.577421E0,4.7227845E0,-3.4753168E0,4.0430614E-1,1.0411525E1,-5.7729106E0,-8.9730674E-1,1.401896E1,-1.0420281E0,-3.4610229E0,7.934551E0,-7.4261894E0,9.0273404E-1,2.2907652E-1,7.386921E0,-4.104782E0,-3.5585946E-1,1.5108776E0,-6.084339E0,-3.7870038E0,-9.421256E0,7.890838E0,-1.5674129E0,5.466381E0,-2.4451735E0,1.1672094E1,-6.337576E-1,9.749847E0,-3.7056625E0,-1.1544962E0,-7.9341736E0,7.1633175E-2,1.2341147E1,-1.9121028E0,3.048668E0,-5.093284E0,2.1118379E0,6.5055714E0,5.786052E-1,2.9849706E0,-4.8246393E0,-3.4796011E0,9.331987E0,1.2536068E1,-6.4792275E0,-7.102553E0,-2.3001404E0,5.492149E0,-4.366642E0,-1.995961E-1,-6.124569E0,5.9947834E0,-6.551141E0,1.137785E1,-1.9961206E0,4.8627E0,-9.879562E0,3.9341285E0,-5.59718E0],"categories":[],"categories_nodes":[],"categories_segments":[],"categories_sizes":[],"default_left":[true,true,true,true,true,true,true,true,true,true,true,false,true,true,true,true,true,true,false,true,true,true,true,true,true,true,true,true,true,true,true,true,false,true,true,true,true,true,true,true,true,true,false,true,true,true,true,true,true,false,true,true,true,true,true,false,false,false,false,false,false,false,false,false,false,false,false,false,false,false,false,false,false,false,false,false,false,false,false,false,false,false,false,false,false,false,false,false,false,false,false,false,false,false,false,false,false,false,false,false,false],"id":12,"left_children":[1,3,5,7,9,11,13,15,17,19,21,-1,23,25,27,29,31,33,-1,35,37,39,41,43,45,47,49,51,53,55,57,59,-1,61,63,65,67,69,71,73,75,77,-1,79,81,83,85,87,89,-1,91,93,95,97,99,-1,-1,-1,-1,-1,-1,-1,-1,-1,-1,-1,-1,-1,-1,-1,-1,-1,-1,-1,-1,-1,-1,-1,-1,-1,-1,-1,-1,-1,-1,-1,-1,-1,-1,-1,-1,-1,-1,-1,-1,-1,-1,-1,-1,-1,-1],"loss_changes":[2.5827393E2,5.1111606E2,4.1864673E2,6.098213E2,1.0102614E3,4.0266284E2,3.2018192E2,4.435393E2,4.3620673E2,7.1534326E2,9.1360345E2,0E0,3.8961053E2,3.9827338E2,8.661403E2,4.2113654E2,4.3749597E2,2.6644232E2,0E0,1.0743679E3,5.9043225E2,1.2463467E3,2.9003473E2,1.4494759E2,4.7566638E2,3.852085E2,6.675337E2,5.700831E2,6.357036E2,1.1213867E3,5.7155524E2,5.0715134E1,0E0,1.746709E2,7.612994E1,6.714162E2,6.552678E2,2.081408E2,2.546109E1,8.659857E2,9.046795E2,3.3061847E2,0E0,1.8400414E1,8.4137505E1,3.445402E2,5.1184583E2,1.5912976E2,6.8899713E2,0E0,6.924121E2,2.1459003E2,7.065968E2,4.701306E2,5.5402277E2,0E0,0E0,0E0,0E0,0E0,0E0,0E0,0E0,0E0,0E0,0E0,0E0,0E0,0E0,0E0,0E0,0E0,0E0,0E0,0E0,0E0,0E0,0E0,0E0,0E0,0E0,0E0,0E0,0E0,0E0,0E0,0E0,0E0,0E0,0E0,0E0,0E0,0E0,0E0,0E0,0E0,0E0,0E0,0E0,0E0,0E0],"parents":[2147483647,0,0,1,1,2,2,3,3,4,4,5,5,6,6,7,7,8,8,9,9,10,10,12,12,13,13,14,14,15,15,16,16,17,17,19,19,20,20,21,21,22,22,23,23,24,24,25,25,26,26,27,27,28,28,29,29,30,30,31,31,33,33,34,34,35,35,36,36,37,37,38,38,39,39,40,40,41,41,43,43,44,44,45,45,46,46,47,47,48,48,50,50,51,51,52,52,53,53,54,54],"right_children":[2,4,6,8,10,12,14,16,18,20,22,-1,24,26,28,30,32,34,-1,36,38,40,42,44,46,48,50,52,54,56,58,60,-1,62,64,66,68,70,72,74,76,78,-1,80,82,84,86,88,90,-1,92,94,96,98,100,-1,-1,-1,-1,-1,-1,-1,-1,-1,-1,-1,-1,-1,-1,-1,-1,-1,-1,-1,-1,-1,-1,-1,-1,-1,-1,-1,-1,-1,-1,-1,-1,-1,-1,-1,-1,-1,-1,-1,-1,-1,-1,-1,-1,-1,-1],"split_conditions":[1.7853168E2,1.5377524E2,2.6536614E-1,1.5188907E2,2.2980943E-1,1.8410912E2,7.003502E8,1.5165504E2,1.0995E3,7.2092927E-1,4.8797126E8,-2.0506299E0,2.1985593E-1,4.1847134E-1,1.0368704E9,1.22339294E2,3.8337384E7,3.5E3,2.2692766E0,3.2E1,2.5E0,3.63E2,1.783555E2,2.0839585E-1,1.25E3,1.1514398E8,4.1977614E-1,1.8525577E2,3.5E3,1.21489006E2,1.2396069E2,2.85E1,3.9609478E0,1.5318323E2,1.2E1,7.59E2,1.7661499E2,9.46E2,4.06E2,2.68E2,5.3053087E-1,9.9E2,2.5732265E0,1.25E1,3E0,4.35E1,5.1E1,9.81E2,1.6231942E8,4.205688E0,4.6540093E8,6E0,2.1227243E2,3.3589774E-1,9.19E2,6.8722956E-2,2.2160764E0,-1.2314347E0,-1.0675784E-1,4.532633E-1,-1.8253018E0,-1.1361011E0,-2.826377E0,2.3672516E0,-4.7022387E-1,1.6399144E0,-7.335521E-1,3.5016284E0,-1.9012728E-1,2.9249544E0,-1.1116987E0,-3.4634888E-1,-2.3802521E0,2.1489954E-2,3.7023444E0,-5.7363087E-1,9.1460043E-1,-1.5279853E0,6.3355136E-1,1.9516715E0,1.7358156E-1,8.954912E-1,-1.4473919E0,-1.0438803E0,2.7995963E0,3.7608206E0,-1.9437684E0,-2.130766E0,-6.9004214E-1,1.6476448E0,-1.3099927E0,-5.9878834E-2,-1.8373708E0,1.7984351E0,-1.9653423E0,3.413355E0,-5.988362E-1,1.4588101E0,-2.9638689E0,1.1802386E0,-1.679154E0],"split_indices":[7,7,2,7,4,7,6,7,1,2,6,0,2,2,6,7,6,5,0,0,8,1,7,2,5,6,2,7,5,7,7,0,0,7,0,1,7,1,1,1,4,1,0,0,0,0,0,1,6,0,6,0,7,2,1,0,0,0,0,0,0,0,0,0,0,0,0,0,0,0,0,0,0,0,0,0,0,0,0,0,0,0,0,0,0,0,0,0,0,0,0,0,0,0,0,0,0,0,0,0,0],"split_type":[0,0,0,0,0,0,0,0,0,0,0,0,0,0,0,0,0,0,0,0,0,0,0,0,0,0,0,0,0,0,0,0,0,0,0,0,0,0,0,0,0,0,0,0,0,0,0,0,0,0,0,0,0,0,0,0,0,0,0,0,0,0,0,0,0,0,0,0,0,0,0,0,0,0,0,0,0,0,0,0,0,0,0,0,0,0,0,0,0,0,0,0,0,0,0,0,0,0,0,0,0],"sum_hessian":[5.59E3,5.267E3,3.23E2,4.963E3,3.04E2,3.1E1,2.92E2,4.933E3,3E1,8.6E1,2.18E2,3E0,2.8E1,2.29E2,6.3E1,4.927E3,6E0,2.8E1,2E0,7.4E1,1.2E1,1.71E2,4.7E1,9E0,1.9E1,6.6E1,1.63E2,2.4E1,3.9E1,4.343E3,5.84E2,2E0,4E0,2.6E1,2E0,4.2E1,3.2E1,4E0,8E0,2.4E1,1.47E2,4.6E1,1E0,2E0,7E0,8E0,1.1E1,3.7E1,2.9E1,2E0,1.61E2,5E0,1.9E1,1.3E1,2.6E1,4.322E3,2.1E1,4.3E1,5.41E2,1E0,1E0,1.6E1,1E1,1E0,1E0,2.4E1,1.8E1,2.7E1,5E0,3E0,1E0,1E0,7E0,9E0,1.5E1,8.2E1,6.5E1,3.9E1,7E0,1E0,1E0,1E0,6E0,6E0,2E0,1E1,1E0,2.6E1,1.1E1,1E1,1.9E1,1.39E2,2.2E1,1E0,4E0,1.4E1,5E0,2E0,1.1E1,1.8E1,8E0],"tree_param":{"num_deleted":"0","num_feature":"9","num_nodes":"101","size_leaf_vector":"0"}},{"base_weights":[1.1891559E-1,1.0454443E-1,3.190874E0,1.2774277E-1,-6.334741E0,8.128504E0,9.4393146E-1,1.1686879E-1,8.717029E0,-2.9275894E-2,-8.434611E0,8.877835E0,1.4415903E0,-4.7283964E0,2.7717786E0,1.01090595E-1,3.3353815E0,-3.2052233E0,1.1238275E1,-4.7163672E0,6.229938E0,-9.2496E0,1.4876204E0,1.0615455E1,3.022525E0,-6.0307946E0,-1.849866E0,4.0240808E0,-3.57879E0,1.2634596E-1,-2.9716477E0,-1.239617E0,1.0102617E1,1.2219941E1,3.1649723E0,1.3652096E0,-7.1986294E0,-1.5076828E-1,4.684556E0,1.2427886E0,6.230504E0,1.0388821E-1,4.6506476E0,1.4886843E0,-4.2885623E0,3.6412437E0,-4.232927E0,3.2725375E0,1.5248928E1,4.408633E0,-2.2337537E0],"categories":[],"categories_nodes":[],"categories_segments":[],"categories_sizes":[],"default_left":[true,true,true,true,true,true,true,true,true,true,true,true,false,true,true,true,true,false,true,true,false,false,false,false,true,false,false,true,false,true,true,true,true,false,false,false,false,false,false,true,false,false,false,false,false,false,false,false,false,false,false],"id":13,"left_children":[1,3,5,7,9,11,13,15,17,19,21,23,-1,25,27,29,31,-1,33,35,-1,-1,-1,-1,37,-1,-1,39,-1,41,43,45,47,-1,-1,-1,-1,-1,-1,49,-1,-1,-1,-1,-1,-1,-1,-1,-1,-1,-1],"loss_changes":[2.4649557E2,8.3226227E2,2.8078607E2,5.170697E2,2.6456622E2,2.7287598E1,2.1010088E2,2.810476E2,2.4643372E2,2.0540771E2,1.350575E2,3.9134583E1,0E0,7.5887985E0,1.336938E2,4.283568E2,8.484459E2,0E0,8.875977E0,7.021192E1,0E0,0E0,0E0,0E0,1.6528618E1,0E0,0E0,7.203403E1,0E0,5.554015E2,2.707087E2,2.637819E2,3.3674414E2,0E0,0E0,0E0,0E0,0E0,0E0,8.689115E1,0E0,0E0,0E0,0E0,0E0,0E0,0E0,0E0,0E0,0E0,0E0],"parents":[2147483647,0,0,1,1,2,2,3,3,4,4,5,5,6,6,7,7,8,8,9,9,10,10,11,11,13,13,14,14,15,15,16,16,18,18,19,19,24,24,27,27,29,29,30,30,31,31,32,32,39,39],"right_children":[2,4,6,8,10,12,14,16,18,20,22,24,-1,26,28,30,32,-1,34,36,-1,-1,-1,-1,38,-1,-1,40,-1,42,44,46,48,-1,-1,-1,-1,-1,-1,50,-1,-1,-1,-1,-1,-1,-1,-1,-1,-1,-1],"split_conditions":[1.329E3,1.2765E3,1.3915094E2,1.262E3,1.45E1,5.2E1,3.3058262E-1,7.9636437E-1,7E0,1.1E1,7.7999663E-1,1.408E3,4.3247712E-1,1.3805E3,1.15E1,7.8949213E-1,1.25E1,-9.6156704E-1,7.730247E-1,5.5E0,1.8689815E0,-2.7748802E0,4.462861E-1,3.1846366E0,1E1,-1.8092384E0,-5.5495983E-1,5.0533587E-1,-1.073637E0,7.8521556E-1,3.9391032E-1,3.015E2,3.5E2,3.6659825E0,9.4949174E-1,4.095629E-1,-2.1595888E0,-4.5230485E-2,1.4053669E0,1.3755E3,1.8691512E0,3.1166466E-2,1.3951943E0,4.466053E-1,-1.2865688E0,1.0923731E0,-1.2698781E0,9.817613E-1,4.5746784E0,1.32259E0,-6.7012614E-1],"split_indices":[1,1,7,1,0,0,2,4,0,0,2,1,0,1,8,4,8,0,2,0,0,0,0,0,0,0,0,2,0,4,2,1,5,0,0,0,0,0,0,1,0,0,0,0,0,0,0,0,0,0,0],"split_type":[0,0,0,0,0,0,0,0,0,0,0,0,0,0,0,0,0,0,0,0,0,0,0,0,0,0,0,0,0,0,0,0,0,0,0,0,0,0,0,0,0,0,0,0,0,0,0,0,0,0,0],"sum_hessian":[5.59E3,5.565E3,2.5E1,5.546E3,1.9E1,7E0,1.8E1,5.54E3,6E0,5E0,1.4E1,6E0,1E0,4E0,1.4E1,5.514E3,2.6E1,1E0,5E0,3E0,2E0,1.3E1,1E0,4E0,2E0,2E0,2E0,1.2E1,2E0,5.47E3,4.4E1,1.6E1,1E1,4E0,1E0,1E0,2E0,1E0,1E0,6E0,6E0,5.444E3,2.6E1,1E1,3.4E1,6E0,1E1,5E0,5E0,3E0,3E0],"tree_param":{"num_deleted":"0","num_feature":"9","num_nodes":"51","size_leaf_vector":"0"}},{"base_weights":[8.529287E-2,1.6827074E0,5.9147358E-2,-1.4009576E0,3.6705117E0,-6.673488E0,7.630854E-2,8.625477E0,-2.2444384E0,1.0371236E1,1.5593508E0,5.249161E0,-7.9943967E0,9.559055E0,6.765038E-2,-6.5274796E0,-1.8785949E-1,1.7981749E0,1.5504626E1,5.618043E0,-1.8878655E0,1.5318704E0,-8.915908E0,1.10955715E1,1.7064948E0,-3.485137E-1,1.9596721E-1,-7.655487E0,-9.676306E-1,-3.878301E0,6.3937984E0,8.459179E0,-7.682556E0,5.144724E-1,1.1798576E1,-5.419708E0,5.8532825E0,-9.882305E0,-2.7226152E0,3.5099164E-1,-1.1878033E0,1.5680733E1,1.7743778E-1,-2.410416E0,-8.809733E0,1.3891957E0,-9.319447E0,8.22274E0,-4.1188684E0,7.1142607E0,-5.215985E0,1.59729E1,-1.8743715E0,-6.9713182E0,9.703029E0,9.8503895E0,-4.0920253E0,1.8559623E-1,6.3215733E0,-1.3600802E0,3.7728667E0,4.0551295E0,1.757335E1,6.921701E0,1.5640526E-1],"categories":[],"categories_nodes":[],"categories_segments":[],"categories_sizes":[],"default_left":[true,true,true,true,true,true,true,false,true,true,true,false,true,true,true,true,true,true,false,true,true,false,true,false,false,true,true,true,false,true,true,false,false,true,true,true,true,false,false,true,true,true,true,false,false,false,false,false,false,false,false,false,false,false,false,false,false,false,false,false,false,false,false,false,false],"id":14,"left_children":[1,3,5,7,9,11,13,-1,15,17,19,-1,21,23,25,27,29,31,-1,33,35,-1,37,-1,-1,39,41,43,-1,45,47,-1,-1,49,51,53,55,-1,-1,57,59,61,63,-1,-1,-1,-1,-1,-1,-1,-1,-1,-1,-1,-1,-1,-1,-1,-1,-1,-1,-1,-1,-1,-1],"loss_changes":[2.3340984E2,5.5681726E2,6.362104E2,3.2381512E2,7.618745E2,2.6244604E2,4.500178E2,0E0,2.9825977E2,5.4423535E2,6.1222723E2,0E0,1.277793E2,4.1393402E1,2.9297202E2,6.1579376E1,6.0773846E2,4.4389526E2,0E0,6.247857E2,6.8789545E2,0E0,4.4916443E1,0E0,0E0,7.5952106E2,1.2002897E3,3.325177E1,0E0,4.71526E2,2.069119E2,0E0,0E0,4.9094553E2,5.4361694E2,4.6654102E2,3.583277E2,0E0,0E0,6.960065E2,5.0764166E2,3.8751953E1,5.9312244E2,0E0,0E0,0E0,0E0,0E0,0E0,0E0,0E0,0E0,0E0,0E0,0E0,0E0,0E0,0E0,0E0,0E0,0E0,0E0,0E0,0E0,0E0],"parents":[2147483647,0,0,1,1,2,2,3,3,4,4,5,5,6,6,8,8,9,9,10,10,12,12,13,13,14,14,15,15,16,16,17,17,19,19,20,20,22,22,25,25,26,26,27,27,29,29,30,30,33,33,34,34,35,35,36,36,39,39,40,40,41,41,42,42],"right_children":[2,4,6,8,10,12,14,-1,16,18,20,-1,22,24,26,28,30,32,-1,34,36,-1,38,-1,-1,40,42,44,-1,46,48,-1,-1,50,52,54,56,-1,-1,58,60,62,64,-1,-1,-1,-1,-1,-1,-1,-1,-1,-1,-1,-1,-1,-1,-1,-1,-1,-1,-1,-1,-1,-1],"split_conditions":[2.0976958E-1,2.0370622E-1,2.1107998E-1,2.0040527E-1,2.0511818E-1,2.6108345E6,2.1161725E-1,2.5876431E0,4.4085504E7,4.0081513E-1,4.957559E2,1.5747483E0,5E-1,4.4E1,3.5144097E-1,8.3E2,8.5E0,1.0128484E8,4.651388E0,6.618581E7,2.084192E-1,4.5956114E-1,1.25E1,3.3286717E0,5.1194847E-1,2.882414E-1,3.517747E-1,1.535E2,-2.902892E-1,5.5E0,2.0251215E-1,2.5377538E0,-2.304767E0,7.77545E6,6.3405704E-1,7.285E2,1.640716E2,-2.9646916E0,-8.167846E-1,2.8628185E-1,5.75E1,1.75E1,5.3063296E-2,-7.231248E-1,-2.64292E0,4.1675872E-1,-2.795834E0,2.4668221E0,-1.2356606E0,2.1342783E0,-1.5647955E0,4.79187E0,-5.623115E-1,-2.0913956E0,2.9109087E0,2.955117E0,-1.2276076E0,5.567887E-2,1.8964721E0,-4.080241E-1,1.13186E0,1.2165389E0,5.2720056E0,2.0765104E0,4.6921577E-2],"split_indices":[2,2,2,2,2,6,2,0,6,4,3,0,8,0,2,1,8,6,0,6,2,0,8,0,0,2,2,1,0,8,2,0,0,6,4,1,7,0,0,2,0,0,4,0,0,0,0,0,0,0,0,0,0,0,0,0,0,0,0,0,0,0,0,0,0],"split_type":[0,0,0,0,0,0,0,0,0,0,0,0,0,0,0,0,0,0,0,0,0,0,0,0,0,0,0,0,0,0,0,0,0,0,0,0,0,0,0,0,0,0,0,0,0,0,0,0,0,0,0,0,0,0,0,0,0,0,0,0,0,0,0,0,0],"sum_hessian":[5.59E3,8.9E1,5.501E3,3.5E1,5.4E1,1.3E1,5.488E3,2E0,3.3E1,1.2E1,4.2E1,1E0,1.2E1,4E0,5.484E3,1E1,2.3E1,5E0,7E0,1.9E1,2.3E1,1E0,1.1E1,3E0,1E0,1.292E3,4.192E3,8E0,2E0,1.5E1,8E0,3E0,2E0,1.1E1,8E0,1.6E1,7E0,9E0,2E0,7.05E2,5.87E2,4E0,4.188E3,2E0,6E0,8E0,7E0,7E0,1E0,5E0,6E0,6E0,2E0,1.5E1,1E0,5E0,2E0,6.87E2,1.8E1,5.68E2,1.9E1,1E0,3E0,1.2E1,4.176E3],"tree_param":{"num_deleted":"0","num_feature":"9","num_nodes":"65","size_leaf_vector":"0"}},{"base_weights":[6.388931E-2,-1.7903735E-1,2.1561168E-1,1.1216076E-2,-2.2998352E0,6.040562E0,1.6262543E-1,3.4058836E-1,-7.714142E-1,-1.4678416E0,-9.141263E0,1.5535475E1,2.6239014E0,-1.2788343E0,2.6334107E-1,8.0123776E-1,-8.858777E-1,-3.7232435E0,-4.3947998E-1,-3.5421839E0,1.2114159E-1,-3.5431561E0,-9.591443E0,-1.2161641E0,1.8102304E1,4.895523E0,-5.0068846E0,9.447804E-1,-3.4132097E0,6.658738E-1,-4.0806774E-2,6.2297827E-1,7.0371704E0,-6.063098E0,-4.0863726E-1,6.9499245E0,-4.840202E0,-7.8370273E-1,2.5901697E0,-5.1249213E0,8.926463E-1,1.0495298E1,-7.3462594E-1,1.1860441E0,1.2735053E1,-1.0675634E0,-6.709654E0,-5.9209204E-1,4.5487585E0,-6.55017E0,-2.4584436E0,2.4373145E0,3.0167818E-1,-7.1282977E-1,9.803152E-1,3.3706895E-1,3.6429243E0,-7.217159E-1,9.186036E0,1.6621747E0,-8.707446E0,-1.1988381E0,2.2206552E0,-7.624913E0,1.1389874E1,-2.547154E0,-7.8200865E0,9.375896E-1,-1.3440589E0,-3.4727447E0,5.2343636E0,-7.263816E0,-2.2052312E0,3.19726E0,-6.1997237E0,1.1415936E1,2.4857368E0,3.9406455E-1,-6.486847E0,9.553103E0,-1.964345E0,1.002011E0,-4.220574E0,8.639572E0,1.9037087E-1,2.493802E0,-7.011681E0,3.5139744E0,-3.3457587E0,7.95291E0,1.7395021E0,-1.4431796E0,9.3221545E-1,-2.2038482E-1,-2.7675157E0,-3.3882613E0,1.2145091E0],"categories":[],"categories_nodes":[],"categories_segments":[],"categories_sizes":[],"default_left":[true,true,true,true,true,true,true,true,true,true,true,true,true,true,true,true,true,true,true,true,true,false,false,false,false,true,true,true,true,true,true,true,true,true,true,true,true,true,true,true,true,true,true,true,false,false,false,true,true,true,true,true,true,true,true,false,false,false,false,false,false,false,false,false,false,false,false,false,false,false,false,false,false,false,false,false,false,false,false,false,false,false,false,false,false,false,false,false,false,false,false,false,false,false,false,false,false],"id":15,"left_children":[1,3,5,7,9,11,13,15,17,19,21,23,25,27,29,31,33,35,37,39,41,-1,-1,-1,-1,43,45,47,49,51,53,55,57,59,61,63,65,67,69,71,73,75,77,79,-1,-1,-1,81,83,85,87,89,91,93,95,-1,-1,-1,-1,-1,-1,-1,-1,-1,-1,-1,-1,-1,-1,-1,-1,-1,-1,-1,-1,-1,-1,-1,-1,-1,-1,-1,-1,-1,-1,-1,-1,-1,-1,-1,-1,-1,-1,-1,-1,-1,-1],"loss_changes":[2.0610837E2,8.675272E2,1.0613644E3,5.0911404E2,9.940704E2,9.649043E2,4.9568253E2,7.860193E2,5.7155444E2,5.245083E2,1.3898926E1,3.6600415E2,4.405335E2,1.0615891E3,3.9057718E2,1.119458E3,9.3641846E2,7.370068E2,5.516247E2,4.8889746E2,8.15596E2,0E0,0E0,0E0,0E0,5.374265E2,3.3083557E1,6.119673E2,3.2533386E2,8.85057E2,1.2482422E3,8.483879E2,4.7346826E2,6.6817944E2,7.277688E2,4.7511612E2,3.4906396E2,4.5845062E2,8.838799E2,3.0247192E2,3.303804E2,2.3240295E1,5.544168E2,3.8779846E2,0E0,0E0,0E0,4.5539462E2,5.8672375E2,1.2600696E2,4.8340497E2,8.86797E2,1.2555709E3,1.1093563E3,7.427889E2,0E0,0E0,0E0,0E0,0E0,0E0,0E0,0E0,0E0,0E0,0E0,0E0,0E0,0E0,0E0,0E0,0E0,0E0,0E0,0E0,0E0,0E0,0E0,0E0,0E0,0E0,0E0,0E0,0E0,0E0,0E0,0E0,0E0,0E0,0E0,0E0,0E0,0E0,0E0,0E0,0E0,0E0],"parents":[2147483647,0,0,1,1,2,2,3,3,4,4,5,5,6,6,7,7,8,8,9,9,10,10,11,11,12,12,13,13,14,14,15,15,16,16,17,17,18,18,19,19,20,20,25,25,26,26,27,27,28,28,29,29,30,30,31,31,32,32,33,33,34,34,35,35,36,36,37,37,38,38,39,39,40,40,41,41,42,42,43,43,47,47,48,48,49,49,50,50,51,51,52,52,53,53,54,54],"right_children":[2,4,6,8,10,12,14,16,18,20,22,24,26,28,30,32,34,36,38,40,42,-1,-1,-1,-1,44,46,48,50,52,54,56,58,60,62,64,66,68,70,72,74,76,78,80,-1,-1,-1,82,84,86,88,90,92,94,96,-1,-1,-1,-1,-1,-1,-1,-1,-1,-1,-1,-1,-1,-1,-1,-1,-1,-1,-1,-1,-1,-1,-1,-1,-1,-1,-1,-1,-1,-1,-1,-1,-1,-1,-1,-1,-1,-1,-1,-1,-1,-1],"split_conditions":[2.595E2,2.365E2,2.635E2,5.79054E-1,7.525753E-1,4.5E0,4.5E0,4.997876E1,6.0102195E-1,3.4337154E-1,1.7276856E-1,2.605E2,5.8679867E-1,6.5E0,7.339862E7,4.6387554E1,5.255548E1,2.2919258E-1,8.757892E1,3.75E1,2.4592414E-1,-1.0629469E0,-2.877433E0,-3.6484924E-1,5.4306917E0,3.9862496E-1,4.15E1,1.75E3,2.444728E7,1.45E1,5.002651E-1,5.3319514E-1,3.5E2,3.3713987E-1,2.075E2,2.1939993E-1,5.9007585E-1,1.2064859E1,3.8681316E-1,5.2928364E-1,9.939626E1,4.6E1,3.5E3,2.5400308E-1,3.820516E0,-3.2026905E-1,-2.0128963E0,1.1529393E8,4.8623088E8,2.2838153E-1,3.5262344E7,5.19185E1,2.65E1,4.059048E-1,9.130127E7,1.0112069E-1,1.0928774E0,-2.1651478E-1,2.755811E0,4.9865243E-1,-2.6122339E0,-3.5965145E-1,6.661966E-1,-2.2874742E0,3.4169624E0,-7.641462E-1,-2.346026E0,2.8127688E-1,-4.0321767E-1,-1.0418235E0,1.5703092E0,-2.1791449E0,-6.6156936E-1,9.5917803E-1,-1.8599172E0,3.424781E0,7.457211E-1,1.1821937E-1,-1.9460541E0,2.865931E0,-5.893035E-1,3.006033E-1,-1.2661722E0,2.5918717E0,5.7111263E-2,7.4814063E-1,-2.1035044E0,1.0541924E0,-1.0037277E0,2.385873E0,5.2185065E-1,-4.329539E-1,2.7966464E-1,-6.611545E-2,-8.3025473E-1,-1.0164784E0,3.6435276E-1],"split_indices":[1,1,1,4,2,8,0,7,4,4,4,1,4,8,6,7,7,2,7,0,2,0,0,0,0,4,0,5,6,0,4,4,5,2,1,2,4,7,2,2,7,0,5,2,0,0,0,6,6,2,6,7,0,4,6,0,0,0,0,0,0,0,0,0,0,0,0,0,0,0,0,0,0,0,0,0,0,0,0,0,0,0,0,0,0,0,0,0,0,0,0,0,0,0,0,0,0],"split_type":[0,0,0,0,0,0,0,0,0,0,0,0,0,0,0,0,0,0,0,0,0,0,0,0,0,0,0,0,0,0,0,0,0,0,0,0,0,0,0,0,0,0,0,0,0,0,0,0,0,0,0,0,0,0,0,0,0,0,0,0,0,0,0,0,0,0,0,0,0,0,0,0,0,0,0,0,0,0,0,0,0,0,0,0,0,0,0,0,0,0,0,0,0,0,0,0,0],"sum_hessian":[5.59E3,2.149E3,3.441E3,1.973E3,1.76E2,3E1,3.411E3,1.389E3,5.84E2,1.58E2,1.8E1,7E0,2.3E1,2.22E2,3.189E3,1.01E3,3.79E2,5.8E1,5.26E2,6.8E1,9E1,2E0,1.6E1,1E0,6E0,1.8E1,5E0,1.09E2,1.13E2,1.372E3,1.817E3,9.83E2,2.7E1,3.1E1,3.48E2,5E0,5.3E1,4.73E2,5.3E1,5E1,1.8E1,6E0,8.4E1,1.3E1,5E0,2E0,3E0,7.7E1,3.2E1,2.5E1,8.8E1,2.33E2,1.139E3,1.096E3,7.21E2,8.99E2,8.4E1,6E0,2.1E1,8E0,2.3E1,2.68E2,8E1,1E0,4E0,3.1E1,2.2E1,1.16E2,3.57E2,1.6E1,3.7E1,2.8E1,2.2E1,1.4E1,4E0,5E0,1E0,7.1E1,1.3E1,3E0,1E1,5.4E1,2.3E1,1.6E1,1.6E1,1E0,2.4E1,1.1E1,7.7E1,2.5E1,2.08E2,3.02E2,8.37E2,8.85E2,2.11E2,3.6E1,6.85E2],"tree_param":{"num_deleted":"0","num_feature":"9","num_nodes":"97","size_leaf_vector":"0"}},{"base_weights":[4.5693096E-2,-5.0682044E-1,1.3444357E-1,-2.540657E-1,-4.4110465E0,1.7447089E0,6.1411053E-2,1.977604E0,-8.4151757E-1,-9.589939E0,-2.7521584E0,6.594368E0,4.4874677E-1,-5.8771296E0,9.116803E-2,-2.125095E0,3.5634081E0,5.298321E-2,-2.4649677E0,-6.1188045E0,1.0427702E-1,4.8942604E0,1.4881469E1,4.067043E0,-1.9201273E0,-6.645399E0,5.5123987E0,5.5400505E0,7.686221E-2,-3.588266E0,1.30378895E1,7.695976E0,1.4489702E0,-2.8360102E-1,1.0202192E1,1.1910115E0,-3.7802916E0,-1.6022131E0,-9.120197E0,8.8384E0,-3.1775365E0,1.1803229E1,2.005228E0,1.4195023E0,8.955075E0,4.1134395E-3,-5.248655E0,4.3031616E0,-7.3716717E0,-4.695198E0,8.056621E0,-5.530644E-1,2.1327288E-1,1.517651E0,-7.8348184E0,3.7187057E0,1.5672062E1,5.310954E0,-8.8261527E-1,-7.425756E-1,4.4727798E0,1.2115049E1,-5.4196167E0,-1.6145989E0,1.1378999E1,-5.4349E0,-2.2832854E0,1.2822916E1,-5.494791E0,1.2657415E1,-5.1283393E0,-4.9439816E0,6.125053E0,1.4425061E1,3.3232372E-3,4.328292E0,-7.2340546E0,-2.4632516E0,7.1647716E0,1.9663117E0,1.5197582E1,4.485149E0,-2.2364979E0,-7.1730957E0,-4.7876358E-2,-8.072421E0,3.3216567E0,-5.0396376E0,1.007172E1,-1.7174889E-1,-4.2055206E0,6.9277775E-1,-1.0130968E-2],"categories":[],"categories_nodes":[],"categories_segments":[],"categories_sizes":[],"default_left":[true,true,true,true,true,true,true,true,true,false,true,true,true,true,true,true,true,true,true,true,true,true,false,true,true,true,false,true,true,true,false,true,true,true,true,true,true,true,false,true,true,true,true,true,true,true,true,false,true,false,true,true,true,false,false,false,false,false,false,false,false,false,false,false,false,false,false,false,false,false,false,false,false,false,false,false,false,false,false,false,false,false,false,false,false,false,false,false,false,false,false,false,false],"id":16,"left_children":[1,3,5,7,9,11,13,15,17,-1,19,21,23,25,27,29,31,33,35,37,39,41,-1,43,45,47,-1,49,51,53,-1,55,57,59,61,63,65,67,-1,69,71,73,75,77,79,81,83,-1,85,-1,87,89,91,-1,-1,-1,-1,-1,-1,-1,-1,-1,-1,-1,-1,-1,-1,-1,-1,-1,-1,-1,-1,-1,-1,-1,-1,-1,-1,-1,-1,-1,-1,-1,-1,-1,-1,-1,-1,-1,-1,-1,-1],"loss_changes":[2.742275E2,7.626716E2,5.664979E2,9.5607117E2,3.7739355E2,1.3106003E3,8.15183E2,9.9649615E2,8.38037E2,0E0,3.5645248E2,5.4708044E2,1.430643E3,2.3788733E2,3.5721228E2,1.0007832E3,9.5003503E2,1.2770851E3,9.9030566E2,2.1584058E2,6.300234E2,7.348208E2,0E0,8.414116E2,6.469153E2,2.0665753E2,0E0,3.4692E2,3.9341367E2,8.7919244E2,0E0,1.1154729E3,6.710239E2,7.935883E2,4.2424634E2,1.5904662E3,3.6161157E2,5.1966675E2,0E0,3.849467E2,2.932024E2,3.4026306E2,6.322875E2,9.991771E2,9.73547E2,6.626478E2,3.6997443E2,0E0,1.8417395E2,0E0,3.146604E2,1.1343594E3,4.031117E2,0E0,0E0,0E0,0E0,0E0,0E0,0E0,0E0,0E0,0E0,0E0,0E0,0E0,0E0,0E0,0E0,0E0,0E0,0E0,0E0,0E0,0E0,0E0,0E0,0E0,0E0,0E0,0E0,0E0,0E0,0E0,0E0,0E0,0E0,0E0,0E0,0E0,0E0,0E0,0E0],"parents":[2147483647,0,0,1,1,2,2,3,3,4,4,5,5,6,6,7,7,8,8,10,10,11,11,12,12,13,13,14,14,15,15,16,16,17,17,18,18,19,19,20,20,21,21,23,23,24,24,25,25,27,27,28,28,29,29,31,31,32,32,33,33,34,34,35,35,36,36,37,37,39,39,40,40,41,41,42,42,43,43,44,44,45,45,46,46,48,48,50,50,51,51,52,52],"right_children":[2,4,6,8,10,12,14,16,18,-1,20,22,24,26,28,30,32,34,36,38,40,42,-1,44,46,48,-1,50,52,54,-1,56,58,60,62,64,66,68,-1,70,72,74,76,78,80,82,84,-1,86,-1,88,90,92,-1,-1,-1,-1,-1,-1,-1,-1,-1,-1,-1,-1,-1,-1,-1,-1,-1,-1,-1,-1,-1,-1,-1,-1,-1,-1,-1,-1,-1,-1,-1,-1,-1,-1,-1,-1,-1,-1,-1,-1],"split_conditions":[2.0945059E1,1.775E2,2.6571459E1,1.25E1,1.35E1,6.348252E6,2.7155355E1,2.55E1,1.3226075E1,-2.8769817E0,2.13E2,2.5712616E1,9.95E1,3.095E2,2.7382969E1,6.9913507E-1,5E1,1.2747595E1,4.5E0,5.5E0,2.315E2,2.1932928E1,4.464441E0,7.65E1,5.9063375E-1,5.1E1,1.6537197E0,2.5E0,1.15E1,1.55E1,3.911367E0,6.2463474E-1,3.8270935E-1,7.620782E7,9.5E1,1.9697695E1,3.3E1,9.3985096E-2,-2.7360592E0,5.3E1,6.8587446E-1,5.45E1,3.2E1,2.3839819E1,3.253017E7,3.4474832E-1,4.05E1,1.2909485E0,5.85E1,-1.4085594E0,3.2928133E-1,1.05E1,6.54251E1,4.552953E-1,-2.3504455E0,1.1156118E0,4.7016187E0,1.5932863E0,-2.647846E-1,-2.2277269E-1,1.341834E0,3.634515E0,-1.6258851E0,-4.8437968E-1,3.4136999E0,-1.63047E0,-6.8498564E-1,3.846875E0,-1.6484374E0,3.7972248E0,-1.5385019E0,-1.4831946E0,1.837516E0,4.3275185E0,9.969712E-4,1.2984877E0,-2.1702166E0,-7.389755E-1,2.1494315E0,5.898935E-1,4.5592747E0,1.3455447E0,-6.709494E-1,-2.151929E0,-1.4362908E-2,-2.4217265E0,9.9649704E-1,-1.5118914E0,3.021516E0,-5.152467E-2,-1.2616563E0,2.0783333E-1,-3.0392904E-3],"split_indices":[7,1,7,0,0,6,7,1,7,0,1,7,1,1,7,4,1,7,8,8,1,7,0,1,2,1,0,8,0,1,0,2,2,6,1,7,0,4,0,0,4,0,0,7,6,4,0,0,0,0,2,0,7,0,0,0,0,0,0,0,0,0,0,0,0,0,0,0,0,0,0,0,0,0,0,0,0,0,0,0,0,0,0,0,0,0,0,0,0,0,0,0,0],"split_type":[0,0,0,0,0,0,0,0,0,0,0,0,0,0,0,0,0,0,0,0,0,0,0,0,0,0,0,0,0,0,0,0,0,0,0,0,0,0,0,0,0,0,0,0,0,0,0,0,0,0,0,0,0,0,0,0,0,0,0,0,0,0,0,0,0,0,0,0,0,0,0,0,0,0,0,0,0,0,0,0,0,0,0,0,0,0,0,0,0,0,0,0,0],"sum_hessian":[5.59E3,7.73E2,4.817E3,7.27E2,4.6E1,2.08E2,4.609E3,1.51E2,5.76E2,1E1,3.6E1,4.3E1,1.65E2,2.2E1,4.587E3,4.2E1,1.09E2,3.72E2,2.04E2,1.6E1,2E1,3.7E1,6E0,6.5E1,1E2,2.1E1,1E0,1.1E1,4.576E3,3.9E1,3E0,3.6E1,7.3E1,3.61E2,1.1E1,5.4E1,1.5E2,7E0,9E0,5E0,1.5E1,1E1,2.7E1,4.3E1,2.2E1,6.4E1,3.6E1,1E0,2E1,2E0,9E0,8.14E2,3.762E3,1.8E1,2.1E1,2.5E1,1.1E1,2.7E1,4.6E1,3.3E2,3.1E1,1E1,1E0,4.3E1,1.1E1,7E1,8E1,1E0,6E0,4E0,1E0,1.3E1,2E0,8E0,2E0,2.2E1,5E0,2.6E1,1.7E1,1.1E1,1.1E1,2.1E1,4.3E1,2.6E1,1E1,1.9E1,1E0,1E0,8E0,7.38E2,7.6E1,1.195E3,2.567E3],"tree_param":{"num_deleted":"0","num_feature":"9","num_nodes":"93","size_leaf_vector":"0"}},{"base_weights":[3.656456E-2,-1.1005524E-1,2.744951E-1,-1.9549765E-2,-2.6073961E0,7.687558E0,2.2890817E-1,-6.9377385E-2,3.1952035E0,-5.4750166E0,7.0844156E-1,-6.123749E0,1.0755409E1,9.474108E-1,-1.366383E-1,-2.0093358E0,2.4583444E-2,6.060261E0,-1.5486482E0,8.361324E-2,-6.6088786E0,8.683654E0,-1.1731707E0,1.55718E1,1.8613807E0,-2.0719132E-1,1.740327E0,-6.3908725E0,-7.368358E-2,-7.047096E-1,-7.078853E0,1.6752079E0,-7.343764E-2,1.4638711E0,1.0029789E1,-6.157744E0,3.676222E0,1.0924529E1,-3.177023E0,2.3699784E0,-7.183517E0,-9.78831E-1,1.6898863E1,1.9842702E0,-4.2817297E0,1.8887377E1,-2.16083E0,4.9460864E0,-1.8437854E0,4.955976E-1,-4.179629E0,1.3026218E0,4.9883084E0,3.1750982E0,-8.249792E0,4.3614885E-1,-5.967476E-1,1.3885638E0,-3.5492806E0,-4.6920538E-2,-7.830599E0,7.2864676E-1,7.1081123E0,-5.546959E-2,-8.922439E0,7.518076E0,-5.5300937E0,1.1450809E1,-6.3532605E0,-7.1842256E0,2.0535345E0,8.10177E0,-4.987543E0,-7.974782E0,3.2156928E0,-3.8041062E0,5.696042E0,3.5990188E0,-7.6970696E0,8.133724E0,-4.4280868E0,3.1746993E0,1.9008757E1,-1.1474346E0,1.1570623E1,-7.770368E0,3.6668444E0,4.0243864E0,-3.6712006E-1,-7.7626934E0,5.081832E-1,3.6422243E0,4.1514328E-1,-1.1481493E0,7.909822E0,-3.4654298E0,8.228077E0,-9.181302E0,9.984069E-1,4.454702E0,3.1249613E-1,-3.0498224E-1,-4.3135734E0],"categories":[],"categories_nodes":[],"categories_segments":[],"categories_sizes":[],"default_left":[true,true,true,true,true,true,true,true,true,true,true,false,true,true,true,true,true,true,true,true,true,true,true,true,true,true,true,true,true,true,true,true,true,true,true,true,true,false,true,true,true,true,true,true,true,false,false,false,false,true,true,true,true,true,true,true,true,false,false,false,false,false,false,false,false,false,false,false,false,false,false,false,false,false,false,false,false,false,false,false,false,false,false,false,false,false,false,false,false,false,false,false,false,false,false,false,false,false,false,false,false,false,false],"id":17,"left_children":[1,3,5,7,9,11,13,15,17,19,21,-1,23,25,27,29,31,33,35,37,39,41,43,45,47,49,51,53,55,57,59,61,63,65,67,69,71,-1,73,75,77,79,81,83,85,-1,-1,-1,-1,87,89,91,93,95,97,99,101,-1,-1,-1,-1,-1,-1,-1,-1,-1,-1,-1,-1,-1,-1,-1,-1,-1,-1,-1,-1,-1,-1,-1,-1,-1,-1,-1,-1,-1,-1,-1,-1,-1,-1,-1,-1,-1,-1,-1,-1,-1,-1,-1,-1,-1,-1],"loss_changes":[1.950741E2,7.8198865E2,7.187259E2,5.352346E2,1.154415E3,6.166869E2,5.569393E2,5.9975085E2,7.025469E2,4.102295E2,8.6554407E2,0E0,4.4222327E2,6.549449E2,5.531184E2,1.00031287E3,5.0800064E2,5.691737E2,5.0427585E2,4.588869E2,2.9564282E2,8.897138E2,4.6980536E2,4.5236963E2,6.626626E1,8.1727264E2,5.9628516E2,2.7514716E2,3.7173853E2,7.313731E2,1.6350562E2,8.9991394E2,4.707788E2,7.19062E2,4.6852075E2,1.07469055E2,4.2382712E2,0E0,3.3235156E2,1.0380994E2,3.1010962E2,2.2460605E2,1.1339197E2,7.3379565E2,6.940056E2,0E0,0E0,0E0,0E0,7.595202E2,7.430011E2,7.771181E2,9.054689E2,1.2917715E2,1.1254419E2,3.4942285E2,7.447797E2,0E0,0E0,0E0,0E0,0E0,0E0,0E0,0E0,0E0,0E0,0E0,0E0,0E0,0E0,0E0,0E0,0E0,0E0,0E0,0E0,0E0,0E0,0E0,0E0,0E0,0E0,0E0,0E0,0E0,0E0,0E0,0E0,0E0,0E0,0E0,0E0,0E0,0E0,0E0,0E0,0E0,0E0,0E0,0E0,0E0,0E0],"parents":[2147483647,0,0,1,1,2,2,3,3,4,4,5,5,6,6,7,7,8,8,9,9,10,10,12,12,13,13,14,14,15,15,16,16,17,17,18,18,19,19,20,20,21,21,22,22,23,23,24,24,25,25,26,26,27,27,28,28,29,29,30,30,31,31,32,32,33,33,34,34,35,35,36,36,38,38,39,39,40,40,41,41,42,42,43,43,44,44,49,49,50,50,51,51,52,52,53,53,54,54,55,55,56,56],"right_children":[2,4,6,8,10,12,14,16,18,20,22,-1,24,26,28,30,32,34,36,38,40,42,44,46,48,50,52,54,56,58,60,62,64,66,68,70,72,-1,74,76,78,80,82,84,86,-1,-1,-1,-1,88,90,92,94,96,98,100,102,-1,-1,-1,-1,-1,-1,-1,-1,-1,-1,-1,-1,-1,-1,-1,-1,-1,-1,-1,-1,-1,-1,-1,-1,-1,-1,-1,-1,-1,-1,-1,-1,-1,-1,-1,-1,-1,-1,-1,-1,-1,-1,-1,-1,-1,-1],"split_conditions":[9.075358E1,8.7705444E1,9.098881E1,1.5334976E9,4.495E2,2.505E2,1.1629686E2,8.3056405E-2,5.0233394E-1,1.7236392E7,1.5E2,-1.8371247E0,3.7547476E7,2.45E1,1.1674426E2,7.775647E-2,1.20724395E-1,3.15E1,6.54181E-1,2.4232438E-1,6.3E1,6.456475E6,6.24E2,7.795E2,3.55E1,3.5E3,3.5E3,3.32E2,4.957559E2,3.35E1,3.627827E6,1.1655146E-1,1.4244827E9,2.45E1,7.9431605E-1,7.472247E-1,7.679863E-1,3.2773588E0,8.857948E6,2.6578814E-1,5E-1,8.5E0,2.25E1,6.2904134E8,9.425E2,5.666213E0,-6.4824903E-1,1.4838259E0,-5.5313563E-1,1.669662E-1,1.75E1,2.252406E7,3.4E1,3.75E1,7.3916544E8,1.1862096E2,1.2806267E9,4.1656914E-1,-1.0647843E0,-1.4076162E-2,-2.3491797E0,2.1859403E-1,2.132434E0,-1.6640877E-2,-2.6767316E0,2.2554228E0,-1.6590282E0,3.4352427E0,-1.9059782E0,-2.1552677E0,6.160604E-1,2.4305313E0,-1.496263E0,-2.3924346E0,9.6470785E-1,-1.1412319E0,1.7088127E0,1.0797057E0,-2.309121E0,2.4401174E0,-1.3284261E0,9.524098E-1,5.702627E0,-3.4423038E-1,3.471187E0,-2.3311105E0,1.1000533E0,1.2073159E0,-1.10136025E-1,-2.328808E0,1.5245496E-1,1.0926673E0,1.2454299E-1,-3.4444478E-1,2.3729467E0,-1.039629E0,2.4684231E0,-2.7543907E0,2.9952207E-1,1.3364106E0,9.374884E-2,-9.149468E-2,-1.294072E0],"split_indices":[7,7,7,6,1,1,7,4,4,6,5,0,6,0,7,4,4,0,4,4,1,6,1,1,0,5,5,1,3,0,6,4,6,0,2,2,4,0,6,2,8,0,0,6,1,0,0,0,0,4,0,6,0,0,6,7,6,0,0,0,0,0,0,0,0,0,0,0,0,0,0,0,0,0,0,0,0,0,0,0,0,0,0,0,0,0,0,0,0,0,0,0,0,0,0,0,0,0,0,0,0,0,0],"split_type":[0,0,0,0,0,0,0,0,0,0,0,0,0,0,0,0,0,0,0,0,0,0,0,0,0,0,0,0,0,0,0,0,0,0,0,0,0,0,0,0,0,0,0,0,0,0,0,0,0,0,0,0,0,0,0,0,0,0,0,0,0,0,0,0,0,0,0,0,0,0,0,0,0,0,0,0,0,0,0,0,0,0,0,0,0,0,0,0,0,0,0,0,0,0,0,0,0,0,0,0,0,0,0],"sum_hessian":[5.59E3,3.459E3,2.131E3,3.339E3,1.2E2,1.2E1,2.119E3,3.289E3,5E1,6.4E1,5.6E1,2E0,1E1,7.14E2,1.405E3,1.51E2,3.138E3,3.1E1,1.9E1,1.1E1,5.3E1,1E1,4.6E1,6E0,4E0,2.91E2,4.23E2,1.3E1,1.392E3,1.21E2,3E1,1.75E2,2.963E3,1.5E1,1.6E1,1E1,9E0,2E0,9E0,3E0,5E1,5E0,5E0,2.3E1,2.3E1,5E0,1E0,2E0,2E0,2.48E2,4.3E1,3.74E2,4.9E1,2E0,1.1E1,7.05E2,6.87E2,7E1,5.1E1,3E0,2.7E1,1.5E2,2.5E1,2.958E3,5E0,8E0,7E0,1.5E1,1E0,9E0,1E0,6E0,3E0,5E0,4E0,1E0,2E0,2E0,4.8E1,1E0,4E0,1E0,4E0,1.8E1,5E0,1.6E1,7E0,4.8E1,2E2,2.4E1,1.9E1,1.02E2,2.72E2,1.6E1,3.3E1,1E0,1E0,1E1,1E0,2E1,6.85E2,6.38E2,4.9E1],"tree_param":{"num_deleted":"0","num_feature":"9","num_nodes":"103","size_leaf_vector":"0"}},{"base_weights":[2.815528E-2,-2.3852089E-1,1.8803087E-1,-1.5881264E-1,-4.795192E0,3.7691758E0,9.121638E-2,-1.8526109E-1,1.3488613E1,-7.0139046E0,2.640268E0,7.3220367E0,5.7140328E-2,-4.5075006E0,1.21086515E-1,-5.3976786E-1,3.5061598E-1,1.7030329E1,1.4317317E0,-8.131372E0,1.7237496E0,1.2556673E1,-1.986801E0,1.167311E1,2.2742598E0,-3.6302772E0,4.6197934E0,4.6003346E0,-7.4568834E0,-1.4078847E0,2.0039575E-1,-3.5540286E-1,-5.2080173E0,1.0920335E0,-2.1649418E0,-7.750556E-1,4.6100826E0,-6.948263E0,3.4713612E0,1.2565084E1,-4.8671427E0,3.7154487E-1,1.4835178E1,1.0728064E1,-4.6337333E0,8.832847E0,-1.9790391E0,7.164471E0,-4.1101747E0,-1.0712036E1,-1.2763741E0,-2.9487796E0,1.0555007E0,1.562483E0,-7.989506E-3,-8.936429E-1,8.489425E-1,-6.2380033E0,4.6914673E0,2.4057372E0,-4.3539858E-1,-3.3056877E0,5.359319E0,3.1680584E-2,-1.1942639E0,4.2686462E-2,4.6000237E0,1.7913776E1,7.465036E0,-3.4309964E0,6.9795494E0,-6.368797E0,6.0675497E0,1.4045991E1,4.0984726E-1,-8.368853E0,4.806582E0,6.0968337E0,-5.445024E0,-5.3181458E0,7.63875E-1,-1.2464435E0,6.6942315E0,1.1808362E0,1.12922325E1,7.067965E0,-4.363376E-2],"categories":[],"categories_nodes":[],"categories_segments":[],"categories_sizes":[],"default_left":[true,true,true,true,true,true,true,true,true,true,true,true,true,true,true,true,true,false,false,false,true,false,true,true,true,true,true,true,true,true,true,true,true,true,true,true,false,false,true,true,false,true,false,false,true,true,true,false,false,false,true,true,true,true,true,false,false,false,false,false,false,false,false,false,false,false,false,false,false,false,false,false,false,false,false,false,false,false,false,false,false,false,false,false,false,false,false],"id":18,"left_children":[1,3,5,7,9,11,13,15,17,19,21,23,25,27,29,31,33,-1,-1,-1,35,-1,37,39,41,43,45,47,49,51,53,55,57,59,61,63,-1,-1,65,67,-1,69,-1,-1,71,73,75,-1,-1,-1,77,79,81,83,85,-1,-1,-1,-1,-1,-1,-1,-1,-1,-1,-1,-1,-1,-1,-1,-1,-1,-1,-1,-1,-1,-1,-1,-1,-1,-1,-1,-1,-1,-1,-1,-1],"loss_changes":[2.3841719E2,7.605145E2,1.2117429E3,7.464232E2,6.124159E2,1.2129094E3,4.682713E2,3.9115173E2,1.4642542E2,2.874099E2,4.3790265E2,1.00572485E3,7.906938E2,6.2527905E2,4.106312E2,1.064509E3,1.5317286E3,0E0,0E0,0E0,3.2422604E1,0E0,2.1368317E2,4.299934E2,5.4418463E2,4.2431808E2,6.013065E2,1.6345688E2,3.2834192E2,6.3701404E2,9.1340607E2,7.740934E2,5.0849304E2,1.2732275E3,1.6227877E3,1.0524064E0,0E0,0E0,1.5282909E1,5.209592E2,0E0,5.516182E2,0E0,0E0,5.0282812E2,5.650773E2,4.3045523E2,0E0,0E0,0E0,2.4835164E2,9.1011615E2,8.520468E2,1.5722563E3,7.044986E2,0E0,0E0,0E0,0E0,0E0,0E0,0E0,0E0,0E0,0E0,0E0,0E0,0E0,0E0,0E0,0E0,0E0,0E0,0E0,0E0,0E0,0E0,0E0,0E0,0E0,0E0,0E0,0E0,0E0,0E0,0E0,0E0],"parents":[2147483647,0,0,1,1,2,2,3,3,4,4,5,5,6,6,7,7,8,8,9,9,10,10,11,11,12,12,13,13,14,14,15,15,16,16,20,20,22,22,23,23,24,24,25,25,26,26,27,27,28,28,29,29,30,30,31,31,32,32,33,33,34,34,35,35,38,38,39,39,41,41,44,44,45,45,46,46,50,50,51,51,52,52,53,53,54,54],"right_children":[2,4,6,8,10,12,14,16,18,20,22,24,26,28,30,32,34,-1,-1,-1,36,-1,38,40,42,44,46,48,50,52,54,56,58,60,62,64,-1,-1,66,68,-1,70,-1,-1,72,74,76,-1,-1,-1,78,80,82,84,86,-1,-1,-1,-1,-1,-1,-1,-1,-1,-1,-1,-1,-1,-1,-1,-1,-1,-1,-1,-1,-1,-1,-1,-1,-1,-1,-1,-1,-1,-1,-1,-1],"split_conditions":[3.1911102E7,3.0618016E7,3.4563976E7,3.0446728E7,1.0731142E2,7.615248E1,6.4494095E0,6.921777E1,5.185E2,7.28643E-1,4.035E2,4.957559E2,6.025E2,2.9102588E0,1.5E2,6.536313E1,1.5E2,5.109099E0,4.2951953E-1,-2.4394119E0,4.45E1,3.767002E0,3.4148824E-1,1.25E1,1.25E1,6.2E1,8.465E2,7.16979E-1,4.253305E-1,5.41196E-1,6.3741724E7,3.5E2,7.549375E-1,1.1203623E2,2.6773384E7,4.05E1,1.3830248E0,-2.084479E0,9E0,1.95E1,-1.4601429E0,5.943991E-1,4.450554E0,3.2184193E0,3.4035348E7,3.3683084E7,3.3069376E7,2.1493413E0,-1.2330525E0,-3.213611E0,2.2E1,5.1063804E7,1.5263165E2,6.248507E7,9.4374E0,-2.6809287E-1,2.5468278E-1,-1.8714011E0,1.4074402E0,7.217212E-1,-1.3061959E-1,-9.917063E-1,1.6077958E0,9.504176E-3,-3.582792E-1,1.280594E-2,1.3800071E0,5.374133E0,2.2395108E0,-1.029299E0,2.093865E0,-1.9106392E0,1.8202649E0,4.2137976E0,1.2295418E-1,-2.5106559E0,1.4419746E0,1.8290502E0,-1.6335073E0,-1.5954438E0,2.2916251E-1,-3.7393308E-1,2.0082695E0,3.5425088E-1,3.3876698E0,2.1203897E0,-1.3090128E-2],"split_indices":[6,6,6,6,7,7,7,7,1,2,1,3,1,7,5,7,5,0,0,0,0,0,4,8,8,1,1,2,4,2,6,5,2,7,6,0,0,0,0,0,0,2,0,0,6,6,6,0,0,0,1,6,7,6,7,0,0,0,0,0,0,0,0,0,0,0,0,0,0,0,0,0,0,0,0,0,0,0,0,0,0,0,0,0,0,0,0],"split_type":[0,0,0,0,0,0,0,0,0,0,0,0,0,0,0,0,0,0,0,0,0,0,0,0,0,0,0,0,0,0,0,0,0,0,0,0,0,0,0,0,0,0,0,0,0,0,0,0,0,0,0,0,0,0,0,0,0,0,0,0,0,0,0,0,0,0,0,0,0,0,0,0,0,0,0,0,0,0,0,0,0,0,0,0,0,0,0],"sum_hessian":[5.59E3,2.095E3,3.495E3,2.06E3,3.5E1,9.1E1,3.404E3,2.057E3,3E0,2.7E1,8E0,4.6E1,4.5E1,2.1E1,3.383E3,1.238E3,8.19E2,2E0,1E0,2.4E1,3E0,2E0,6E0,2.4E1,2.2E1,2.5E1,2E1,5E0,1.6E1,1.66E2,3.217E3,1.192E3,4.6E1,6.33E2,1.86E2,2E0,1E0,3E0,3E0,2.3E1,1E0,2E1,2E0,1E0,2.4E1,1.2E1,8E0,4E0,1E0,1E1,6E0,1.02E2,6.4E1,4.26E2,2.791E3,8.24E2,3.68E2,4.2E1,4E0,3.4E2,2.93E2,1.62E2,2.4E1,1E0,1E0,1E0,2E0,1E1,1.3E1,1.3E1,7E0,2.1E1,3E0,7E0,5E0,4E0,4E0,2E0,4E0,6.2E1,4E1,4.6E1,1.8E1,4.11E2,1.5E1,1.3E1,2.778E3],"tree_param":{"num_deleted":"0","num_feature":"9","num_nodes":"87","size_leaf_vector":"0"}},{"base_weights":[2.5077865E-2,-7.0429605E-1,6.744167E-2,-1.2883109E0,3.3419676E0,1.1058017E0,5.180611E-4,3.3928287E-1,-2.768249E0,6.4552236E0,-3.381101E0,-7.022903E-1,3.4355078E0,-3.3784733E0,2.3807172E-2,1.194519E0,-3.654176E0,-2.994516E-1,-4.999465E0,-7.427881E0,7.8629875E0,5.8593316E0,-8.138996E0,-1.6823709E0,3.5845988E0,2.230967E0,8.394105E0,1.2934339E0,-6.71348E0,9.227875E0,6.982722E-3,2.8197803E0,-8.6194336E-1,5.3438873E0,-5.27108E0,3.165981E0,-2.141028E0,9.0313226E-1,-5.9358573E0,9.239908E0,1.9627547E0,-1.0958868E0,7.872108E0,-3.4929945E0,-8.967426E0,-9.5662504E-1,-5.2147756E0,5.7652106E0,-4.2230406E0,8.93641E0,1.4280906E0,1.6355656E1,5.340535E0,7.282532E0,-3.5084684E0,1.7887352E0,-8.319091E0,1.4875702E1,-7.0263457E0,-1.1606066E0,7.098612E-2,1.1910278E0,1.1917043E1,6.5075474E0,-2.7294552E0,-8.025336E-1,7.660206E0,-2.8827083E0,-7.8698997E0,-1.3037988E0,8.566976E0,-5.3419385E0,8.823499E-1,7.99468E0,-2.7555332E0,4.976756E0,-6.1880693E0,1.2864763E1,6.7674866E0,5.3587494E0,-7.508609E0,-1.7241042E0,7.084216E0,-1.7131501E0,-8.315265E0,-3.342894E0,8.526711E0,-5.377103E0,1.9276972E0,1.2075727E0,1.1378514E1,-1.9683771E0,2.8508632E0,8.380763E0,3.557022E-1,1.4988551E1,1.2024142E0,-5.481094E0,2.2638142E0,-2.8829112E0,4.306921E0,1.2894036E0,-9.686183E0,-2.1436415E0,1.8219923E0,4.311978E0,4.8150185E-2],"categories":[],"categories_nodes":[],"categories_segments":[],"categories_sizes":[],"default_left":[true,true,true,true,true,true,true,true,true,true,true,true,true,true,true,true,true,true,true,false,true,true,true,true,true,true,true,true,true,true,true,true,true,true,true,true,true,true,true,true,true,false,false,false,false,true,true,true,true,true,true,false,true,true,true,true,true,false,false,true,true,false,false,false,false,false,false,false,false,false,false,false,false,false,false,false,false,false,false,false,false,false,false,false,false,false,false,false,false,false,false,false,false,false,false,false,false,false,false,false,false,false,false,false,false,false,false],"id":19,"left_children":[1,3,5,7,9,11,13,15,17,19,21,23,25,27,29,31,33,35,37,-1,39,41,43,45,47,49,51,53,55,57,59,61,63,65,67,69,71,73,75,77,79,-1,-1,-1,-1,81,83,85,87,89,91,-1,93,95,97,99,101,-1,-1,103,105,-1,-1,-1,-1,-1,-1,-1,-1,-1,-1,-1,-1,-1,-1,-1,-1,-1,-1,-1,-1,-1,-1,-1,-1,-1,-1,-1,-1,-1,-1,-1,-1,-1,-1,-1,-1,-1,-1,-1,-1,-1,-1,-1,-1,-1,-1],"loss_changes":[1.7280411E2,7.297704E2,3.672583E2,6.4888983E2,8.3812054E2,1.3503561E3,3.9087335E2,4.449452E2,7.7519006E2,5.860969E2,6.192343E2,7.665015E2,8.174695E2,5.38432E2,7.638272E2,3.6005536E2,3.6279514E2,4.407448E2,4.1436987E2,0E0,1.8496802E2,7.862343E1,3.3167725E0,3.7442844E2,6.032113E2,6.009732E2,5.690531E2,4.569365E2,2.8790564E2,9.307311E2,3.681261E2,8.7483777E2,6.783674E2,6.3095833E1,1.0145233E2,5.905597E2,4.4020374E2,3.0743118E2,2.0694312E2,9.2181274E1,2.3322495E2,0E0,0E0,0E0,0E0,7.7743994E2,2.5717352E2,7.0760895E2,6.71521E1,2.1275513E2,5.033489E2,0E0,3.1527454E2,3.0995212E2,1.1488717E2,5.9472763E1,2.3579626E2,0E0,0E0,7.544973E2,4.5206808E2,0E0,0E0,0E0,0E0,0E0,0E0,0E0,0E0,0E0,0E0,0E0,0E0,0E0,0E0,0E0,0E0,0E0,0E0,0E0,0E0,0E0,0E0,0E0,0E0,0E0,0E0,0E0,0E0,0E0,0E0,0E0,0E0,0E0,0E0,0E0,0E0,0E0,0E0,0E0,0E0,0E0,0E0,0E0,0E0,0E0,0E0],"parents":[2147483647,0,0,1,1,2,2,3,3,4,4,5,5,6,6,7,7,8,8,9,9,10,10,11,11,12,12,13,13,14,14,15,15,16,16,17,17,18,18,20,20,21,21,22,22,23,23,24,24,25,25,26,26,27,27,28,28,29,29,30,30,31,31,32,32,33,33,34,34,35,35,36,36,37,37,38,38,39,39,40,40,45,45,46,46,47,47,48,48,49,49,50,50,52,52,53,53,54,54,55,55,56,56,59,59,60,60],"right_children":[2,4,6,8,10,12,14,16,18,20,22,24,26,28,30,32,34,36,38,-1,40,42,44,46,48,50,52,54,56,58,60,62,64,66,68,70,72,74,76,78,80,-1,-1,-1,-1,82,84,86,88,90,92,-1,94,96,98,100,102,-1,-1,104,106,-1,-1,-1,-1,-1,-1,-1,-1,-1,-1,-1,-1,-1,-1,-1,-1,-1,-1,-1,-1,-1,-1,-1,-1,-1,-1,-1,-1,-1,-1,-1,-1,-1,-1,-1,-1,-1,-1,-1,-1,-1,-1,-1,-1,-1,-1],"split_conditions":[3.45E1,5.909456E7,6.85E1,4.2257977E0,1.8036632E8,5.0554913E-1,9.56967E0,6.9945157E-1,2.55E1,1.2823582E-1,3.3988154E-1,6.25E1,6.6743386E-1,7.746029E0,9.950544E0,3.75E1,6.5E0,3.0633882E-1,1.1E1,-2.2283642E0,8.5E0,2.25E1,1.4E1,1.6911898E8,6.5147686E-1,4.5E0,7.0559216E-1,4.957559E2,8.5E0,9.3E1,2.0945059E1,3.45E1,1.417715E-1,2.5E0,6.1897425E6,2.1591718E-1,6.5E0,7.5E2,2.0753592E-1,1.0741915E1,3.7E1,-3.2876605E-1,2.3616326E0,-1.0478984E0,-2.690228E0,1.0257166E8,5.05E1,3.5E0,7.851428E-1,1.3069843E-1,8.796901E0,4.906697E0,3.25E1,6.4042397E0,5E1,2.5E0,1.0910338E-1,4.462711E0,-2.1079037E0,1.75E3,2.1492172E1,3.5730833E-1,3.575113E0,1.9522643E0,-8.188366E-1,-2.407601E-1,2.2980618E0,-8.6481255E-1,-2.36097E0,-3.9113966E-1,2.5700927E0,-1.6025816E0,2.6470497E-1,2.3984041E0,-8.2666E-1,1.4930269E0,-1.8564209E0,3.8594291E0,2.030246E0,1.6076249E0,-2.2525828E0,-5.172313E-1,2.125265E0,-5.1394504E-1,-2.4945796E0,-1.0028683E0,2.5580134E0,-1.6131309E0,5.783092E-1,3.6227182E-1,3.4135544E0,-5.9051317E-1,8.55259E-1,2.514229E0,1.06710665E-1,4.4965653E0,3.6072427E-1,-1.6443282E0,6.7914426E-1,-8.648734E-1,1.2920763E0,3.868211E-1,-2.905855E0,-6.4309245E-1,5.465977E-1,1.2935934E0,1.4445056E-2],"split_indices":[1,6,1,7,6,2,7,2,0,4,4,1,4,7,7,0,0,4,1,0,8,0,1,6,4,0,4,3,0,1,7,0,4,0,6,4,8,5,2,7,0,0,0,0,0,6,1,8,4,4,7,0,0,7,0,0,4,0,0,5,7,0,0,0,0,0,0,0,0,0,0,0,0,0,0,0,0,0,0,0,0,0,0,0,0,0,0,0,0,0,0,0,0,0,0,0,0,0,0,0,0,0,0,0,0,0,0],"split_type":[0,0,0,0,0,0,0,0,0,0,0,0,0,0,0,0,0,0,0,0,0,0,0,0,0,0,0,0,0,0,0,0,0,0,0,0,0,0,0,0,0,0,0,0,0,0,0,0,0,0,0,0,0,0,0,0,0,0,0,0,0,0,0,0,0,0,0,0,0,0,0,0,0,0,0,0,0,0,0,0,0,0,0,0,0,0,0,0,0,0,0,0,0,0,0,0,0,0,0,0,0,0,0,0,0,0,0],"sum_hessian":[5.59E3,3.06E2,5.284E3,2.68E2,3.8E1,3.19E2,4.965E3,1.28E2,1.4E2,2.6E1,1.2E1,1.8E2,1.39E2,3.3E1,4.932E3,1.06E2,2.2E1,6.7E1,7.3E1,2E0,2.4E1,4E0,8E0,1.47E2,3.3E1,1.13E2,2.6E1,1.4E1,1.9E1,8E0,4.924E3,5.9E1,4.7E1,3E0,1.9E1,2.3E1,4.4E1,1E1,6.3E1,1.9E1,5E0,1E0,3E0,2E0,6E0,1.23E2,2.4E1,2.6E1,7E0,1.1E1,1.02E2,6E0,2E1,6E0,8E0,3E0,1.6E1,6E0,2E0,2.55E2,4.669E3,5.1E1,8E0,9E0,3.8E1,1E0,2E0,1.1E1,8E0,1.3E1,1E1,2.1E1,2.3E1,3E0,7E0,1E0,6.2E1,6E0,1.3E1,4E0,1E0,1.13E2,1E1,1.2E1,1.2E1,6E0,2E1,6E0,1E0,3E0,8E0,3E1,7.2E1,1.2E1,8E0,2E0,4E0,6E0,2E0,1E0,2E0,2E0,1.4E1,1.92E2,6.3E1,2.4E1,