{"learner":{"attributes":{"scikit_learn":"{\"use_label_encoder\": false, \"n_estimators\": 50, \"objective\": \"binary:logistic\", \"max_depth\": null, \"learning_rate\": null, \"verbosity\": null, \"booster\": null, \"tree_method\": null, \"gamma\": null, \"min_child_weight\": null, \"max_delta_step\": null, \"subsample\": null, \"colsample_bytree\": null, \"colsample_bylevel\": null, \"colsample_bynode\": null, \"reg_alpha\": null, \"reg_lambda\": null, \"scale_pos_weight\": null, \"base_score\": null, \"missing\": NaN, \"num_parallel_tree\": null, \"kwargs\": {\"eval_metric\": \"logloss\"}, \"random_state\": 42, \"n_jobs\": null, \"monotone_constraints\": null, \"interaction_constraints\": null, \"importance_type\": \"gain\", \"gpu_id\": null, \"validate_parameters\": null, \"classes_\": [0, 1], \"n_classes_\": 2, \"_estimator_type\": \"classifier\"}"},"feature_names":["Days_Until_Expiry","Current_Inventory","Sales_Velocity_7D","Price_Elasticity","Pack_Size_g_ml","MRP","Selling_Price","Loss_Impact_Index","Day_Of_Week"],"feature_types":["int","int","float","float","int","float","float","float","int"],"gradient_booster":{"model":{"gbtree_model_param":{"num_trees":"50","size_leaf_vector":"0"},"tree_info":[0,0,0,0,0,0,0,0,0,0,0,0,0,0,0,0,0,0,0,0,0,0,0,0,0,0,0,0,0,0,0,0,0,0,0,0,0,0,0,0,0,0,0,0,0,0,0,0,0,0],"trees":[{"base_weights":[-1.0824468E0,-5.3169735E-2,-1.5721295E0,-1.3591161E0,7.051282E-1,-1.8265306E0,-7.112971E-1,-1.7557251E0,-2.962963E-1,-8.70229E-1,1.8054054E0,-1.8926554E0,-1.15E0,-1.369697E0,7.1794873E-1,-1.0769231E0,-1.853211E0,-1.5555556E0,8.3870965E-1,6.666667E-1,-1.3939394E0,1.8579881E0,1E0,-0E0,-1.9034091E0,-0E0,-1.6428572E0,-2.857143E-1,-1.7666667E0,1.8139535E0,-5.641026E-1,-1.5789474E0,1.8181819E-1,-1.8857143E0,-5E-1,1.5789474E0,-2.5E-1,-1.2727273E0,1.3103448E0,-1.8888888E0,-6.451613E-2,-0E0,1.4285715E0,-1.5454545E0,-1.9722222E0,-1.2941177E0,1.4666667E0,-1.8297873E0,-4.6153846E-1,-1.2727273E0,1.4E0,-1.9157895E0,-1.0344827E0,-1.3333334E0,5.263158E-1,-9.0909094E-1,6.666667E-1,1.8181819E-1,1.6363636E0,-1.2941177E0,1.1111112E0,-1.9207921E0,-2.857143E-1,5E-1,-1.1111112E0,5E-1,-1.5862069E0,4E-1,-1.4782609E0,-1.5555556E0,-4E-1,1.3846154E0,-8E-1],"categories":[],"categories_nodes":[],"categories_segments":[],"categories_sizes":[],"default_left":[true,true,true,true,true,true,true,true,true,true,true,true,true,true,true,true,true,false,true,true,true,false,true,false,true,true,true,true,true,false,true,false,false,false,false,false,true,false,true,false,true,false,false,true,false,false,false,false,true,true,false,false,true,true,true,false,false,false,false,false,false,false,false,false,false,false,false,false,false,false,false,false,false],"id":0,"left_children":[1,3,5,7,9,11,13,15,17,19,21,23,25,27,29,31,33,-1,35,37,39,-1,41,-1,43,45,47,49,51,-1,53,-1,-1,-1,-1,-1,55,-1,57,-1,59,-1,-1,61,-1,-1,-1,-1,63,65,-1,-1,67,69,71,-1,-1,-1,-1,-1,-1,-1,-1,-1,-1,-1,-1,-1,-1,-1,-1,-1,-1],"loss_changes":[1.8942761E2,1.2202208E2,5.4490173E1,1.8553757E1,1.3677084E2,6.591614E0,5.7209038E1,1.7141724E-1,2.0599762E1,2.7289381E1,1.0070801E-1,3.602478E0,1.1335712E1,1.7245453E1,2.8423378E1,4.394552E0,2.5569916E-1,0E0,6.640492E0,1.2902821E1,1.616357E1,0E0,2.142857E0,0E0,1.2872314E0,1.5184314E1,2.2470207E0,2.2163635E1,1.2937088E0,0E0,8.879892E0,0E0,0E0,0E0,0E0,0E0,3.0227273E0,0E0,2.3699064E0,0E0,1.26409445E1,0E0,0E0,1.505452E1,0E0,0E0,0E0,0E0,2.58547E0,5.377743E0,0E0,0E0,5.206596E0,6.2222195E-1,6.5149794E0,0E0,0E0,0E0,0E0,0E0,0E0,0E0,0E0,0E0,0E0,0E0,0E0,0E0,0E0,0E0,0E0,0E0,0E0],"parents":[2147483647,0,0,1,1,2,2,3,3,4,4,5,5,6,6,7,7,8,8,9,9,10,10,11,11,12,12,13,13,14,14,15,15,16,16,18,18,19,19,20,20,22,22,24,24,25,25,26,26,27,27,28,28,30,30,36,36,38,38,40,40,43,43,48,48,49,49,52,52,53,53,54,54],"right_children":[2,4,6,8,10,12,14,16,18,20,22,24,26,28,30,32,34,-1,36,38,40,-1,42,-1,44,46,48,50,52,-1,54,-1,-1,-1,-1,-1,56,-1,58,-1,60,-1,-1,62,-1,-1,-1,-1,64,66,-1,-1,68,70,72,-1,-1,-1,-1,-1,-1,-1,-1,-1,-1,-1,-1,-1,-1,-1,-1,-1,-1],"split_conditions":[1.935E2,2.042445E1,3.9071648E1,7.5E0,4.5E0,9.5E0,7.5E0,8.15E1,1.1888241E1,8.3E1,1.815E2,5.0414043E1,3.025E2,2.785E2,3.515E2,-5.2005833E-1,1.0036501E4,-4.666667E-1,1.295E2,1.5E0,3.5E0,5.573965E-1,1.865E2,-0E0,2.475E2,2.5145111E1,3.4134537E1,5.5E0,6.5E0,5.4418606E-1,4.6523453E1,-4.7368425E-1,5.454546E-2,-5.657143E-1,-1.5E-1,4.7368425E-1,1.777043E1,-3.818182E-1,3.210822E1,-5.6666666E-1,3.53978E1,-0E0,4.2857146E-1,6.5E0,-5.916667E-1,-3.8823533E-1,4.4000003E-1,-5.489362E-1,4.09E2,2.045E2,4.2000002E-1,-5.747369E-1,3.18E2,9.5E0,4.48E2,-2.7272728E-1,2.0000002E-1,5.454546E-2,4.909091E-1,-3.8823533E-1,3.3333337E-1,-5.762377E-1,-8.5714296E-2,1.5E-1,-3.3333337E-1,1.5E-1,-4.758621E-1,1.20000005E-1,-4.434783E-1,-4.666667E-1,-1.20000005E-1,4.1538465E-1,-2.4000001E-1],"split_indices":[1,2,2,0,0,0,0,1,2,1,1,5,1,1,1,3,7,0,1,0,0,0,1,0,1,2,2,0,0,0,2,0,0,0,0,0,2,0,2,0,2,0,0,0,0,0,0,0,1,1,0,0,1,0,1,0,0,0,0,0,0,0,0,0,0,0,0,0,0,0,0,0,0],"split_type":[0,0,0,0,0,0,0,0,0,0,0,0,0,0,0,0,0,0,0,0,0,0,0,0,0,0,0,0,0,0,0,0,0,0,0,0,0,0,0,0,0,0,0,0,0,0,0,0,0,0,0,0,0,0,0,0,0,0,0,0,0,0,0,0,0,0,0,0,0,0,0,0,0],"sum_hessian":[3.75E2,1.2125E2,2.5375E2,4.425E1,7.7E1,1.95E2,5.875E1,3.175E1,1.25E1,3.175E1,4.525E1,1.76E2,1.9E1,4.025E1,1.85E1,5.5E0,2.625E1,5.75E0,6.75E0,8E0,2.375E1,4.125E1,4E0,1E0,1.75E2,6E0,1.3E1,1.125E1,2.9E1,9.75E0,8.75E0,3.75E0,1.75E0,2.525E1,1E0,3.75E0,3E0,1.75E0,6.25E0,1.7E1,6.75E0,1.5E0,2.5E0,3.2E1,1.43E2,3.25E0,2.75E0,1.075E1,2.25E0,7.25E0,4E0,2.275E1,6.25E0,5E0,3.75E0,1.75E0,1.25E0,1.75E0,4.5E0,3.25E0,3.5E0,2.425E1,7.75E0,1E0,1.25E0,1E0,6.25E0,1.5E0,4.75E0,3.5E0,1.5E0,2.25E0,1.5E0],"tree_param":{"num_deleted":"0","num_feature":"9","num_nodes":"73","size_leaf_vector":"0"}},{"base_weights":[-8.32625E-1,-4.597153E-2,-1.210349E0,-1.049228E0,5.3968453E-1,-1.4096925E0,-5.4641885E-1,-1.364544E0,-2.2261314E-1,-9.846937E-1,1.2144372E0,-1.5240026E0,-1.0744293E0,-1.0528321E0,5.426126E-1,-1.4360218E0,-7.3911124E-1,-1.2196599E0,6.6393805E-1,2.7788338E-1,-1.4735854E0,2.2035448E-1,1.3930037E0,-4.9119237E-1,-1.529695E0,-1.5668968E-2,-1.3896366E0,-2.0338891E-1,-1.3712827E0,1.1154149E0,-1.0703443E0,3.9330202E-1,-1.1762829E0,1.2658515E0,-1.9589065E-1,-1.0565835E0,8.729205E-1,-7.339444E-1,1.0030099E0,9.203331E-1,1.4624012E0,-1.3441238E0,1.546599E0,-1.4783581E0,-5.21735E-1,-9.781045E-1,1.1067809E0,-1.4917173E0,-7.989046E-1,1.4232618E0,2.8682968E-1,-1.2995813E0,-1.6336258E-1,-7.453163E-1,5.5900943E-1,-3.519677E-1,1.2984612E0,2.9605418E-1,-1.185824E0,1.2771554E0,3.9328758E-2,1.3317132E-1,1.3021324E0,7.354378E-1,-1.2290438E0,2.591434E-1,-1.3598422E0,2.0177501E-1,-1.300441E0,-5.4364294E-1,1.0908129E0],"categories":[],"categories_nodes":[],"categories_segments":[],"categories_sizes":[],"default_left":[true,true,true,true,true,true,true,true,true,true,true,true,true,true,true,false,true,false,true,true,false,true,true,false,false,true,true,true,true,true,true,false,false,false,true,false,true,true,true,true,false,false,false,false,true,true,false,false,true,false,true,false,false,false,false,false,false,false,false,false,false,false,false,false,false,false,false,false,false,false,false],"id":1,"left_children":[1,3,5,7,9,11,13,15,17,19,21,23,25,27,29,-1,31,-1,33,35,-1,37,39,-1,-1,41,43,45,47,49,51,-1,-1,-1,53,-1,55,57,59,61,-1,-1,-1,-1,63,65,-1,-1,67,-1,69,-1,-1,-1,-1,-1,-1,-1,-1,-1,-1,-1,-1,-1,-1,-1,-1,-1,-1,-1,-1],"loss_changes":[1.03946304E2,6.7891304E1,3.0521149E1,1.0792908E1,7.629194E1,5.306885E0,3.1581106E1,3.076172E-1,1.225731E1,1.4577866E1,8.755997E0,2.9052734E-2,1.6485332E1,1.0195282E1,1.8292957E1,0E0,3.037629E0,0E0,4.1309404E0,6.677975E0,0E0,7.430149E0,6.765747E-2,0E0,0E0,2.772833E1,2.1627426E0,1.2990807E1,7.3763275E-1,3.200348E0,9.021926E-1,0E0,0E0,0E0,2.0572033E0,0E0,3.3554654E0,2.4994633E0,1.3622947E0,2.2954507E0,0E0,0E0,0E0,0E0,5.4204555E0,4.0852575E0,0E0,0E0,3.7848282E0,0E0,3.987972E0,0E0,0E0,0E0,0E0,0E0,0E0,0E0,0E0,0E0,0E0,0E0,0E0,0E0,0E0,0E0,0E0,0E0,0E0,0E0,0E0],"parents":[2147483647,0,0,1,1,2,2,3,3,4,4,5,5,6,6,7,7,8,8,9,9,10,10,11,11,12,12,13,13,14,14,16,16,18,18,19,19,21,21,22,22,25,25,26,26,27,27,28,28,29,29,30,30,34,34,36,36,37,37,38,38,39,39,44,44,45,45,48,48,50,50],"right_children":[2,4,6,8,10,12,14,16,18,20,22,24,26,28,30,-1,32,-1,34,36,-1,38,40,-1,-1,42,44,46,48,50,52,-1,-1,-1,54,-1,56,58,60,62,-1,-1,-1,-1,64,66,-1,-1,68,-1,70,-1,-1,-1,-1,-1,-1,-1,-1,-1,-1,-1,-1,-1,-1,-1,-1,-1,-1,-1,-1],"split_conditions":[1.935E2,2.042445E1,3.9071648E1,7.5E0,3.5E0,2.969654E1,7.5E0,6.5E0,1.1888241E1,8.3E1,4.5E0,1.945E2,2.585E2,2.785E2,4.295E2,-4.3080655E-1,1.115E2,-3.6589798E-1,1.295E2,1.5E0,-4.4207564E-1,3.511316E1,5.5E0,-1.4735772E-1,-4.5890853E-1,6.5E0,9.5E0,5.5E0,6.5E0,3.515E2,4.7963036E1,1.1799061E-1,-3.528849E-1,3.7975547E-1,1.777043E1,-3.1697506E-1,1.3201011E3,1.155E2,1.6E2,3.200861E1,4.3872038E-1,-4.0323716E-1,4.6397972E-1,-4.4350746E-1,3.48E2,2.13E2,3.320343E-1,-4.4751522E-1,3.345E2,4.2697856E-1,4.6523453E1,-3.898744E-1,-4.9008776E-2,-2.235949E-1,1.6770284E-1,-1.0559031E-1,3.8953838E-1,8.8816255E-2,-3.5574722E-1,3.8314664E-1,1.1798628E-2,3.99514E-2,3.9063972E-1,2.2063135E-1,-3.6871317E-1,7.774302E-2,-4.0795267E-1,6.0532507E-2,-3.9013234E-1,-1.6309288E-1,3.272439E-1],"split_indices":[1,2,2,0,0,2,0,0,2,1,0,1,1,1,1,0,1,0,1,0,0,2,0,0,0,0,0,0,0,1,2,0,0,0,2,0,7,1,1,2,0,0,0,0,1,1,0,0,1,0,2,0,0,0,0,0,0,0,0,0,0,0,0,0,0,0,0,0,0,0,0],"split_type":[0,0,0,0,0,0,0,0,0,0,0,0,0,0,0,0,0,0,0,0,0,0,0,0,0,0,0,0,0,0,0,0,0,0,0,0,0,0,0,0,0,0,0,0,0,0,0,0,0,0,0,0,0,0,0,0,0,0,0,0,0,0,0,0,0,0,0,0,0,0,0],"sum_hessian":[3.4901242E2,1.13583496E2,2.3542894E2,4.1573902E1,7.20096E1,1.8020078E2,5.5228157E1,2.9623224E1,1.1950677E1,2.1953548E1,5.0056046E1,1.3173819E2,4.84626E1,3.7720764E1,1.7507391E1,2.5421835E1,4.2013893E0,5.447966E0,6.502711E0,6.2484207E0,1.5705128E1,7.9625263E0,4.209352E1,1.2005812E0,1.305376E2,1.1358811E1,3.7103786E1,1.0732173E1,2.6988592E1,1.3147016E1,4.360376E0,1.1981498E0,3.0032394E0,3.54727E0,2.9554408E0,1.6877375E0,4.5606833E0,3.6158838E0,4.346642E0,7.214799E0,3.487872E1,6.2142425E0,5.1445694E0,3.302448E1,4.0793095E0,6.9035134E0,3.8286595E0,2.0970081E1,6.0185113E0,9.06235E0,4.0846643E0,3.13512E0,1.2252558E0,1.7178578E0,1.2375829E0,1.2204883E0,3.3401952E0,1.207771E0,2.408113E0,3.1307313E0,1.2159108E0,2.7969928E0,4.417806E0,1.4544308E0,2.624879E0,1.7034901E0,5.200023E0,2.2089126E0,3.8095987E0,2.168515E0,1.9161495E0],"tree_param":{"num_deleted":"0","num_feature":"9","num_nodes":"71","size_leaf_vector":"0"}},{"base_weights":[-7.0179063E-1,2.0068416E-2,-1.007045E0,-1.0019178E0,4.768561E-1,-1.1661836E0,-2.843317E-1,-2.0345935E-1,-1.3017215E0,-1.0898936E0,9.5227087E-1,-1.2808225E0,-6.8338114E-1,-1.1249878E0,3.4718865E-1,-7.7582777E-1,7.8070444E-1,7.9826085E-4,-1.187868E0,4.410788E-1,1.2805498E0,-1.005342E0,-1.3517234E0,-1.2096573E0,5.865775E-2,1.287205E-1,-1.2837551E0,1.1281493E0,-5.311554E-1,-1.0944103E0,1.13872744E-1,1.4912944E-1,9.632378E-1,-5.2377534E-1,-1.2900798E0,-1.5837315E-1,1.1391891E0,-1.2867192E0,2.7609188E-2,-1.3142005E0,-5.901764E-1,1.1848738E0,-1.1496152E0,1.2297649E0,2.8431162E-1,-9.334535E-1,9.1169524E-1,-8.727778E-1,1.4903569E-1,7.071338E-1,-1.0984403E0,1.2878532E0,3.390249E-1,-1.3563104E0,1.10015415E-1,-1.109642E0,1.2526711E0,3.9374003E-1,-9.9087775E-1,1.3674245E0,3.725612E-1,-1.2479569E0,-2.3550119E-1,-1.6359124E-1,-1.2464894E0],"categories":[],"categories_nodes":[],"categories_segments":[],"categories_sizes":[],"default_left":[true,true,true,true,true,true,true,true,false,true,true,true,true,true,true,true,true,false,true,true,false,true,false,true,true,false,false,true,true,false,false,false,false,true,false,true,true,true,true,false,true,true,true,false,false,true,false,false,false,false,false,false,false,false,false,false,false,false,false,false,false,false,false,false,false],"id":2,"left_children":[1,3,5,7,9,11,13,15,-1,17,19,21,23,25,27,29,31,-1,33,35,-1,37,-1,39,41,-1,-1,43,45,-1,-1,-1,-1,47,-1,49,51,53,55,-1,57,59,61,-1,-1,63,-1,-1,-1,-1,-1,-1,-1,-1,-1,-1,-1,-1,-1,-1,-1,-1,-1,-1,-1],"loss_changes":[6.6679855E1,4.29067E1,2.412323E1,6.5328903E0,4.832879E1,8.751694E0,2.1463469E1,5.6400094E0,0E0,1.6302147E0,7.698868E0,1.3641052E0,1.3941803E1,3.6014328E0,1.667126E1,1.8684573E0,2.9267716E-1,0E0,2.7395058E-1,8.877438E0,0E0,9.464073E0,0E0,5.7320213E-1,2.2715603E1,0E0,0E0,7.413063E-1,7.6466975E0,0E0,0E0,0E0,0E0,9.6357304E-1,0E0,1.0588472E1,7.200022E-1,2.6293602E0,1.2429502E1,0E0,2.291408E0,7.6794815E-1,4.3226433E-1,0E0,0E0,2.12144E0,0E0,0E0,0E0,0E0,0E0,0E0,0E0,0E0,0E0,0E0,0E0,0E0,0E0,0E0,0E0,0E0,0E0,0E0,0E0],"parents":[2147483647,0,0,1,1,2,2,3,3,4,4,5,5,6,6,7,7,9,9,10,10,11,11,12,12,13,13,14,14,15,15,16,16,18,18,19,19,21,21,23,23,24,24,27,27,28,28,33,33,35,35,36,36,37,37,38,38,40,40,41,41,42,42,45,45],"right_children":[2,4,6,8,10,12,14,16,-1,18,20,22,24,26,28,30,32,-1,34,36,-1,38,-1,40,42,-1,-1,44,46,-1,-1,-1,-1,48,-1,50,52,54,56,-1,58,60,62,-1,-1,64,-1,-1,-1,-1,-1,-1,-1,-1,-1,-1,-1,-1,-1,-1,-1,-1,-1,-1,-1],"split_conditions":[1.785E2,3.5E0,4.190482E1,8.3E1,1.5212616E1,8.5E0,5.5E0,2.5E0,-3.9051646E-1,-1.4433565E0,2.8838058E1,2.465E2,2.7150288E1,2.13E2,3.345E2,3.5676544E1,-7.8608423E-1,2.3947826E-4,9.4E1,7.5E0,3.8416496E-1,6.5E0,-4.0551704E-1,2.2739563E1,3.405E2,3.8616154E-2,-3.8512653E-1,3.18E2,9.5E0,-3.283231E-1,3.4161825E-2,4.4738833E-2,2.8897136E-1,8.629306E0,-3.8702396E-1,1.235E2,1.0669231E2,4.014464E1,2.9679691E1,-3.9426017E-1,2.625E2,2.98E2,1.4662177E2,3.689295E-1,8.529349E-2,3.865E2,2.7350858E-1,-2.6183337E-1,4.471071E-2,2.1214016E-1,-3.295321E-1,3.86356E-1,1.0170747E-1,-4.0689313E-1,3.3004627E-2,-3.3289263E-1,3.7580135E-1,1.1812201E-1,-2.9726332E-1,4.1022736E-1,1.1176836E-1,-3.743871E-1,-7.065036E-2,-4.9077373E-2,-3.7394685E-1],"split_indices":[1,0,2,1,2,0,0,0,0,3,2,1,2,1,1,2,3,0,1,0,0,0,0,2,1,0,0,1,0,0,0,0,0,2,0,1,6,2,2,0,1,1,5,0,0,1,0,0,0,0,0,0,0,0,0,0,0,0,0,0,0,0,0,0,0],"split_type":[0,0,0,0,0,0,0,0,0,0,0,0,0,0,0,0,0,0,0,0,0,0,0,0,0,0,0,0,0,0,0,0,0,0,0,0,0,0,0,0,0,0,0,0,0,0,0,0,0,0,0,0,0,0,0,0,0,0,0,0,0,0,0,0,0],"sum_hessian":[3.015163E2,8.9887184E1,2.1162909E2,2.7397177E1,6.2490013E1,1.729357E2,3.869339E1,7.937118E0,1.9460058E1,1.4246745E1,4.8243267E1,1.3841655E2,3.4519154E1,1.626313E1,2.2430262E1,5.152325E0,2.784793E0,1.2560228E0,1.2990722E1,1.9782223E1,2.8461044E1,3.1439651E1,1.069769E2,1.9827044E1,1.469211E1,1.8493049E0,1.4413825E1,1.1722791E1,1.0707471E1,3.6244128E0,1.5279125E0,1.0317795E0,1.7530133E0,2.549629E0,1.0441093E1,1.1059132E1,8.723092E0,2.4515837E1,6.9238153E0,1.6004652E1,3.8223908E0,7.6142907E0,7.0778193E0,1.0054653E1,1.6681379E0,8.6489935E0,2.0584779E0,1.4830999E0,1.0665289E0,5.8869143E0,5.1722174E0,6.8423524E0,1.8807398E0,2.3379896E1,1.1359415E0,3.639451E0,3.2843645E0,1.1112081E0,2.7111826E0,5.6591425E0,1.9551479E0,6.060602E0,1.0172169E0,2.940325E0,5.708668E0],"tree_param":{"num_deleted":"0","num_feature":"9","num_nodes":"65","size_leaf_vector":"0"}},{"base_weights":[-6.164249E-1,1.2082633E-2,-8.944217E-1,-1.0014496E0,3.55465E-1,-1.0691292E0,-3.0144966E-1,6.649047E-4,-1.067956E0,-7.336465E-1,8.1947803E-1,-1.1724733E0,-6.541793E-1,-1.1950239E0,1.2501374E-1,-1.1228133E0,-1.9822772E-1,1.2038243E-1,-1.1469637E0,3.2231352E-1,1.0916951E0,-1.2351464E0,-9.443365E-1,-6.18472E-2,-1.1889073E0,6.873125E-1,-5.530305E-1,-9.0027285E-1,6.205238E-1,1.1222752E0,-2.1171956E-1,1.1681589E0,5.760714E-1,-5.5799916E-2,-1.181038E0,-1.1172804E0,7.8379434E-1,1.3024175E-1,1.0681919E0,-8.954244E-1,7.4599147E-1,9.520438E-1,-3.095368E-1,-9.0228575E-1,7.659629E-1,3.3853042E-1,1.1954471E0,-1.2972087E-1,9.4480586E-1,-1.0652194E0,1.0580834E0,1.0732273E0,4.3456327E-2,5.789488E-1,-4.9143887E-1,3.5090694E-1,1.132007E0,-1.0295992E0,2.3341493E-1,1.7884433E-1,9.479221E-1],"categories":[],"categories_nodes":[],"categories_segments":[],"categories_sizes":[],"default_left":[true,true,true,true,true,true,true,false,true,true,true,true,true,false,true,false,false,true,false,true,true,false,true,true,false,true,true,false,true,false,true,true,true,true,false,false,true,true,true,true,true,false,false,false,false,false,false,false,false,false,false,false,false,false,false,false,false,false,false,false,false],"id":3,"left_children":[1,3,5,7,9,11,13,-1,15,17,19,21,23,-1,25,-1,-1,27,-1,29,31,-1,33,35,-1,37,39,-1,41,-1,43,45,47,49,-1,-1,51,53,55,57,59,-1,-1,-1,-1,-1,-1,-1,-1,-1,-1,-1,-1,-1,-1,-1,-1,-1,-1,-1,-1],"loss_changes":[4.4318718E1,2.7764902E1,1.7893616E1,1.3464279E0,3.0702072E1,5.0404053E0,1.5929373E1,0E0,6.8086815E-1,6.6057205E0,5.3647823E0,3.6579895E-1,9.195802E0,0E0,1.1412449E1,0E0,0E0,4.0709777E0,0E0,7.2284346E0,3.8669205E-1,0E0,5.6845493E0,1.4209551E1,0E0,3.311749E0,6.7490373E0,0E0,1.9010322E0,0E0,7.8844757E0,1.0315132E-1,1.5393137E0,8.774085E0,0E0,0E0,1.8565412E0,2.4445417E0,3.857231E-2,1.9480028E0,2.195642E-1,0E0,0E0,0E0,0E0,0E0,0E0,0E0,0E0,0E0,0E0,0E0,0E0,0E0,0E0,0E0,0E0,0E0,0E0,0E0,0E0],"parents":[2147483647,0,0,1,1,2,2,3,3,4,4,5,5,6,6,8,8,9,9,10,10,11,11,12,12,14,14,17,17,19,19,20,20,22,22,23,23,25,25,26,26,28,28,30,30,31,31,32,32,33,33,36,36,37,37,38,38,39,39,40,40],"right_children":[2,4,6,8,10,12,14,-1,16,18,20,22,24,-1,26,-1,-1,28,-1,30,32,-1,34,36,-1,38,40,-1,42,-1,44,46,48,50,-1,-1,52,54,56,58,60,-1,-1,-1,-1,-1,-1,-1,-1,-1,-1,-1,-1,-1,-1,-1,-1,-1,-1,-1,-1],"split_conditions":[1.795E2,1.567019E1,4.015992E1,-1.4559721E0,3.5E0,8.5E0,4.5E0,1.9947143E-4,1.5212616E1,8.3E1,2.7034628E1,6.5E0,3.385E2,-3.585072E-1,3.345E2,-3.3684403E-1,-5.9468318E-2,1.5E0,-3.4408912E-1,9.55E1,1.625E2,-3.7054393E-1,2.47E2,2.2443756E1,-3.566722E-1,4.449993E1,9.5E0,-2.7008188E-1,-4.910494E-1,3.366826E-1,7.5E0,4.0603757E2,5.5E0,2.9679691E1,-3.543114E-1,-3.3518413E-1,-7.426888E-1,2.915E2,5.5E0,1.4040881E2,1.06687775E2,2.8561315E-1,-9.286105E-2,-2.7068573E-1,2.2978888E-1,1.0155913E-1,3.5863414E-1,-3.891626E-2,2.8344178E-1,-3.1956583E-1,3.1742504E-1,3.219682E-1,1.3036898E-2,1.7368464E-1,-1.4743167E-1,1.05272084E-1,3.396021E-1,-3.0887976E-1,7.002448E-2,5.3653304E-2,2.8437665E-1],"split_indices":[1,2,2,3,0,0,0,0,2,1,2,0,1,0,1,0,0,0,0,1,1,0,1,2,0,2,0,0,3,0,0,7,0,2,0,0,3,1,0,5,5,0,0,0,0,0,0,0,0,0,0,0,0,0,0,0,0,0,0,0,0],"split_type":[0,0,0,0,0,0,0,0,0,0,0,0,0,0,0,0,0,0,0,0,0,0,0,0,0,0,0,0,0,0,0,0,0,0,0,0,0,0,0,0,0,0,0,0,0,0,0,0,0,0,0,0,0,0,0,0,0,0,0,0,0],"sum_hessian":[2.5258945E2,7.775469E1,1.7483476E2,1.919172E1,5.8562977E1,1.3442583E2,4.0408928E1,1.2560229E0,1.7935696E1,1.7322727E1,4.124025E1,1.06160706E2,2.8265123E1,1.247265E1,2.793628E1,1.6597809E1,1.3378861E0,5.8805685E0,1.1442158E1,1.5364064E1,2.5876184E1,7.981901E1,2.63417E1,1.3939565E1,1.4325558E1,1.5264136E1,1.2672143E1,1.6708244E0,4.209744E0,5.7096744E0,9.65439E0,2.143237E1,4.4438157E0,5.801103E0,2.0540596E1,6.0577507E0,7.8818145E0,6.743339E0,8.520797E0,1.0274659E1,2.3974836E0,3.0860763E0,1.1236677E0,5.7031813E0,3.9512086E0,1.1094065E0,2.0322962E1,1.7473752E0,2.6964402E0,3.066174E0,2.734929E0,5.343244E0,2.5385704E0,3.9564497E0,2.7868893E0,1.2270873E0,7.2937093E0,9.261718E0,1.0129416E0,1.1245942E0,1.2728893E0],"tree_param":{"num_deleted":"0","num_feature":"9","num_nodes":"61","size_leaf_vector":"0"}},{"base_weights":[-5.4971033E-1,-9.0237215E-2,-8.720747E-1,-7.504039E-1,3.5728183E-1,-1.1354424E0,-5.227276E-1,-9.4375587E-1,1.07439235E-1,-5.879804E-1,9.296666E-1,-8.7188286E-1,2.354216E-1,-1.3278922E-1,-1.0813625E0,-5.0811833E-1,5.7369614E-1,2.771544E-1,-1.0047709E0,5.813626E-1,1.1339424E0,-1.8182598E-1,-1.0698954E0,6.107969E-1,-7.9543245E-1,4.0148383E-1,-8.468027E-1,1.051703E-1,-7.804012E-1,8.0205244E-1,1.4832778E-1,-8.757594E-1,9.635205E-1,-1.1180761E0,-5.1906985E-1,9.603679E-1,-1.9460768E-1,1.8535112E-1,1.1746918E0,-8.911137E-1,5.845192E-1,-4.9930386E-2,9.1154057E-1,-9.944922E-1,1.8579878E-2,-1.765275E-1,7.217411E-1,1.647266E-1,1.3194765E0,-8.9113784E-1,1.7026491E-1,3.0569836E-1,1.0835155E0,-9.0092117E-1,7.6110107E-1,8.310767E-1,-1.9982368E-1,5.964906E-1,-5.65816E-1,1.8681309E-1,9.8158795E-1],"categories":[],"categories_nodes":[],"categories_segments":[],"categories_sizes":[],"default_left":[true,true,true,true,true,false,true,true,true,true,true,true,true,true,false,true,true,true,true,true,true,true,false,true,true,true,false,false,false,false,false,false,true,false,true,true,true,false,false,false,true,true,true,false,false,false,false,false,false,false,false,false,false,false,false,false,false,false,false,false,false],"id":4,"left_children":[1,3,5,7,9,-1,11,13,15,17,19,21,23,25,-1,27,29,31,33,35,37,39,-1,41,43,45,-1,-1,-1,-1,-1,-1,47,-1,49,51,53,-1,-1,-1,55,57,59,-1,-1,-1,-1,-1,-1,-1,-1,-1,-1,-1,-1,-1,-1,-1,-1,-1,-1],"loss_changes":[3.0960575E1,2.6124645E1,1.072683E1,6.019745E0,2.9134834E1,0E0,1.4695481E1,3.1172695E0,2.4328423E0,7.6849966E0,1.7098827E0,4.955662E0,7.469608E0,2.3919272E0,0E0,7.0759875E-1,3.3902514E-1,6.7487493E0,1.9441223E-1,4.4105296E0,5.528908E-1,5.7438545E0,0E0,2.7868862E0,8.6949754E-1,8.2252234E-1,0E0,0E0,0E0,0E0,0E0,0E0,1.2480035E0,0E0,1.3134704E0,4.6024132E-1,4.4281864E0,0E0,0E0,0E0,1.1760335E0,2.0927236E0,3.005476E-1,0E0,0E0,0E0,0E0,0E0,0E0,0E0,0E0,0E0,0E0,0E0,0E0,0E0,0E0,0E0,0E0,0E0,0E0],"parents":[2147483647,0,0,1,1,2,2,3,3,4,4,6,6,7,7,8,8,9,9,10,10,11,11,12,12,13,13,15,15,16,16,17,17,18,18,19,19,20,20,21,21,23,23,24,24,25,25,32,32,34,34,35,35,36,36,40,40,41,41,42,42],"right_children":[2,4,6,8,10,-1,12,14,16,18,20,22,24,26,-1,28,30,32,34,36,38,40,-1,42,44,46,-1,-1,-1,-1,-1,-1,48,-1,50,52,54,-1,-1,-1,56,58,60,-1,-1,-1,-1,-1,-1,-1,-1,-1,-1,-1,-1,-1,-1,-1,-1,-1,-1],"split_conditions":[2.165E2,4.5E0,6.5E0,4.1209057E1,1.9650146E1,-3.4063274E-1,3.9145676E1,7.2E1,2.5E0,1.125E2,3.1004314E1,2.855E2,4.285E2,1.0556702E2,-3.2440877E-1,8.95E1,1.35E2,9.413421E0,1.6848064E1,1.62E2,5.11631E1,2.7008997E1,-3.2096863E-1,7.5E0,4.8462135E1,2.5E0,-2.5404084E-1,3.1551093E-2,-2.3412035E-1,2.4061574E-1,4.4498336E-2,-2.6272783E-1,2.0667896E3,-3.3542284E-1,8.5E0,5.5E0,7.5E0,5.5605337E-2,3.5240754E-1,-2.6733413E-1,-5.478567E-1,3.1E2,-1.1970849E0,-2.9834765E-1,5.5739637E-3,-5.2958254E-2,2.1652234E-1,4.9417984E-2,3.9584297E-1,-2.6734138E-1,5.1079478E-2,9.170951E-2,3.2505468E-1,-2.7027637E-1,2.2833033E-1,2.4932301E-1,-5.9947107E-2,1.789472E-1,-1.697448E-1,5.6043927E-2,2.944764E-1],"split_indices":[1,0,0,2,2,0,2,1,0,1,2,1,1,5,0,1,1,2,2,1,5,2,0,0,2,0,0,0,0,0,0,0,7,0,0,0,0,0,0,0,3,1,3,0,0,0,0,0,0,0,0,0,0,0,0,0,0,0,0,0,0],"split_type":[0,0,0,0,0,0,0,0,0,0,0,0,0,0,0,0,0,0,0,0,0,0,0,0,0,0,0,0,0,0,0,0,0,0,0,0,0,0,0,0,0,0,0,0,0,0,0,0,0,0,0,0,0,0,0,0,0,0,0,0,0],"sum_hessian":[2.0855798E2,8.651959E1,1.2203838E2,3.4681572E1,5.1838024E1,6.829877E1,5.373962E1,2.8220675E1,6.4608965E0,1.9540579E1,3.2297447E1,3.669173E1,1.7047888E1,4.3789434E0,2.384173E1,2.74592E0,3.7149765E0,6.462126E0,1.3078453E1,1.3361373E1,1.8936073E1,8.608855E0,2.8082876E1,1.2795878E1,4.2520084E0,2.7551E0,1.6238436E0,1.0329821E0,1.712938E0,1.8410646E0,1.873912E0,2.3085072E0,4.1536183E0,9.548885E0,3.5295668E0,8.817183E0,4.54419E0,1.008484E0,1.792759E1,4.386312E0,4.2225437E0,4.2633553E0,8.532523E0,3.2383754E0,1.0136333E0,1.1422757E0,1.6128243E0,1.7312734E0,2.422345E0,2.102171E0,1.4273959E0,1.9473228E0,6.8698597E0,2.6459992E0,1.8981906E0,3.167317E0,1.0552266E0,1.8229258E0,2.4404297E0,1.0751989E0,7.4573245E0],"tree_param":{"num_deleted":"0","num_feature":"9","num_nodes":"61","size_leaf_vector":"0"}},{"base_weights":[-4.912001E-1,-1.7333911E-1,-9.0651786E-1,-6.548084E-1,2.946122E-1,-1.0029222E0,-7.431414E-2,-5.7165973E-2,-9.070993E-1,-4.6461752E-1,7.8215784E-1,-1.0690632E0,-4.6592346E-1,-8.531075E-1,4.367346E-1,-8.1861913E-1,5.100282E-1,-1.0674921E0,-5.239166E-1,4.333557E-1,-7.4471736E-1,3.6276802E-1,9.801917E-1,-9.6238047E-1,2.4820283E-1,8.429787E-1,-2.5075018E-1,-6.470481E-2,-9.534113E-1,-7.919227E-1,9.4604963E-1,-9.9642515E-1,-1.4688063E-2,-1.1469785E-1,8.594813E-1,-1.038105E0,-8.234671E-2,6.4634526E-1,-4.5329913E-1,1.0825757E0,5.5221516E-1,9.7091866E-1,-5.594615E-1,4.531343E-1,1.1506522E0,5.425839E-1,-6.810848E-1,-4.4994032E-1,2.4985209E-1,4.9063978E-1,-8.537436E-1,-1.5257408E-1,9.223457E-1,-7.5082755E-1,1.1639762E-1,-7.8977846E-2,8.755888E-1],"categories":[],"categories_nodes":[],"categories_segments":[],"categories_sizes":[],"default_left":[true,true,true,true,true,true,true,true,true,true,true,false,true,false,true,true,true,false,true,true,true,true,true,false,true,false,false,false,false,false,true,false,true,true,false,false,true,true,true,false,true,false,false,false,false,false,false,false,false,false,false,false,false,false,false,false,false],"id":5,"left_children":[1,3,5,7,9,11,13,15,17,19,21,-1,23,-1,25,27,29,-1,31,33,35,37,39,-1,41,-1,-1,-1,-1,-1,43,-1,45,47,-1,-1,49,51,53,-1,55,-1,-1,-1,-1,-1,-1,-1,-1,-1,-1,-1,-1,-1,-1,-1,-1],"loss_changes":[2.2674206E1,2.2544094E1,5.92194E0,7.3674583E0,1.9240839E1,1.8781509E0,3.8907237E0,7.186761E0,1.5631027E0,5.4965224E0,2.2546387E0,0E0,3.4683752E0,0E0,1.8867108E0,6.5726376E-1,6.19815E0,0E0,2.9096613E0,1.3883915E0,3.0329628E0,2.9931536E0,3.1186104E-1,0E0,3.1877732E0,0E0,0E0,0E0,0E0,0E0,2.4973345E-1,0E0,2.9187348E0,5.154856E-1,0E0,0E0,3.0762289E0,2.1409461E0,6.9704E-1,0E0,1.303801E0,0E0,0E0,0E0,0E0,0E0,0E0,0E0,0E0,0E0,0E0,0E0,0E0,0E0,0E0,0E0,0E0],"parents":[2147483647,0,0,1,1,2,2,3,3,4,4,5,5,6,6,7,7,8,8,9,9,10,10,12,12,14,14,15,15,16,16,18,18,19,19,20,20,21,21,22,22,24,24,30,30,32,32,33,33,36,36,37,37,38,38,40,40],"right_children":[2,4,6,8,10,12,14,16,18,20,22,-1,24,-1,26,28,30,-1,32,34,36,38,40,-1,42,-1,-1,-1,-1,-1,44,-1,46,48,-1,-1,50,52,54,-1,56,-1,-1,-1,-1,-1,-1,-1,-1,-1,-1,-1,-1,-1,-1,-1,-1],"split_conditions":[2.915E2,2.7136307E1,4.6530968E1,1.125E2,4.5E0,9.5E0,6.5E0,4.5E0,7.5E0,8.4E1,6.5E0,-3.2071897E-1,3.4134537E1,-2.5593227E-1,4.2E2,5.95E1,9.413421E0,-3.2024765E-1,1.6780773E1,2.5E0,3.5E0,2.265E2,2.475E2,-2.8871414E-1,4.045E2,2.5289363E-1,-7.5225055E-2,-1.9411445E-2,-2.860234E-1,-2.3757681E-1,1.8804236E3,-2.9892755E-1,1.97E2,1.3395986E3,2.578444E-1,-3.1143153E-1,1.775E2,3.1884007E1,3.5E0,3.2477272E-1,3.249913E1,2.9127562E-1,-1.6783845E-1,1.359403E-1,3.4519565E-1,1.6277517E-1,-2.0432545E-1,-1.3498211E-1,7.495563E-2,1.4719194E-1,-2.561231E-1,-4.5772225E-2,2.7670372E-1,-2.2524828E-1,3.4919288E-2,-2.3693355E-2,2.6267666E-1],"split_indices":[1,2,2,1,0,0,0,0,0,1,0,0,2,0,1,1,2,0,2,0,0,1,1,0,1,0,0,0,0,0,7,0,1,7,0,0,1,2,8,0,2,0,0,0,0,0,0,0,0,0,0,0,0,0,0,0,0],"split_type":[0,0,0,0,0,0,0,0,0,0,0,0,0,0,0,0,0,0,0,0,0,0,0,0,0,0,0,0,0,0,0,0,0,0,0,0,0,0,0,0,0,0,0,0,0,0,0,0,0,0,0,0,0,0,0,0,0],"sum_hessian":[1.719473E2,9.820446E1,7.374283E1,4.82063E1,4.9998165E1,6.5903305E1,7.8395233E0,1.4673468E1,3.353283E1,1.9569937E1,3.0428228E1,5.7794113E1,8.109195E0,2.8409057E0,4.9986176E0,6.07481E0,8.598658E0,2.2379395E1,1.1153436E1,4.522877E0,1.5047059E1,1.06679125E1,1.9760315E1,4.5785656E0,3.5306292E0,2.9998107E0,1.998807E0,1.1458604E0,4.9289494E0,1.9524465E0,6.646211E0,5.2890453E0,5.864391E0,2.29808E0,2.2247975E0,1.0034959E1,5.0121E0,8.071205E0,2.5967076E0,1.47114105E1,5.048905E0,1.7566282E0,1.774001E0,2.8924968E0,3.753714E0,3.2948656E0,2.5695252E0,1.0751395E0,1.2229403E0,3.0847418E0,1.9273584E0,2.187217E0,5.883988E0,1.4969643E0,1.0997432E0,1.9664195E0,3.0824852E0],"tree_param":{"num_deleted":"0","num_feature":"9","num_nodes":"57","size_leaf_vector":"0"}},{"base_weights":[-4.4327924E-1,3.391341E-2,-6.791211E-1,-8.064034E-1,2.838134E-1,-9.6967655E-1,-3.1662568E-1,-9.065938E-1,-1.2773055E-1,-5.2282697E-1,6.197556E-1,-1.0230284E0,-5.045652E-1,-9.302859E-1,7.7961E-2,-9.9805003E-1,-2.5554308E-1,1.0726128E-1,-9.4441426E-1,1.8756302E-1,8.522301E-1,1.6043742E-1,-9.039468E-1,-2.8556502E-1,-1.0231307E0,6.729748E-1,-6.437708E-1,-6.9887114E-1,5.016713E-1,-3.232487E-1,9.388896E-1,9.981414E-1,2.6925185E-1,5.490001E-1,-3.8773054E-1,-7.505542E-1,3.353951E-1,2.1028796E-1,1.0012707E0,-8.9934134E-1,7.356909E-2,-1.0654687E-1,8.3178693E-1,1.893065E-1,-1.0246779E0,1.0607798E0,1.1035198E-1,-4.932602E-1,7.847103E-1,-2.1991526E-1,7.921085E-1,-9.9479884E-1,-3.1294733E-1,-5.8361113E-1,8.590693E-1],"categories":[],"categories_nodes":[],"categories_segments":[],"categories_sizes":[],"default_left":[true,true,true,true,true,true,true,true,false,true,true,false,true,true,true,false,false,true,false,true,true,true,false,true,false,true,true,false,true,true,false,true,true,false,false,false,false,true,false,true,true,false,false,false,false,false,false,false,false,false,false,false,false,false,false],"id":6,"left_children":[1,3,5,7,9,11,13,15,-1,17,19,-1,21,23,25,-1,-1,27,-1,29,31,33,-1,35,-1,37,39,-1,41,43,-1,45,47,-1,-1,-1,-1,49,-1,51,53,-1,-1,-1,-1,-1,-1,-1,-1,-1,-1,-1,-1,-1,-1],"loss_changes":[1.6074997E1,1.0335668E1,9.7517395E0,6.5204525E-1,1.0577084E1,7.8723526E-1,1.0720886E1,3.210783E-1,0E0,3.2005029E0,2.569951E0,0E0,2.1046455E0,7.426481E-1,1.2323613E1,0E0,0E0,2.123158E0,0E0,4.442606E0,1.2100134E0,9.83447E-1,0E0,1.2806091E0,0E0,2.168964E0,2.453651E0,0E0,9.571279E-1,2.7695696E0,0E0,6.356125E-1,2.29311E0,0E0,0E0,0E0,0E0,2.1184554E0,0E0,2.3038673E-1,2.7444746E0,0E0,0E0,0E0,0E0,0E0,0E0,0E0,0E0,0E0,0E0,0E0,0E0,0E0,0E0],"parents":[2147483647,0,0,1,1,2,2,3,3,4,4,5,5,6,6,7,7,9,9,10,10,12,12,13,13,14,14,17,17,19,19,20,20,21,21,23,23,25,25,26,26,28,28,29,29,31,31,32,32,37,37,39,39,40,40],"right_children":[2,4,6,8,10,12,14,16,-1,18,20,-1,22,24,26,-1,-1,28,-1,30,32,34,-1,36,-1,38,40,-1,42,44,-1,46,48,-1,-1,-1,-1,50,-1,52,54,-1,-1,-1,-1,-1,-1,-1,-1,-1,-1,-1,-1,-1,-1],"split_conditions":[1.795E2,1.5212616E1,3.1853916E1,9.5E0,3.5E0,9.5E0,5.5E0,1.3910863E1,-3.8319167E-2,8.3E1,5.5E0,-3.0690852E-1,-1.0195165E0,2.125E2,3.505E2,-2.9941502E-1,-7.666293E-2,1.5E0,-2.833243E-1,3.4569866E1,1.515E2,2.68E2,-2.7118406E-1,4.5E0,-3.069392E-1,7.5E0,9.5E0,-2.0966135E-1,3.23055E1,1.35E2,2.816669E-1,1.4513362E2,2.5340282E1,1.6470003E-1,-1.16319165E-1,-2.2516628E-1,1.00618534E-1,4.519722E1,3.003812E-1,4.7917587E1,4.3509995E1,-3.1964064E-2,2.4953608E-1,5.679195E-2,-3.074034E-1,3.1823397E-1,3.3105597E-2,-1.4797807E-1,2.3541309E-1,-6.597458E-2,2.3763256E-1,-2.9843965E-1,-9.388421E-2,-1.7508334E-1,2.577208E-1],"split_indices":[1,2,2,0,0,0,0,2,0,1,0,0,3,1,1,0,0,0,0,2,1,1,0,0,0,0,0,0,2,1,0,5,2,0,0,0,0,2,0,2,2,0,0,0,0,0,0,0,0,0,0,0,0,0,0],"split_type":[0,0,0,0,0,0,0,0,0,0,0,0,0,0,0,0,0,0,0,0,0,0,0,0,0,0,0,0,0,0,0,0,0,0,0,0,0,0,0,0,0,0,0,0,0,0,0,0,0,0,0,0,0,0,0],"sum_hessian":[1.4163086E2,4.7128735E1,9.450213E1,1.0292417E1,3.683632E1,5.152647E1,4.2975662E1,8.675802E0,1.616615E0,1.0667055E1,2.6169264E1,4.5148106E1,6.3783655E0,1.6287601E1,2.6688059E1,7.139849E0,1.5359527E0,4.575005E0,6.09205E0,9.784932E0,1.638433E1,2.617801E0,3.7605648E0,2.5633364E0,1.3724266E1,1.4665231E1,1.2022828E1,1.2494075E0,3.3255975E0,6.16395E0,3.6209822E0,1.2534883E1,3.8494487E0,1.5310298E0,1.0867712E0,1.3464124E0,1.2169241E0,6.76768E0,7.89755E0,8.677524E0,3.3453047E0,1.4082415E0,1.9173561E0,3.9833272E0,2.180623E0,1.15267515E1,1.0081308E0,1.5700121E0,2.2794366E0,4.248399E0,2.5192814E0,6.8637276E0,1.8137962E0,1.9613676E0,1.3839372E0],"tree_param":{"num_deleted":"0","num_feature":"9","num_nodes":"55","size_leaf_vector":"0"}},{"base_weights":[-4.0027833E-1,-1.24157675E-1,-7.9466033E-1,-5.4604286E-1,2.7738842E-1,-9.5073247E-1,-2.1153094E-1,7.7835895E-2,-7.412625E-1,-3.7282568E-1,6.8111223E-1,-1.0369612E0,-6.107927E-1,-7.126787E-1,4.7037807E-1,-5.5323774E-1,6.277339E-1,-9.1184115E-1,-1.9740774E-1,3.314243E-1,-6.3538414E-1,2.9737708E-1,8.7689996E-1,1.2284453E-1,-8.684379E-1,-8.7074333E-1,-4.9195588E-3,8.11632E-1,-3.7446943E-1,-8.070357E-1,-4.651625E-2,-2.390275E-1,9.38677E-1,-9.4731885E-1,-1.325585E-1,-6.7462057E-1,2.553305E-1,-1.0158029E-1,7.136154E-1,-9.290189E-1,-7.9003364E-2,8.297321E-1,-5.097032E-2,9.931713E-1,4.4892764E-1,-6.366598E-1,7.5730413E-1,-9.3762165E-1,-2.2240965E-1,-1.0254004E0,-4.7552988E-1,7.268131E-1,-4.1170216E-1,3.429143E-1,-6.933964E-1,-8.345607E-1,6.2287223E-1,-1.7690893E-2,7.0166427E-1],"categories":[],"categories_nodes":[],"categories_segments":[],"categories_sizes":[],"default_left":[true,true,true,true,true,true,true,true,true,true,true,false,true,true,true,true,true,true,true,true,true,true,true,true,true,false,false,false,false,false,false,false,false,true,false,false,true,false,false,false,true,false,true,false,true,false,false,false,false,false,false,false,false,false,false,false,false,false,false],"id":7,"left_children":[1,3,5,7,9,11,13,15,17,19,21,-1,23,25,27,29,31,33,35,37,39,41,43,45,47,-1,-1,-1,-1,-1,-1,-1,-1,49,-1,-1,51,-1,-1,-1,53,-1,55,-1,57,-1,-1,-1,-1,-1,-1,-1,-1,-1,-1,-1,-1,-1,-1],"loss_changes":[1.2788584E1,1.2144322E1,4.2174397E0,4.3033257E0,9.949409E0,4.80896E-1,4.277788E0,3.5444896E0,2.291957E0,2.9461546E0,1.4777403E0,0E0,2.0204165E0,7.8411794E-1,1.886581E0,5.82525E-1,1.6774983E0,4.275818E-1,1.8225381E0,8.461459E-1,1.7432122E0,1.7726314E0,2.91049E-1,2.1723552E0,1.319046E-1,0E0,0E0,0E0,0E0,0E0,0E0,0E0,0E0,2.113514E-1,0E0,0E0,1.7600977E0,0E0,0E0,0E0,1.5168095E0,0E0,3.9953673E0,0E0,6.007322E-1,0E0,0E0,0E0,0E0,0E0,0E0,0E0,0E0,0E0,0E0,0E0,0E0,0E0,0E0],"parents":[2147483647,0,0,1,1,2,2,3,3,4,4,5,5,6,6,7,7,8,8,9,9,10,10,12,12,13,13,14,14,15,15,16,16,17,17,18,18,19,19,20,20,21,21,22,22,23,23,24,24,33,33,36,36,40,40,42,42,44,44],"right_children":[2,4,6,8,10,12,14,16,18,20,22,-1,24,26,28,30,32,34,36,38,40,42,44,46,48,-1,-1,-1,-1,-1,-1,-1,-1,50,-1,-1,52,-1,-1,-1,54,-1,56,-1,58,-1,-1,-1,-1,-1,-1,-1,-1,-1,-1,-1,-1,-1,-1],"split_conditions":[2.915E2,2.7136307E1,4.3105865E1,9.45E1,4.5E0,8.5E0,7.5E0,4.5E0,8.5E0,8.4E1,6.5E0,-3.1108838E-1,3.385E2,-4.31187E-1,4.48E2,-5.156519E-1,1.3508017E1,1.0616178E4,1.6233147E1,2.5E0,3.5E0,1.615E2,2.475E2,3.2983208E1,1.3660274E2,-2.6122302E-1,-1.4758677E-3,2.4348961E-1,-1.1234083E-1,-2.4211071E-1,-1.3954876E-2,-7.1708255E-2,2.8160313E-1,2.3638157E1,-3.976755E-2,-2.0238619E-1,1.97E2,-3.047409E-2,2.1408464E-1,-2.787057E-1,1.775E2,2.4891965E-1,4.0785347E1,2.979514E-1,3.249913E1,-1.9099794E-1,2.2719125E-1,-2.812865E-1,-6.67229E-2,-3.0762014E-1,-1.4265896E-1,2.1804394E-1,-1.2351065E-1,1.028743E-1,-2.0801893E-1,-2.503682E-1,1.8686168E-1,-5.3072684E-3,2.1049929E-1],"split_indices":[1,2,2,1,0,0,0,0,0,1,0,0,1,3,1,3,2,7,2,0,0,1,1,2,5,0,0,0,0,0,0,0,0,2,0,0,1,0,0,0,1,0,2,0,2,0,0,0,0,0,0,0,0,0,0,0,0,0,0],"split_type":[0,0,0,0,0,0,0,0,0,0,0,0,0,0,0,0,0,0,0,0,0,0,0,0,0,0,0,0,0,0,0,0,0,0,0,0,0,0,0,0,0,0,0,0,0,0,0,0,0,0,0,0,0,0,0,0,0,0,0],"sum_hessian":[1.1734343E2,6.979343E1,4.7550003E1,3.385927E1,3.593416E1,3.7013184E1,1.0536821E1,8.21315E0,2.564612E1,1.3794335E1,2.2139824E1,2.7888578E1,9.124605E0,6.047372E0,4.4894495E0,3.821476E0,4.3916736E0,1.900776E1,6.6383615E0,3.67493E0,1.0119405E1,8.330769E0,1.3809055E1,2.507571E0,6.6170335E0,4.755122E0,1.2922494E0,3.2257912E0,1.2636582E0,2.1513057E0,1.6701704E0,1.2205747E0,3.1710987E0,1.797385E1,1.0339082E0,2.9932303E0,3.645131E0,2.0671558E0,1.6077743E0,6.185304E0,3.9341013E0,2.7485068E0,5.5822616E0,9.820409E0,3.9886465E0,1.1397371E0,1.367834E0,5.5692534E0,1.04778E0,1.4414763E1,3.559086E0,2.0830998E0,1.5620311E0,2.59436E0,1.3397411E0,2.4706779E0,3.1115837E0,1.7281072E0,2.2605393E0],"tree_param":{"num_deleted":"0","num_feature":"9","num_nodes":"59","size_leaf_vector":"0"}},{"base_weights":[-3.6053646E-1,-1.0794594E-1,-7.4497056E-1,-4.9676424E-1,2.6328987E-1,-9.1190356E-1,-1.8676685E-1,1.120237E-1,-6.7635673E-1,-3.145926E-1,7.178249E-1,-1.0077256E0,-5.587237E-1,-6.2864393E-1,3.9186892E-1,-3.7577954E-1,5.419298E-1,-7.9467833E-1,1.1429235E-1,4.3431467E-1,-6.55532E-1,8.8743484E-1,2.0589708E-1,-8.861856E-1,2.2775194E-2,-7.9241955E-1,-4.088574E-3,6.9689196E-1,-3.2364836E-1,9.695347E-2,-6.604509E-1,-2.6620394E-1,8.51198E-1,-1.4214797E-1,-8.8862085E-1,3.8647318E-1,-3.013247E-1,-5.664184E-1,8.175873E-1,-8.198298E-1,-1.5212801E-1,-1.4654757E-1,6.9400233E-1,6.3026506E-1,-6.626178E-1,7.922062E-1,2.1790981E-1,-5.631903E-1,2.529338E-1,-9.761252E-1,-5.005242E-1,-1.8306126E-1,-9.3252295E-1,3.1680426E-1,-6.196562E-1,-7.115481E-1,3.9986458E-1],"categories":[],"categories_nodes":[],"categories_segments":[],"categories_sizes":[],"default_left":[true,true,true,true,true,true,true,true,true,true,true,false,true,true,true,true,true,true,true,true,true,false,true,false,true,false,false,true,false,false,false,false,false,true,true,false,false,false,false,true,true,true,false,false,false,false,false,false,false,false,false,false,false,false,false,false,false],"id":8,"left_children":[1,3,5,7,9,11,13,15,17,19,21,-1,23,25,27,29,31,33,35,37,39,-1,41,-1,43,-1,-1,45,-1,-1,-1,-1,-1,47,49,-1,-1,-1,-1,51,53,55,-1,-1,-1,-1,-1,-1,-1,-1,-1,-1,-1,-1,-1,-1,-1],"loss_changes":[9.521704E0,8.913308E0,3.4675198E0,3.3628836E0,8.57332E0,4.4529343E-1,2.8658173E0,1.8198118E0,2.2760143E0,4.034691E0,1.3882589E0,0E0,1.658345E0,6.302116E-1,1.3281412E0,6.293447E-1,1.3527573E0,1.126874E0,5.5931145E-1,2.4560275E0,7.4294996E-1,0E0,1.1003033E0,0E0,2.1140125E0,0E0,0E0,3.5561323E-3,0E0,0E0,0E0,0E0,0E0,7.684443E-1,1.11849785E-1,0E0,0E0,0E0,0E0,3.805108E-1,1.0314431E0,1.5800737E0,0E0,0E0,0E0,0E0,0E0,0E0,0E0,0E0,0E0,0E0,0E0,0E0,0E0,0E0,0E0],"parents":[2147483647,0,0,1,1,2,2,3,3,4,4,5,5,6,6,7,7,8,8,9,9,10,10,12,12,13,13,14,14,15,15,16,16,17,17,18,18,19,19,20,20,22,22,24,24,27,27,33,33,34,34,39,39,40,40,41,41],"right_children":[2,4,6,8,10,12,14,16,18,20,22,-1,24,26,28,30,32,34,36,38,40,-1,42,-1,44,-1,-1,46,-1,-1,-1,-1,-1,48,50,-1,-1,-1,-1,52,54,56,-1,-1,-1,-1,-1,-1,-1,-1,-1,-1,-1,-1,-1,-1,-1],"split_conditions":[2.915E2,5.5E0,4.3105865E1,8.35E1,2.4711603E1,8.5E0,7.5E0,2.5E0,4.4319878E1,1.125E2,2.485E2,-3.0231768E-1,3.417768E1,-4.31187E-1,4.48E2,-6.8641615E-1,1.9857656E1,5E-1,2.07E2,9.413421E0,1.897367E1,2.6623046E-1,4.0650127E1,-2.658557E-1,4.035E2,-2.3772587E-1,-1.2265723E-3,4.9522065E3,-9.709451E-2,2.908604E-2,-1.9813527E-1,-7.986119E-2,2.553594E-1,2.8431318E1,3.4588905E1,1.1594196E-1,-9.039741E-2,-1.6992553E-1,2.452762E-1,6.778761E2,1.985E2,8.5E0,2.0820071E-1,1.8907952E-1,-1.9878535E-1,2.3766188E-1,6.5372944E-2,-1.6895708E-1,7.588014E-2,-2.9283756E-1,-1.5015727E-1,-5.491838E-2,-2.797569E-1,9.504128E-2,-1.8589687E-1,-2.1346444E-1,1.1995938E-1],"split_indices":[1,0,2,1,2,0,0,0,2,1,1,0,2,3,1,3,2,8,1,2,2,0,2,0,1,0,0,7,0,0,0,0,0,2,2,0,0,0,0,7,1,0,0,0,0,0,0,0,0,0,0,0,0,0,0,0,0],"split_type":[0,0,0,0,0,0,0,0,0,0,0,0,0,0,0,0,0,0,0,0,0,0,0,0,0,0,0,0,0,0,0,0,0,0,0,0,0,0,0,0,0,0,0,0,0,0,0,0,0,0,0,0,0,0,0,0,0],"sum_hessian":[9.7884476E1,5.9844646E1,3.803983E1,2.9064966E1,3.0779678E1,2.879495E1,9.24488E0,6.7066846E0,2.2358282E1,1.3686696E1,1.7092983E1,2.1192005E1,7.602946E0,5.1928887E0,4.0519905E0,3.2007642E0,3.5059204E0,1.9443449E1,2.9148326E0,4.1959653E0,9.49073E0,1.2288191E1,4.8047924E0,4.528708E0,3.0742378E0,3.9011312E0,1.2917577E0,2.8591666E0,1.1928241E0,1.4508548E0,1.7499094E0,1.0088885E0,2.497032E0,2.7632039E0,1.6680246E1,1.8037246E0,1.1111078E0,1.0296582E0,3.166307E0,6.681494E0,2.8092365E0,3.1964812E0,1.6083112E0,1.6723782E0,1.4018596E0,1.8392344E0,1.0199322E0,1.1316698E0,1.6315341E0,1.2374909E1,4.3053365E0,1.3992882E0,5.282206E0,1.5634629E0,1.2457736E0,1.4229281E0,1.7735531E0],"tree_param":{"num_deleted":"0","num_feature":"9","num_nodes":"57","size_leaf_vector":"0"}},{"base_weights":[-3.2501444E-1,-1.4375193E-1,-7.9247224E-1,-5.8778435E-1,1.0714838E-1,-8.8944745E-1,2.4238432E-2,1.6649029E-1,-7.3876697E-1,-4.825017E-1,3.8654497E-1,-9.7631305E-1,-4.831871E-1,-2.7850613E-1,3.774045E-1,5.023787E-1,-4.4155613E-1,-8.798465E-1,-2.5861117E-1,1.8217473E-1,-7.588098E-1,8.631115E-1,1.6720565E-1,-7.430035E-1,2.0150684E-1,1.4248253E-1,6.174239E-1,1.7496668E-1,-7.29359E-1,-5.511935E-1,5.316786E-1,-8.196025E-1,-1.2458528E-1,-3.056178E-1,4.750614E-1,-2.9521635E-1,6.4112407E-1,-4.2681247E-2,8.3688E-1,-5.766879E-1,4.2810377E-1,4.5400787E-2,7.125664E-1],"categories":[],"categories_nodes":[],"categories_segments":[],"categories_sizes":[],"default_left":[true,true,true,true,true,true,true,true,true,true,true,false,true,false,false,true,false,false,true,true,true,false,true,false,false,false,false,true,false,false,true,false,false,true,true,false,false,false,false,false,false,false,false],"id":9,"left_children":[1,3,5,7,9,11,13,15,17,19,21,-1,23,-1,-1,25,-1,-1,27,29,31,-1,33,-1,-1,-1,-1,35,-1,-1,37,-1,-1,39,41,-1,-1,-1,-1,-1,-1,-1,-1],"loss_changes":[6.9894247E0,6.9290466E0,1.8592119E0,2.674559E0,6.813385E0,2.611065E-1,4.7249413E-1,1.1516986E0,1.0495205E0,2.5949888E0,2.7666063E0,0E0,1.1526747E0,0E0,0E0,5.2827537E-2,0E0,0E0,1.2905173E0,1.5065492E0,2.6967096E-1,0E0,3.101663E0,0E0,0E0,0E0,0E0,1.0161004E0,0E0,0E0,6.8700063E-1,0E0,0E0,1.9609106E0,1.2629128E0,0E0,0E0,0E0,0E0,0E0,0E0,0E0,0E0],"parents":[2147483647,0,0,1,1,2,2,3,3,4,4,5,5,6,6,7,7,8,8,9,9,10,10,12,12,15,15,18,18,19,19,20,20,22,22,27,27,30,30,33,33,34,34],"right_children":[2,4,6,8,10,12,14,16,18,20,22,-1,24,-1,-1,26,-1,-1,28,30,32,-1,34,-1,-1,-1,-1,36,-1,-1,38,-1,-1,40,42,-1,-1,-1,-1,-1,-1,-1,-1],"split_conditions":[3.385E2,4.5E0,4.8026985E1,7.25E1,2.0327068E1,4.1093445E1,9.998709E1,1.06960526E2,4.013622E1,1.125E2,1.625E2,-2.9289392E-1,8.5E0,-8.355184E-2,1.13221355E-1,2.5E0,-1.3246684E-1,-2.6395395E-1,1.795E2,9.413421E0,-3.4558636E-1,2.5893345E-1,3.227618E1,-2.2290106E-1,6.0452055E-2,4.2744763E-2,1.8522717E-1,3.5E0,-2.188077E-1,-1.6535805E-1,2.0667896E3,-2.4588075E-1,-3.7375584E-2,9.5E0,6.5E0,-8.856491E-2,1.9233723E-1,-1.2804375E-2,2.5106403E-1,-1.7300637E-1,1.2843114E-1,1.3620237E-2,2.1376993E-1],"split_indices":[1,0,2,1,2,2,6,5,2,1,1,0,0,0,0,0,0,0,1,2,3,0,2,0,0,0,0,0,0,0,7,0,0,0,0,0,0,0,0,0,0,0,0],"split_type":[0,0,0,0,0,0,0,0,0,0,0,0,0,0,0,0,0,0,0,0,0,0,0,0,0,0,0,0,0,0,0,0,0,0,0,0,0,0,0,0,0,0,0],"sum_hessian":[8.2832504E1,6.0629993E1,2.2202509E1,2.140524E1,3.9224754E1,1.9766409E1,2.436099E0,3.5529256E0,1.7852312E1,1.2376963E1,2.6847794E1,1.5128499E1,4.63791E0,1.4255104E0,1.0105886E0,2.4006016E0,1.1523241E0,1.3154758E1,4.6975536E0,3.734375E0,8.642589E0,7.5369453E0,1.9310848E1,3.300376E0,1.337534E0,1.1237289E0,1.2768726E0,2.7723908E0,1.9251629E0,1.019039E0,2.7153358E0,7.6199026E0,1.0226855E0,7.617973E0,1.1692874E1,1.5627986E0,1.2095922E0,1.2406691E0,1.4746667E0,5.719101E0,1.898872E0,4.5866E0,7.106274E0],"tree_param":{"num_deleted":"0","num_feature":"9","num_nodes":"43","size_leaf_vector":"0"}},{"base_weights":[-2.822664E-1,-1.774899E-2,-5.9140027E-1,-6.5087914E-1,1.6994175E-1,-7.4169E-1,1.2188309E-1,-8.8489217E-1,-2.3703541E-1,-4.5025867E-1,3.875137E-1,-8.630637E-1,-8.686148E-2,-6.131881E-1,4.3261215E-1,3.7781757E-1,-7.1088386E-1,1.0784079E-1,-8.425459E-1,8.364455E-1,1.809614E-1,-9.312874E-1,-3.8537833E-1,3.151508E-1,-6.725513E-1,1.09122865E-1,6.7682594E-1,-3.447737E-1,4.8920503E-1,-1.40145E-1,5.3253514E-1,-6.9176704E-1,4.914047E-2,-3.16571E-1,6.7107713E-1,5.010978E-1,-2.6172233E-1,-6.2068975E-1,3.8968176E-1,1.3874564E-1,7.2964144E-1],"categories":[],"categories_nodes":[],"categories_segments":[],"categories_sizes":[],"default_left":[true,true,true,true,true,true,true,false,true,true,true,true,true,false,true,false,false,true,false,false,true,false,true,true,false,true,false,false,false,true,true,false,false,false,false,false,false,false,false,false,false],"id":10,"left_children":[1,3,5,7,9,11,13,-1,15,17,19,21,23,-1,25,-1,-1,27,-1,-1,29,-1,31,33,-1,35,-1,-1,-1,37,39,-1,-1,-1,-1,-1,-1,-1,-1,-1,-1],"loss_changes":[5.907118E0,4.86738E0,3.6642847E0,6.967356E-1,4.4478316E0,2.1248407E0,1.7866719E0,0E0,1.6515744E0,1.9927673E0,2.0724242E0,3.9841652E-1,1.492794E0,0E0,3.42328E-1,0E0,0E0,9.406255E-1,0E0,0E0,2.0729346E0,0E0,6.477379E-1,1.090843E0,0E0,6.338766E-1,0E0,0E0,0E0,2.7988691E0,5.707805E-1,0E0,0E0,0E0,0E0,0E0,0E0,0E0,0E0,0E0,0E0],"parents":[2147483647,0,0,1,1,2,2,3,3,4,4,5,5,6,6,8,8,9,9,10,10,11,11,12,12,14,14,17,17,20,20,22,22,23,23,25,25,29,29,30,30],"right_children":[2,4,6,8,10,12,14,-1,16,18,20,22,24,-1,26,-1,-1,28,-1,-1,30,-1,32,34,-1,36,-1,-1,-1,38,40,-1,-1,-1,-1,-1,-1,-1,-1,-1,-1],"split_conditions":[2.485E2,1.604402E1,9.5E0,6.5E0,3.5E0,4.6570854E1,2.6887285E1,-2.6546767E-1,1.13E2,8.3E1,1.255E2,8.5E0,3.875E2,-1.8395643E-1,4.0550247E1,1.1334527E-1,-2.1326517E-1,7.5E2,-2.5276378E-1,2.5093368E-1,3.1106804E1,-2.7938622E-1,3.239652E1,6.5E0,-2.0176539E-1,3.235E2,2.030478E-1,-1.0343212E-1,1.4676152E-1,7.5E0,-9.4303614E-1,-2.0753013E-1,1.4742141E-2,-9.497131E-2,2.0132315E-1,1.5032935E-1,-7.85167E-2,-1.8620694E-1,1.16904534E-1,4.1623693E-2,2.1889244E-1],"split_indices":[1,2,0,0,0,2,2,0,1,1,1,0,1,0,2,0,0,4,0,0,2,0,2,0,0,1,0,0,0,0,3,0,0,0,0,0,0,0,0,0,0],"split_type":[0,0,0,0,0,0,0,0,0,0,0,0,0,0,0,0,0,0,0,0,0,0,0,0,0,0,0,0,0,0,0,0,0,0,0,0,0,0,0,0,0],"sum_hessian":[7.136788E1,3.9029133E1,3.233875E1,8.360189E0,3.0668941E1,2.6677862E1,5.6608844E0,4.6133094E0,3.7468798E0,7.68707E0,2.2981873E1,2.2238005E1,4.4398575E0,1.392754E0,4.268131E0,1.7190058E0,2.027874E0,3.4722562E0,4.2148137E0,6.2809544E0,1.6700918E1,1.862795E1,3.6100543E0,2.9066644E0,1.5331932E0,2.458456E0,1.8096746E0,1.6316781E0,1.8405781E0,9.04298E0,7.657938E0,1.7699758E0,1.8400785E0,1.0873444E0,1.81932E0,1.0244275E0,1.4340284E0,4.6521006E0,4.3908796E0,3.122851E0,4.535087E0],"tree_param":{"num_deleted":"0","num_feature":"9","num_nodes":"41","size_leaf_vector":"0"}},{"base_weights":[-2.4905293E-1,-1.0035034E-1,-7.3667914E-1,-4.479016E-1,1.6919154E-1,-8.8404566E-1,-5.0923888E-2,-1.1742755E-1,-7.6525444E-1,-1.4504796E-1,5.867378E-1,-9.37879E-1,-2.9508165E-1,-5.9587723E-1,5.224296E-1,-5.889612E-1,2.8633925E-1,-8.509054E-1,-1.05078526E-1,1.3777547E-1,-6.9389147E-1,7.2561294E-1,2.075063E-1,-7.8259724E-1,-1.0930313E-3,-4.2415282E-1,6.739923E-1,-6.1665636E-1,2.7883705E-1,-8.1984603E-1,-1.7431156E-1,8.2406694E-1,2.549781E-1,-2.0652528E-1,6.271894E-1,-6.935975E-2,-5.7122797E-1,7.631872E-1,1.6878729E-1,-1.603423E-1,5.230212E-1,-3.8867232E-1,8.348664E-2],"categories":[],"categories_nodes":[],"categories_segments":[],"categories_sizes":[],"default_left":[true,true,true,true,true,true,true,true,true,true,true,false,false,false,false,true,true,false,false,true,true,true,true,false,false,true,true,false,true,false,false,false,false,true,false,false,false,false,false,false,false,false,false],"id":11,"left_children":[1,3,5,7,9,11,13,15,17,19,21,-1,-1,-1,-1,23,25,-1,-1,27,29,31,33,-1,-1,35,37,-1,39,-1,-1,-1,-1,41,-1,-1,-1,-1,-1,-1,-1,-1,-1],"loss_changes":[4.479766E0,4.692492E0,1.4221182E0,2.1964712E0,3.8221824E0,1.0019302E-1,1.4452239E0,2.4267726E0,5.2916384E-1,2.742676E0,5.039978E-1,0E0,0E0,0E0,0E0,6.59178E-1,2.2310007E0,0E0,0E0,1.4583888E0,2.4745274E-1,1.9285297E-1,9.5176196E-1,0E0,0E0,1.2249601E-1,9.448695E-2,0E0,1.2498507E0,0E0,0E0,0E0,0E0,1.9801724E-1,0E0,0E0,0E0,0E0,0E0,0E0,0E0,0E0,0E0],"parents":[2147483647,0,0,1,1,2,2,3,3,4,4,5,5,6,6,7,7,8,8,9,9,10,10,15,15,16,16,19,19,20,20,21,21,22,22,25,25,26,26,28,28,33,33],"right_children":[2,4,6,8,10,12,14,16,18,20,22,-1,-1,-1,-1,24,26,-1,-1,28,30,32,34,-1,-1,36,38,-1,40,-1,-1,-1,-1,42,-1,-1,-1,-1,-1,-1,-1,-1,-1],"split_conditions":[3.505E2,2.7136307E1,9.5E0,1.515E2,6.5E0,4.8026985E1,4.075113E1,5.5E0,5.5E0,2.12E2,2.975E2,-2.8136373E-1,-8.85245E-2,-1.7876318E-1,1.5672888E-1,-4.940158E-1,1.3405231E1,-2.5527164E-1,-3.152356E-2,1.5E0,5.5E0,-4.753362E-1,4.3167877E1,-2.3477918E-1,-3.279094E-4,8.881549E1,1.0787485E2,-1.8499692E-1,3.4588905E1,-2.4595381E-1,-5.2293472E-2,2.4722008E-1,7.649343E-2,3.265E2,1.8815683E-1,-2.0807926E-2,-1.7136839E-1,2.2895618E-1,5.0636187E-2,-4.8102695E-2,1.5690637E-1,-1.166017E-1,2.5045993E-2],"split_indices":[1,2,0,1,0,2,2,0,8,1,1,0,0,0,0,3,2,0,0,0,0,3,2,0,0,6,6,0,2,0,0,0,0,1,0,0,0,0,0,0,0,0,0],"split_type":[0,0,0,0,0,0,0,0,0,0,0,0,0,0,0,0,0,0,0,0,0,0,0,0,0,0,0,0,0,0,0,0,0,0,0,0,0,0,0,0,0,0,0],"sum_hessian":[6.179978E1,4.828191E1,1.3517872E1,2.0800161E1,2.7481749E1,1.0888758E1,2.629114E0,1.0860572E1,9.9395895E0,1.6053059E1,1.142869E1,9.434032E0,1.454725E0,1.3278E0,1.301314E0,4.798289E0,6.062283E0,8.542396E0,1.397194E0,1.1088195E1,4.9648643E0,7.696751E0,3.731939E0,3.3602276E0,1.4380611E0,2.106791E0,3.955492E0,1.2155575E0,9.872638E0,3.5309923E0,1.433872E0,5.744142E0,1.9526088E0,2.1342907E0,1.5976484E0,1.0486647E0,1.0581264E0,2.9279141E0,1.0275779E0,3.6504483E0,6.222189E0,1.1019793E0,1.0323114E0],"tree_param":{"num_deleted":"0","num_feature":"9","num_nodes":"43","size_leaf_vector":"0"}},{"base_weights":[-2.2190477E-1,8.2207955E-2,-4.1648036E-1,-4.7301015E-1,2.6569518E-1,-7.6143444E-1,-1.21337704E-1,-7.589708E-1,-4.0324967E-2,-2.5388715E-1,4.9219826E-1,-9.372974E-1,-3.1656313E-1,-7.497175E-1,1.1284507E-1,3.7992173E-1,-4.0987024E-1,1.01164386E-1,-6.7229617E-1,6.9519186E-1,1.927581E-1,1.6413458E-1,-6.2059146E-1,3.797303E-1,-3.748212E-1,-2.865521E-1,4.2779848E-1,2.2347674E-1,7.953099E-1,-1.2642615E-1,6.8432945E-1,-3.672258E-2,2.874644E-1,-3.7917905E-2,5.285201E-1,-5.856605E-1,2.1575917E-1,-4.871812E-1,6.101955E-1,3.2334778E-1,-4.0868574E-1,2.5745997E-1,7.465972E-1,-7.2497416E-1,-1.6460046E-1],"categories":[],"categories_nodes":[],"categories_segments":[],"categories_sizes":[],"default_left":[true,true,true,true,true,true,true,false,true,true,true,false,true,false,true,false,false,true,false,true,true,true,false,true,true,false,false,false,false,true,false,false,false,true,true,true,false,false,false,false,false,false,false,false,false],"id":12,"left_children":[1,3,5,7,9,11,13,-1,15,17,19,-1,21,-1,23,-1,-1,25,-1,27,29,31,-1,33,35,-1,-1,-1,-1,37,-1,-1,-1,39,41,43,-1,-1,-1,-1,-1,-1,-1,-1,-1],"loss_changes":[3.2993202E0,2.4040666E0,3.3502536E0,7.0123756E-1,2.178563E0,9.0827084E-1,2.9412389E0,0E0,6.8524617E-1,9.529996E-1,6.2534213E-1,0E0,9.602544E-1,0E0,2.0960433E0,0E0,0E0,6.407796E-1,0E0,1.5576601E-1,1.0955299E0,8.651735E-2,0E0,6.537895E-1,8.501445E-1,0E0,0E0,0E0,0E0,1.5577261E0,0E0,0E0,0E0,6.1595213E-1,2.562337E-1,1.4772773E-1,0E0,0E0,0E0,0E0,0E0,0E0,0E0,0E0,0E0],"parents":[2147483647,0,0,1,1,2,2,3,3,4,4,5,5,6,6,8,8,9,9,10,10,12,12,14,14,17,17,19,19,20,20,21,21,23,23,24,24,29,29,33,33,34,34,35,35],"right_children":[2,4,6,8,10,12,14,-1,16,18,20,-1,22,-1,24,-1,-1,26,-1,28,30,32,-1,34,36,-1,-1,-1,-1,38,-1,-1,-1,40,42,44,-1,-1,-1,-1,-1,-1,-1,-1,-1],"split_conditions":[1.795E2,1.6013857E1,6.5E0,6.5E0,3.5E0,4.1003056E1,2.4743458E1,-2.2769125E-1,9.7E1,8.3E1,1.375E2,-2.8118923E-1,2.335E2,-2.2491525E-1,3.55E2,1.1397652E-1,-1.22961074E-1,7.5E2,-2.0168886E-1,6.24125E1,3.4661335E1,4.4051315E1,-1.8617745E-1,3.0078743E1,4.8348824E1,-8.596563E-2,1.2833954E-1,6.704302E-2,2.3859298E-1,8.5E0,2.0529884E-1,-1.1016775E-2,8.623932E-2,-1.0100504E0,8.5E0,9.5E0,6.472775E-2,-1.4615436E-1,1.8305866E-1,9.700434E-2,-1.22605726E-1,7.723799E-2,2.2397916E-1,-2.1749225E-1,-4.9380142E-2],"split_indices":[1,2,0,0,0,2,2,0,1,1,1,0,1,0,1,0,0,4,0,6,2,2,0,2,2,0,0,0,0,0,0,0,0,3,0,0,0,0,0,0,0,0,0,0,0],"split_type":[0,0,0,0,0,0,0,0,0,0,0,0,0,0,0,0,0,0,0,0,0,0,0,0,0,0,0,0,0,0,0,0,0,0,0,0,0,0,0,0,0,0,0,0,0],"sum_hessian":[5.4178658E1,2.1364471E1,3.2814186E1,4.914794E0,1.6449677E1,1.4401847E1,1.841234E1,2.5050905E0,2.4097037E0,4.9572325E0,1.1492445E1,9.528298E0,4.873548E0,4.4012094E0,1.4011131E1,1.114367E0,1.2953366E0,3.091813E0,1.8654193E0,6.061591E0,5.430854E0,2.0664415E0,2.8071065E0,9.198434E0,4.8126974E0,1.4698294E0,1.6219836E0,1.6271697E0,4.434421E0,3.7431717E0,1.6876822E0,1.0532845E0,1.0131569E0,2.6119452E0,6.5864882E0,3.552701E0,1.2599965E0,2.7399359E0,1.0032358E0,1.3877033E0,1.2242419E0,3.9087172E0,2.677771E0,2.1271276E0,1.4255735E0],"tree_param":{"num_deleted":"0","num_feature":"9","num_nodes":"45","size_leaf_vector":"0"}},{"base_weights":[-1.9175383E-1,-2.490912E-2,-5.2289903E-1,-3.137962E-1,2.4004856E-1,-7.459468E-1,-3.9698597E-2,1.30412E-1,-4.8893481E-1,-2.2359966E-1,5.287213E-1,-8.8888055E-1,-3.6870018E-1,-6.1064625E-1,2.5135642E-1,-2.0082863E-1,4.5183524E-1,1.6569507E-1,-6.175244E-1,2.72374E-1,-4.7815934E-1,6.9563633E-1,1.2256593E-1,-6.852374E-1,5.6903467E-2,-2.7450395E-1,4.698757E-1,1.6805524E-1,-4.8562318E-1,1.3321868E-1,5.442289E-1,-7.228764E-1,5.6869417E-2,-1.0983124E-1,4.9383202E-1,-6.794094E-1,2.6142402E-2,-1.4250778E-1,5.181179E-1,6.6565365E-1,-2.5844017E-2,-8.577436E-1,-2.9096353E-1,1.9977112E-1,-4.685964E-1],"categories":[],"categories_nodes":[],"categories_segments":[],"categories_sizes":[],"default_left":[true,true,true,true,true,true,true,true,true,true,true,false,true,false,true,true,true,false,true,true,true,false,true,false,false,false,true,false,false,false,false,true,false,false,false,false,false,true,false,false,false,false,false,false,false],"id":13,"left_children":[1,3,5,7,9,11,13,15,17,19,21,-1,23,-1,25,27,29,-1,31,33,35,-1,37,-1,-1,-1,39,-1,-1,-1,-1,41,-1,-1,-1,-1,-1,43,-1,-1,-1,-1,-1,-1,-1],"loss_changes":[2.6841207E0,2.6404092E0,1.727745E0,1.344733E0,2.533598E0,2.707796E-1,1.184758E0,6.7051476E-1,1.1141334E0,1.0932298E0,6.8887424E-1,0E0,6.800868E-1,0E0,6.8271863E-1,4.3607986E-1,1.791519E-2,0E0,7.699256E-1,3.2713193E-1,5.6614447E-1,0E0,5.498395E-1,0E0,0E0,0E0,3.8337624E-1,0E0,0E0,0E0,0E0,2.7147818E-1,0E0,0E0,0E0,0E0,0E0,4.8454028E-1,0E0,0E0,0E0,0E0,0E0,0E0,0E0],"parents":[2147483647,0,0,1,1,2,2,3,3,4,4,5,5,6,6,7,7,8,8,9,9,10,10,12,12,14,14,15,15,16,16,18,18,19,19,20,20,22,22,26,26,31,31,37,37],"right_children":[2,4,6,8,10,12,14,16,18,20,22,-1,24,-1,26,28,30,-1,32,34,36,-1,38,-1,-1,-1,40,-1,-1,-1,-1,42,-1,-1,-1,-1,-1,44,-1,-1,-1,-1,-1,-1,-1],"split_conditions":[2.915E2,5.5E0,4.317489E1,8.35E1,2.2282597E1,8.5E0,6.5E0,2.5E0,5E-1,7.0398605E1,2.475E2,-2.6666418E-1,3.417768E1,-1.8319388E-1,8.19558E1,-6.8641615E-1,-7.5406563E-1,4.9708523E-2,4.4787952E1,-5.5965257E-1,3.3423687E3,2.0869091E-1,4.0321453E1,-2.0557123E-1,1.707104E-2,-8.2351185E-2,3.5E0,5.0416574E-2,-1.4568695E-1,3.9965604E-2,1.6326869E-1,-5.7674265E-1,1.7060826E-2,-3.2949373E-2,1.4814961E-1,-2.0382282E-1,7.8427205E-3,-1.0148592E0,1.5543538E-1,1.9969611E-1,-7.7532055E-3,-2.573231E-1,-8.7289065E-2,5.9931338E-2,-1.4057893E-1],"split_indices":[1,0,2,1,2,0,0,0,8,6,1,0,2,0,5,3,3,0,2,3,7,0,2,0,0,0,8,0,0,0,0,3,0,0,0,0,0,3,0,0,0,0,0,0,0],"split_type":[0,0,0,0,0,0,0,0,0,0,0,0,0,0,0,0,0,0,0,0,0,0,0,0,0,0,0,0,0,0,0,0,0,0,0,0,0,0,0,0,0,0,0,0,0],"sum_hessian":[4.7817257E1,3.2511723E1,1.5305535E1,1.546533E1,1.7046392E1,1.0099701E1,5.205835E0,4.4454947E0,1.1019835E1,6.6273603E0,1.0419032E1,6.3409615E0,3.7587388E0,1.3869948E0,3.81884E0,2.374086E0,2.071409E0,1.7618695E0,9.257966E0,2.2240777E0,4.4032826E0,6.879198E0,3.5398345E0,1.8057209E0,1.953018E0,1.0458447E0,2.7729955E0,1.2129297E0,1.161156E0,1.014567E0,1.056842E0,7.9449377E0,1.3130283E0,1.0008337E0,1.2232438E0,2.8991148E0,1.504168E0,2.5025256E0,1.0373088E0,1.7421527E0,1.0308427E0,5.303098E0,2.6418395E0,1.4099467E0,1.0925789E0],"tree_param":{"num_deleted":"0","num_feature":"9","num_nodes":"45","size_leaf_vector":"0"}},{"base_weights":[-1.6633853E-1,-5.2203204E-2,-6.076538E-1,-5.6548154E-1,6.679861E-2,-7.808216E-1,-1.7423933E-2,-1.8501975E-1,-7.749293E-1,-1.206612E-1,4.5477247E-1,-8.4557134E-1,-2.5505006E-1,-2.503887E-1,2.2916333E-1,-5.981022E-1,2.735791E-1,1.7684968E-1,-3.6056137E-1,-7.161777E-2,5.492747E-1,-5.8615065E-1,3.3764035E-1,-6.0236377E-1,3.1436604E-1,7.450837E-1,2.3676372E-1,-4.185494E-2,5.6555396E-1,-7.1946687E-1,-2.6369387E-1,-2.943603E-2,5.4962695E-1,-3.4428075E-1,6.105297E-1],"categories":[],"categories_nodes":[],"categories_segments":[],"categories_sizes":[],"default_left":[true,true,true,true,true,true,true,true,false,true,true,false,false,false,false,false,false,true,true,false,true,false,true,true,true,false,true,false,false,false,false,false,false,false,false],"id":14,"left_children":[1,3,5,7,9,11,13,15,-1,17,19,-1,-1,-1,-1,-1,-1,21,23,-1,25,-1,27,29,31,-1,33,-1,-1,-1,-1,-1,-1,-1,-1],"loss_changes":[2.191842E0,2.2469459E0,9.039254E-1,4.0748405E-1,2.2553086E0,1.9845486E-2,2.3311655E-1,8.774432E-1,0E0,1.5760956E0,5.400672E-1,0E0,0E0,0E0,0E0,0E0,0E0,1.4406593E0,2.1574438E0,0E0,3.5285664E-1,0E0,8.0219734E-1,1.7599702E-1,3.2660356E-1,0E0,1.2520927E0,0E0,0E0,0E0,0E0,0E0,0E0,0E0,0E0],"parents":[2147483647,0,0,1,1,2,2,3,3,4,4,5,5,6,6,7,7,9,9,10,10,17,17,18,18,20,20,22,22,23,23,24,24,26,26],"right_children":[2,4,6,8,10,12,14,16,-1,18,20,-1,-1,-1,-1,-1,-1,22,24,-1,26,-1,28,30,32,-1,34,-1,-1,-1,-1,-1,-1,-1,-1],"split_conditions":[3.505E2,1.604402E1,9.5E0,1.125E2,7.5E0,4.8026985E1,1.0426419E2,6.5E0,-2.324788E-1,1.625E2,1.897367E1,-2.536714E-1,-7.651502E-2,-7.511662E-2,6.8749E-2,-1.7943066E-1,8.207373E-2,1.5E0,4.449993E1,-2.148533E-2,2.53E2,-1.758452E-1,2.8121532E1,-5.6277686E-1,5.5E0,2.2352512E-1,3.1851772E1,-1.2556483E-2,1.696662E-1,-2.1584007E-1,-7.910816E-2,-8.830809E-3,1.6488808E-1,-1.0328423E-1,1.8315892E-1],"split_indices":[1,2,0,1,0,2,5,0,0,1,2,0,0,0,0,0,0,0,2,0,1,0,2,3,0,0,2,0,0,0,0,0,0,0,0],"split_type":[0,0,0,0,0,0,0,0,0,0,0,0,0,0,0,0,0,0,0,0,0,0,0,0,0,0,0,0,0,0,0,0,0,0,0],"sum_hessian":[4.3144894E1,3.516788E1,7.9770155E0,5.9128246E0,2.9255054E1,5.9178605E0,2.0591547E0,2.7680438E0,3.144781E0,2.0189137E1,9.065918E0,4.7274218E0,1.190439E0,1.0508972E0,1.0082575E0,1.2962515E0,1.4717921E0,9.129748E0,1.1059388E1,1.4167246E0,7.6491933E0,1.1286302E0,8.001119E0,8.221449E0,2.837939E0,3.8516762E0,3.7975168E0,3.308517E0,4.6926017E0,5.2735915E0,2.9478576E0,1.5084387E0,1.3295002E0,1.5174404E0,2.2800765E0],"tree_param":{"num_deleted":"0","num_feature":"9","num_nodes":"35","size_leaf_vector":"0"}},{"base_weights":[-1.4641333E-1,-5.6078726E-1,-3.466197E-2,-2.766188E-2,-8.347639E-1,1.0939383E-1,-4.0342698E-1,-2.9695776E-1,2.6487E-1,-7.444098E-2,4.6986216E-1,-6.3354546E-1,1.5553932E-2,2.4702932E-1,-2.8179473E-1,7.4596244E-1,2.3456256E-1,-7.1294224E-1,-1.1560607E-1,-3.9753976E-1,3.0132118E-1,-3.029167E-1,4.554328E-1,-5.5725557E-1,1.8967764E-1,-2.4072659E-1,5.288731E-1,4.3629164E-1,2.1929232E-2,-7.09227E-3,6.015687E-1,-6.5126365E-1,-2.0563029E-1,-2.6450512E-1,4.0439326E-1,1.4180632E-1,6.323834E-1],"categories":[],"categories_nodes":[],"categories_segments":[],"categories_sizes":[],"default_left":[true,true,true,true,false,true,true,false,false,true,true,true,true,true,true,false,true,false,false,false,true,false,true,true,true,false,true,false,false,false,false,false,false,false,false,false,false],"id":15,"left_children":[1,3,5,7,-1,9,11,-1,-1,13,15,17,19,21,23,-1,25,-1,-1,-1,27,-1,29,31,33,-1,35,-1,-1,-1,-1,-1,-1,-1,-1,-1,-1],"loss_changes":[1.8395548E0,1.2127721E0,1.7803946E0,3.8639686E-1,0E0,1.6445565E0,9.1562986E-1,0E0,0E0,1.1994046E0,3.6686778E-1,1.6793251E-1,6.2817335E-1,9.607097E-1,1.5044765E0,0E0,9.6123177E-1,0E0,0E0,0E0,1.07876986E-1,0E0,3.8313878E-1,9.920025E-2,5.670709E-1,0E0,7.03665E-2,0E0,0E0,0E0,0E0,0E0,0E0,0E0,0E0,0E0,0E0],"parents":[2147483647,0,0,1,1,2,2,3,3,5,5,6,6,9,9,10,10,11,11,12,12,13,13,14,14,16,16,20,20,22,22,23,23,24,24,26,26],"right_children":[2,4,6,8,-1,10,12,-1,-1,14,16,18,20,22,24,-1,26,-1,-1,-1,28,-1,30,32,34,-1,36,-1,-1,-1,-1,-1,-1,-1,-1,-1,-1],"split_conditions":[3.5E0,8.3E1,3.185E2,3.23055E1,-2.5042918E-1,3.4463837E1,4.362925E1,-8.908733E-2,7.9461E-2,1.37E2,1.89E2,5.536282E3,7.5E0,1.3426865E1,8.5E0,2.2378874E-1,5.5E0,-2.1388268E-1,-3.4681823E-2,-1.19261935E-1,2.5E0,-9.0875015E-2,6.24125E1,2.9679691E1,1.8852184E1,-7.221798E-2,2.5E0,1.308875E-1,6.57877E-3,-2.1276812E-3,1.8047062E-1,-1.9537911E-1,-6.168909E-2,-7.935154E-2,1.2131798E-1,4.25419E-2,1.8971503E-1],"split_indices":[0,1,1,2,0,2,2,0,0,1,1,7,0,2,0,0,0,0,0,0,8,0,6,2,2,0,8,0,0,0,0,0,0,0,0,0,0],"split_type":[0,0,0,0,0,0,0,0,0,0,0,0,0,0,0,0,0,0,0,0,0,0,0,0,0,0,0,0,0,0,0,0,0,0,0,0,0],"sum_hessian":[3.914509E1,7.4611144E0,3.1683973E1,2.9064598E0,4.5546546E0,2.3289446E1,8.394528E0,1.5054547E0,1.401005E0,1.5949081E1,7.340364E0,5.087946E0,3.3065827E0,6.178664E0,9.770417E0,2.3788075E0,4.9615564E0,4.085212E0,1.0027341E0,1.1921407E0,2.114442E0,1.5733403E0,4.605324E0,6.0523467E0,3.7180707E0,1.9670255E0,2.994531E0,1.0470506E0,1.0673914E0,1.3341527E0,3.271171E0,4.103193E0,1.9491538E0,1.1190614E0,2.5990095E0,1.1318944E0,1.8626364E0],"tree_param":{"num_deleted":"0","num_feature":"9","num_nodes":"37","size_leaf_vector":"0"}},{"base_weights":[-1.2271608E-1,-4.3585292E-1,1.1748331E-2,1.6104424E-1,-6.089187E-1,2.2938587E-1,-2.4451238E-1,-1.5111314E-1,3.7644765E-1,-3.345252E-1,-8.0328435E-1,-2.0959616E-1,4.7978163E-1,-5.4271644E-1,9.810998E-2,-5.8145934E-1,8.981853E-2,1.7153218E-1,-4.379119E-1,-1.4532453E-3,5.542395E-1,-7.441109E-1,-6.486069E-2,2.4215941E-1,-3.5889673E-1,-1.6059008E-1,4.1719067E-1,-6.307978E-1,4.225302E-2,1.4112407E-1,6.1366975E-1,1.6515899E-1,-2.7879295E-1,-1.7568396E-1,6.147635E-1,1.1857012E-1,-3.5859373E-1],"categories":[],"categories_nodes":[],"categories_segments":[],"categories_sizes":[],"default_left":[true,true,true,true,true,true,true,false,false,true,false,true,true,true,true,false,false,true,true,false,true,false,true,true,false,false,false,false,false,false,false,false,false,true,false,false,false],"id":16,"left_children":[1,3,5,7,9,11,13,-1,-1,15,-1,17,19,21,23,-1,-1,25,27,-1,29,-1,31,33,-1,-1,-1,-1,-1,-1,-1,-1,-1,35,-1,-1,-1],"loss_changes":[1.5473154E0,1.2374189E0,1.5394753E0,2.7675474E-1,1.9844294E-1,1.7381926E0,1.350707E0,0E0,0E0,6.123666E-1,0E0,6.06567E-1,3.516376E-1,6.19879E-1,5.3168344E-1,0E0,0E0,3.122974E-1,4.0646112E-1,0E0,1.2163782E-1,0E0,2.0124666E-1,1.0007532E0,0E0,0E0,0E0,0E0,0E0,0E0,0E0,0E0,0E0,2.2985767E-1,0E0,0E0,0E0],"parents":[2147483647,0,0,1,1,2,2,3,3,4,4,5,5,6,6,9,9,11,11,12,12,13,13,14,14,17,17,18,18,20,20,22,22,23,23,33,33],"right_children":[2,4,6,8,10,12,14,-1,-1,16,-1,18,20,22,24,-1,-1,26,28,-1,30,-1,32,34,-1,-1,-1,-1,-1,-1,-1,-1,-1,36,-1,-1,-1],"split_conditions":[4.5E0,7.25E1,2.485E2,7.5E2,1.77E2,1.9650146E1,4.015992E1,-4.5333944E-2,1.129343E-1,3.518995E1,-2.4098532E-1,7.0398605E1,5.071505E1,9.5E0,4.48E2,-1.744378E-1,2.694556E-2,-6.023617E-1,3.215178E3,-4.359736E-4,2.4711603E1,-2.2323327E-1,3.305E2,7.5E0,-1.07669026E-1,-4.8177026E-2,1.251572E-1,-1.8923935E-1,1.26759065E-2,4.2337224E-2,1.8410093E-1,4.95477E-2,-8.3637886E-2,3.07E2,1.8442905E-1,3.557104E-2,-1.0757812E-1],"split_indices":[0,1,1,4,1,2,2,0,0,2,0,6,6,0,1,0,0,3,7,0,2,0,1,0,0,0,0,0,0,0,0,0,0,1,0,0,0],"split_type":[0,0,0,0,0,0,0,0,0,0,0,0,0,0,0,0,0,0,0,0,0,0,0,0,0,0,0,0,0,0,0,0,0,0,0,0,0],"sum_hessian":[3.5626694E1,1.0029315E1,2.5597378E1,2.269919E0,7.7593956E0,1.3898505E1,1.1698873E1,1.0486726E0,1.2212462E0,4.3456225E0,3.4137733E0,5.1073976E0,8.791107E0,5.942641E0,5.756232E0,2.5130012E0,1.8326213E0,2.0065546E0,3.100843E0,1.3093055E0,7.4818015E0,3.7886925E0,2.1539485E0,4.73414E0,1.0220919E0,1.0003718E0,1.0061829E0,1.9883835E0,1.1124595E0,1.3653705E0,6.116431E0,1.1478097E0,1.0061387E0,2.4807215E0,2.2534184E0,1.085765E0,1.3949565E0],"tree_param":{"num_deleted":"0","num_feature":"9","num_nodes":"37","size_leaf_vector":"0"}},{"base_weights":[-1.10723965E-1,-1.9766183E-1,2.7675298E-1,-8.339576E-3,-4.589397E-1,6.7600734E-3,4.2275155E-1,-3.950401E-1,1.6971046E-1,-6.814165E-1,-1.7992713E-1,3.6077994E-1,-3.58429E-1,5.5190504E-1,3.481305E-2,-5.2954715E-1,7.8451395E-2,-1.123899E-1,4.1146854E-1,-1.9284208E-1,-7.4525577E-1,1.9523975E-2,-5.8507353E-1,-6.458154E-1,-9.251147E-2,2.688824E-1,-2.8610644E-1,1.6885707E-1,5.95418E-1,-3.9104658E-1,3.4685814E-1,-4.3675074E-1,-2.5428375E-2,4.9573743E-1,-2.2246462E-1,1.7127207E-1,6.944289E-1,8.885074E-2,4.9858677E-1],"categories":[],"categories_nodes":[],"categories_segments":[],"categories_sizes":[],"default_left":[true,true,true,true,true,true,true,true,true,true,true,false,false,false,false,true,false,true,true,false,false,true,false,false,false,false,true,true,true,false,true,false,false,false,false,false,false,false,false],"id":17,"left_children":[1,3,5,7,9,11,13,15,17,19,21,-1,-1,-1,-1,23,-1,25,27,-1,-1,29,-1,-1,-1,-1,31,33,35,-1,37,-1,-1,-1,-1,-1,-1,-1,-1],"loss_changes":[1.1916001E0,1.3885379E0,2.5735676E-1,1.2609379E0,6.1036706E-1,5.602291E-1,1.9464046E-1,4.0885288E-1,9.0370286E-1,5.0001144E-2,5.445244E-1,0E0,0E0,0E0,0E0,1.750356E-1,0E0,5.1325345E-1,2.111876E-1,0E0,0E0,8.59828E-1,0E0,0E0,0E0,0E0,1.8564174E-1,6.741421E-1,3.1277657E-2,0E0,9.3816906E-2,0E0,0E0,0E0,0E0,0E0,0E0,0E0,0E0],"parents":[2147483647,0,0,1,1,2,2,3,3,4,4,5,5,6,6,7,7,8,8,9,9,10,10,15,15,17,17,18,18,21,21,26,26,27,27,28,28,30,30],"right_children":[2,4,6,8,10,12,14,16,18,20,22,-1,-1,-1,-1,24,-1,26,28,-1,-1,30,-1,-1,-1,-1,32,34,36,-1,38,-1,-1,-1,-1,-1,-1,-1,-1],"split_conditions":[9.5E0,2.145E2,2.548954E1,2.0308624E1,3.9339546E1,1.735E2,4.045E2,-4.5193723E-1,4.5E0,2.475E2,3.86E2,1.0823399E-1,-1.0752871E-1,1.6557151E-1,1.0443916E-2,1.7722944E1,2.353542E-2,7.25E1,3.1004314E1,-5.7852626E-2,-2.2357674E-1,6.5E0,-1.7552206E-1,-1.9374461E-1,-2.775344E-2,8.0664724E-2,8.5263985E1,1.62E2,9.24687E2,-1.1731398E-1,4.656334E1,-1.3102522E-1,-7.628513E-3,1.4872123E-1,-6.673939E-2,5.138162E-2,2.0832868E-1,2.6655221E-2,1.4957604E-1],"split_indices":[0,1,2,2,2,1,1,3,0,1,1,0,0,0,0,2,0,1,2,0,0,0,0,0,0,0,6,1,7,0,2,0,0,0,0,0,0,0,0],"split_type":[0,0,0,0,0,0,0,0,0,0,0,0,0,0,0,0,0,0,0,0,0,0,0,0,0,0,0,0,0,0,0,0,0,0,0,0,0,0,0],"sum_hessian":[3.274941E1,2.714809E1,5.6013184E0,1.6340015E1,1.0808075E1,2.3330843E0,3.2682343E0,4.7673264E0,1.1572688E1,5.2108483E0,5.5972266E0,1.190789E0,1.1422954E0,2.1348376E0,1.1333967E0,3.6204572E0,1.146869E0,5.5876913E0,5.9849973E0,1.066842E0,4.1440063E0,4.3885703E0,1.2086564E0,2.4823415E0,1.1381156E0,1.5775245E0,4.0101666E0,3.408056E0,2.5769415E0,1.8604254E0,2.528145E0,2.1134026E0,1.8967639E0,1.7115386E0,1.6965173E0,1.0043418E0,1.5725996E0,1.5233501E0,1.0047951E0],"tree_param":{"num_deleted":"0","num_feature":"9","num_nodes":"39","size_leaf_vector":"0"}},{"base_weights":[-9.04448E-2,-2.2648555E-1,1.3444015E-1,-5.6646038E-2,-5.2775055E-1,2.5257424E-1,-3.061066E-1,-2.4500065E-1,2.7263594E-1,-6.824625E-1,-6.2830676E-3,3.319607E-2,5.7973665E-1,-5.34986E-1,6.2626936E-2,-3.640875E-1,9.239525E-2,-7.022854E-2,4.5478305E-1,3.5773912E-1,-3.745948E-1,6.1043564E-2,-4.4908577E-1,-1.4581496E-1,3.0678895E-1,6.2118936E-1,8.274271E-2,-9.396788E-2,5.111328E-1,-1.7395373E-2,-5.509503E-1,-2.6535788E-3,-6.035685E-1,6.0828775E-1,1.3228953E-1],"categories":[],"categories_nodes":[],"categories_segments":[],"categories_sizes":[],"default_left":[true,true,true,true,true,true,true,true,true,false,false,true,false,false,false,true,true,false,true,true,true,false,true,false,false,false,false,false,true,false,false,false,false,false,false],"id":18,"left_children":[1,3,5,7,9,11,13,15,17,-1,-1,19,-1,-1,-1,21,23,-1,25,27,29,-1,31,-1,-1,-1,-1,-1,33,-1,-1,-1,-1,-1,-1],"loss_changes":[9.915843E-1,9.907429E-1,7.2624624E-1,9.2742735E-1,5.661837E-1,7.2577447E-1,2.941756E-1,4.0946817E-1,3.7683025E-1,0E0,0E0,1.0967506E0,0E0,0E0,0E0,2.8455186E-1,2.1009092E-1,0E0,1.801632E-1,3.641402E-1,2.2426653E-1,0E0,4.1563964E-1,0E0,0E0,0E0,0E0,0E0,5.0596714E-2,0E0,0E0,0E0,0E0,0E0,0E0],"parents":[2147483647,0,0,1,1,2,2,3,3,4,4,5,5,6,6,7,7,8,8,11,11,15,15,16,16,18,18,19,19,20,20,22,22,28,28],"right_children":[2,4,6,8,10,12,14,16,18,-1,-1,20,-1,-1,-1,22,24,-1,26,28,30,-1,32,-1,-1,-1,-1,-1,34,-1,-1,-1,-1,-1,-1],"split_conditions":[7.5E0,2.145E2,4.03E2,3.4646652E1,4.652867E1,3.1703135E1,4.3509995E1,4.5E0,3.5E0,-2.0473877E-1,-1.8849204E-3,1.98E2,1.73921E-1,-1.6049582E-1,1.878808E-2,5E-1,-7.061334E-1,-2.1068562E-2,1.89E2,1.3380334E1,-1.0199729E0,1.831307E-2,6.746768E1,-4.374449E-2,9.203669E-2,1.8635681E-1,2.4822814E-2,-2.8190365E-2,1.1986749E2,-5.218612E-3,-1.652851E-1,-7.9607364E-4,-1.8107055E-1,1.8248633E-1,3.968686E-2],"split_indices":[0,1,1,2,2,2,2,8,0,0,0,1,0,0,0,8,3,0,1,2,3,0,6,0,0,0,0,0,5,0,0,0,0,0,0],"split_type":[0,0,0,0,0,0,0,0,0,0,0,0,0,0,0,0,0,0,0,0,0,0,0,0,0,0,0,0,0,0,0,0,0,0,0],"sum_hessian":[3.0416313E1,1.8947308E1,1.1469005E1,1.2876276E1,6.071032E0,9.380321E0,2.0886838E0,8.35375E0,4.522526E0,4.443866E0,1.6271665E0,6.2744603E0,3.1058607E0,1.0105458E0,1.0781379E0,6.115958E0,2.237792E0,1.7822152E0,2.7403104E0,3.562199E0,2.712261E0,1.0660055E0,5.049953E0,1.2115389E0,1.0262531E0,1.4307024E0,1.3096079E0,1.0012294E0,2.5609698E0,1.2596135E0,1.4526476E0,1.5597326E0,3.4902203E0,1.5562278E0,1.004742E0],"tree_param":{"num_deleted":"0","num_feature":"9","num_nodes":"35","size_leaf_vector":"0"}},{"base_weights":[-7.207583E-2,9.4947275E-3,-4.3985608E-1,-2.2674224E-1,1.9256167E-1,-6.4366376E-1,3.9073974E-2,-4.7045833E-1,1.8684896E-2,-2.7782941E-2,4.824465E-1,-6.493161E-1,2.9858919E-2,2.551036E-1,-4.3011E-1,2.111997E-1,-4.3822128E-1,6.113875E-1,1.5587245E-1,-1.3926621E-1,4.670206E-1,-2.8835118E-1,3.7577784E-1,-3.2080356E-2,-6.368841E-1,-8.569011E-2,3.095914E-1,6.0261416E-1,7.3893785E-2,1.09825805E-1,6.5305996E-1],"categories":[],"categories_nodes":[],"categories_segments":[],"categories_sizes":[],"default_left":[true,true,true,true,true,false,false,true,true,true,true,false,false,true,false,true,true,false,true,false,true,false,true,false,false,false,false,false,false,false,false],"id":19,"left_children":[1,3,5,7,9,-1,-1,11,13,15,17,-1,-1,19,-1,21,23,-1,25,-1,27,-1,29,-1,-1,-1,-1,-1,-1,-1,-1],"loss_changes":[8.8637507E-1,1.1268861E0,5.4826975E-1,6.9036615E-1,9.493236E-1,0E0,0E0,5.3442574E-1,8.141734E-1,1.001853E0,1.7344725E-1,0E0,0E0,4.8092258E-1,0E0,6.4552283E-1,2.8105783E-1,0E0,1.4345136E-1,0E0,1.4025837E-1,0E0,3.227132E-1,0E0,0E0,0E0,0E0,0E0,0E0,0E0,0E0],"parents":[2147483647,0,0,1,1,2,2,3,3,4,4,7,7,8,8,9,9,10,10,13,13,15,15,16,16,18,18,20,20,22,22],"right_children":[2,4,6,8,10,-1,-1,12,14,16,18,-1,-1,20,-1,22,24,-1,26,-1,28,-1,30,-1,-1,-1,-1,-1,-1,-1,-1],"split_conditions":[3.505E2,5.5E0,9.5E0,-7.819493E-1,3.0078743E1,-1.9309914E-1,1.1722193E-2,4.368393E1,-4.0305504E-1,1.98E2,2.915E2,-1.9479483E-1,8.957676E-3,2.8988968E1,-1.2903301E-1,1.1888241E1,-1.0199659E0,1.8341625E-1,7.5E0,-4.1779865E-2,1.365E2,-8.650535E-2,3.4522395E3,-9.624107E-3,-1.9106524E-1,-2.5707034E-2,9.2877425E-2,1.8078426E-1,2.2168137E-2,3.294774E-2,1.95918E-1],"split_indices":[1,0,0,3,2,0,0,2,3,1,1,0,0,2,0,2,3,0,0,0,1,0,7,0,0,0,0,0,0,0,0],"split_type":[0,0,0,0,0,0,0,0,0,0,0,0,0,0,0,0,0,0,0,0,0,0,0,0,0,0,0,0,0,0,0],"sum_hessian":[2.8406584E1,2.4047283E1,4.359301E0,1.0394816E1,1.3652467E1,2.8166988E0,1.5426021E0,4.7555375E0,5.6392794E0,8.270288E0,5.382178E0,3.2838056E0,1.471732E0,3.9762363E0,1.663043E0,5.533671E0,2.7366176E0,3.2334085E0,2.1487694E0,1.5096534E0,2.4665828E0,1.184933E0,4.348738E0,1.2804275E0,1.4561901E0,1.007726E0,1.1410435E0,1.4377968E0,1.028786E0,2.9323177E0,1.4164205E0],"tree_param":{"num_deleted":"0","num_feature":"9","num_nodes":"31","size_leaf_vector":"0"}},{"base_weights":[-6.0396425E-2,-4.6982875E-1,1.2554724E-2,-1.0463819E-1,-6.024809E-1,3.8860124E-1,-1.10313445E-1,-1.4844409E-1,5.411173E-1,-3.3115E-1,1.2849791E-1,-4.8901388E-1,-3.2869153E-2,2.8053868E-1,-1.8728882E-1,-1.4639594E-1,-5.5796635E-1,1.9614331E-1,-4.1350323E-1,1.4220232E-2,4.303313E-1,-4.3555546E-1,1.9182602E-1,-6.5105516E-1,-1.7611362E-1,-1.2220242E-1,4.0715146E-1,3.0101115E-1,-3.29166E-1,1.5750808E-1,5.478515E-1],"categories":[],"categories_nodes":[],"categories_segments":[],"categories_sizes":[],"default_left":[true,true,true,false,false,true,true,false,false,true,true,true,true,true,true,false,true,true,false,true,true,false,false,false,false,false,false,false,false,false,false],"id":20,"left_children":[1,3,5,-1,-1,7,9,-1,-1,11,13,15,17,19,21,-1,23,25,-1,27,29,-1,-1,-1,-1,-1,-1,-1,-1,-1,-1],"loss_changes":[8.290581E-1,1.4012146E-1,1.1686573E0,0E0,0E0,5.899275E-1,1.0521692E0,0E0,0E0,4.6543813E-1,5.287333E-1,7.4586034E-2,4.8305038E-1,2.7692252E-1,4.4337508E-1,0E0,6.8434596E-2,2.8870344E-1,0E0,4.5245743E-1,5.820781E-2,0E0,0E0,0E0,0E0,0E0,0E0,0E0,0E0,0E0,0E0],"parents":[2147483647,0,0,1,1,2,2,5,5,6,6,9,9,10,10,11,11,12,12,13,13,14,14,16,16,17,17,19,19,20,20],"right_children":[2,4,6,-1,-1,8,10,-1,-1,12,14,16,18,20,22,-1,24,26,-1,28,30,-1,-1,-1,-1,-1,-1,-1,-1,-1,-1],"split_conditions":[2.5E0,7.35E1,1.255E2,-3.1391457E-2,-1.8074428E-1,1.3691549E1,3.453247E1,-4.4533227E-2,1.623352E-1,8.5E0,3.505E2,9.925146E2,2.77E2,5.5E0,9.5E0,-4.391878E-2,3.9564058E3,2.2282597E1,-1.24050975E-1,2.025E2,3.5E0,-1.3066664E-1,5.7547808E-2,-1.9531655E-1,-5.283409E-2,-3.6660727E-2,1.22145444E-1,9.030335E-2,-9.87498E-2,4.7252424E-2,1.6435546E-1],"split_indices":[0,1,1,0,0,2,2,0,0,0,1,7,1,0,0,0,7,2,0,1,8,0,0,0,0,0,0,0,0,0,0],"split_type":[0,0,0,0,0,0,0,0,0,0,0,0,0,0,0,0,0,0,0,0,0,0,0,0,0,0,0,0,0,0,0],"sum_hessian":[2.6559399E1,3.1938512E0,2.336555E1,1.3276511E0,1.8662E0,5.2216325E0,1.8143915E1,1.1608175E0,4.060815E0,9.225833E0,8.918083E0,5.614788E0,3.6110444E0,6.0951104E0,2.8229728E0,1.4639101E0,4.150878E0,2.5571823E0,1.0538622E0,2.588288E0,3.5068226E0,1.6159071E0,1.2070656E0,2.770492E0,1.3803861E0,1.1870925E0,1.3700898E0,1.4776124E0,1.1106757E0,1.7603749E0,1.7464477E0],"tree_param":{"num_deleted":"0","num_feature":"9","num_nodes":"31","size_leaf_vector":"0"}},{"base_weights":[-5.7221517E-2,-4.0577456E-1,1.332575E-2,-6.3203834E-2,-6.2170416E-1,1.20951384E-1,-2.4226436E-1,-8.392873E-2,3.269575E-1,-4.3904632E-1,1.801531E-1,2.1815184E-1,-2.471296E-1,4.656251E-2,4.3835407E-1,-5.9233725E-1,-1.548615E-1,-8.6077735E-2,4.7079968E-1,1.7118792E-1,-4.0327346E-1,3.6189392E-1,-2.536452E-1,5.2431595E-1,1.4605784E-1,-2.7372456E-1,4.611109E-2,-5.5869937E-1,-3.9589852E-2],"categories":[],"categories_nodes":[],"categories_segments":[],"categories_sizes":[],"default_left":[true,true,true,false,false,true,true,true,true,true,false,true,true,true,true,false,true,false,false,false,true,false,false,false,false,false,false,false,false],"id":21,"left_children":[1,3,5,-1,-1,7,9,11,13,15,-1,17,19,21,23,-1,25,-1,-1,-1,27,-1,-1,-1,-1,-1,-1,-1,-1],"loss_changes":[6.4583856E-1,2.8735882E-1,6.517818E-1,0E0,0E0,7.276784E-1,6.6414595E-1,5.032219E-1,2.4436527E-1,1.3011205E-1,0E0,3.2706153E-1,4.8615122E-1,4.2586964E-1,7.2867036E-2,0E0,8.759196E-2,0E0,0E0,0E0,2.575817E-1,0E0,0E0,0E0,0E0,0E0,0E0,0E0,0E0],"parents":[2147483647,0,0,1,1,2,2,5,5,6,6,7,7,8,8,9,9,11,11,12,12,13,13,14,14,16,16,20,20],"right_children":[2,4,6,-1,-1,8,10,12,14,16,-1,18,20,22,24,-1,26,-1,-1,-1,28,-1,-1,-1,-1,-1,-1,-1,-1],"split_conditions":[1.604402E1,1.125E2,2.915E2,-1.896115E-2,-1.8651125E-1,5.5E0,4.6530968E1,8.35E1,2.4711603E1,8.5E0,5.4045934E-2,2.5E0,1.5E0,1.525E2,2.485E2,-1.7770118E-1,3.880636E1,-2.5823321E-2,1.4123991E-1,5.135638E-2,-5.941503E-1,1.08568184E-1,-7.609357E-2,1.572948E-1,4.3817356E-2,-8.211737E-2,1.3833327E-2,-1.6760981E-1,-1.1876957E-2],"split_indices":[2,1,1,0,0,0,2,1,2,0,0,0,8,1,1,0,2,0,0,0,3,0,0,0,0,0,0,0,0],"split_type":[0,0,0,0,0,0,0,0,0,0,0,0,0,0,0,0,0,0,0,0,0,0,0,0,0,0,0,0,0],"sum_hessian":[2.5044947E1,3.415949E0,2.1628998E1,1.8204787E0,1.5954703E0,1.5590725E1,6.0382733E0,8.113832E0,7.4768925E0,4.092451E0,1.9458225E0,2.7278836E0,5.3859487E0,2.5290473E0,4.9478455E0,1.9540741E0,2.1383767E0,1.536719E0,1.1911646E0,1.4377623E0,3.9481866E0,1.1332396E0,1.3958076E0,3.210022E0,1.7378235E0,1.1162081E0,1.0221688E0,2.3903916E0,1.557795E0],"tree_param":{"num_deleted":"0","num_feature":"9","num_nodes":"29","size_leaf_vector":"0"}},{"base_weights":[-5.0720766E-2,-3.6268896E-1,2.6539356E-2,-1.94948E-2,-6.4036626E-1,2.4923104E-1,-1.20844506E-1,-2.4265964E-1,2.1146597E-1,-2.2827125E-1,3.483065E-1,-4.5673254E-1,6.1143864E-2,4.3474165E-1,-6.516564E-2,-2.878343E-2,-6.574425E-1,-8.767172E-2,3.0724567E-1,7.298289E-2,5.055537E-1,-2.4198598E-1,3.6181736E-1,4.6584117E-1,-9.760025E-3,2.0220965E-1,6.4368516E-1,-4.5450372E-1,-4.8777245E-2],"categories":[],"categories_nodes":[],"categories_segments":[],"categories_sizes":[],"default_left":[true,true,true,true,false,true,true,false,false,false,true,true,true,true,false,false,false,true,true,false,true,true,false,false,false,false,false,false,false],"id":22,"left_children":[1,3,5,7,-1,9,11,-1,-1,-1,13,15,17,19,-1,-1,-1,21,23,-1,25,27,-1,-1,-1,-1,-1,-1,-1],"loss_changes":[6.072271E-1,4.6301872E-1,7.12939E-1,2.1949545E-1,0E0,4.869275E-1,8.3434576E-1,0E0,0E0,0E0,2.9737014E-1,3.8941777E-1,3.7260434E-1,1.2594354E-1,0E0,0E0,0E0,5.494897E-1,1.9451931E-1,0E0,8.552492E-2,2.0599923E-1,0E0,0E0,0E0,0E0,0E0,0E0,0E0],"parents":[2147483647,0,0,1,1,2,2,3,3,5,5,6,6,10,10,11,11,12,12,13,13,17,17,18,18,20,20,21,21],"right_children":[2,4,6,8,-1,10,12,-1,-1,-1,14,16,18,20,-1,-1,-1,22,24,-1,26,28,-1,-1,-1,-1,-1,-1,-1],"split_conditions":[3.5E0,8.3E1,1.795E2,3.23055E1,-1.9210988E-1,1.1888241E1,3.0078743E1,-7.2797894E-2,6.3439794E-2,-6.848138E-2,1.3619937E2,-1.021111E0,-5.6547856E-1,6.2840942E1,-1.9549692E-2,-8.635029E-3,-1.9723277E-1,1.1057251E2,-3.5788077E-1,2.1894868E-2,2.3638157E1,6.5E0,1.08545214E-1,1.3975236E-1,-2.9280076E-3,6.06629E-2,1.9310556E-1,-1.3635112E-1,-1.4633174E-2],"split_indices":[0,1,1,2,0,2,2,0,0,0,5,3,3,5,0,0,0,6,3,0,2,0,0,0,0,0,0,0,0],"split_type":[0,0,0,0,0,0,0,0,0,0,0,0,0,0,0,0,0,0,0,0,0,0,0,0,0,0,0,0,0],"sum_hessian":[2.3793964E1,3.9896781E0,1.9804287E1,2.2629726E0,1.7267057E0,7.611919E0,1.2192368E1,1.1251491E0,1.1378235E0,1.0839102E0,6.5280085E0,3.7540329E0,8.438335E0,5.3567533E0,1.1712551E0,1.56359E0,2.1904428E0,5.659714E0,2.7786207E0,1.2093226E0,4.147431E0,4.556919E0,1.1027954E0,1.5391113E0,1.2395093E0,2.06859E0,2.078841E0,1.5260073E0,3.0309117E0],"tree_param":{"num_deleted":"0","num_feature":"9","num_nodes":"29","size_leaf_vector":"0"}},{"base_weights":[-4.4145465E-2,-1.4944234E-1,2.0668447E-1,-2.8141525E-1,1.2728E-1,3.705867E-1,-1.7455421E-1,-3.003025E-2,-4.985157E-1,3.3863932E-1,-2.0113397E-1,1.4138482E-2,5.552682E-1,-3.604939E-1,1.2519813E-1,-6.057356E-1,-2.1327871E-1,3.9579988E-2,5.0744843E-1,-3.023505E-1,3.7091426E-3,-1.9678983E-1,3.7598553E-1,5.682303E-2,-3.7208652E-1],"categories":[],"categories_nodes":[],"categories_segments":[],"categories_sizes":[],"default_left":[true,true,true,true,true,true,false,true,true,true,true,false,false,false,true,false,true,false,false,false,false,false,false,false,false],"id":23,"left_children":[1,3,5,7,9,11,-1,13,15,17,19,-1,-1,-1,21,-1,23,-1,-1,-1,-1,-1,-1,-1,-1],"loss_changes":[6.5294844E-1,6.6283095E-1,5.260503E-1,6.3646793E-1,5.007435E-1,3.5314184E-1,0E0,3.8346666E-1,6.473255E-2,1.9016957E-1,6.473E-2,0E0,0E0,0E0,4.9630034E-1,0E0,1.6165525E-1,0E0,0E0,0E0,0E0,0E0,0E0,0E0,0E0],"parents":[2147483647,0,0,1,1,2,2,3,3,4,4,5,5,7,7,8,8,9,9,10,10,14,14,16,16],"right_children":[2,4,6,8,10,12,-1,14,16,18,20,-1,-1,-1,22,-1,24,-1,-1,-1,-1,-1,-1,-1,-1],"split_conditions":[8.5E0,4.1003056E1,3.55E2,1.415E2,2.915E2,1.8587887E3,-5.2366268E-2,2.5E0,-6.542642E-1,4.5E0,4.7057743E1,4.2415448E-3,1.6658047E-1,-1.0814817E-1,2.0044775E1,-1.8172069E-1,-4.4868636E-1,1.1873997E-2,1.5223454E-1,-9.070515E-2,1.1127428E-3,-5.903695E-2,1.12795666E-1,1.704691E-2,-1.1162596E-1],"split_indices":[0,2,1,1,1,7,0,0,3,0,2,0,0,0,2,0,3,0,0,0,0,0,0,0,0],"split_type":[0,0,0,0,0,0,0,0,0,0,0,0,0,0,0,0,0,0,0,0,0,0,0,0,0],"sum_hessian":[2.2552559E1,1.6169085E1,6.3834743E0,1.0936398E1,5.232686E0,4.483757E0,1.8997175E0,5.5955367E0,5.340861E0,3.1647763E0,2.0679097E0,1.8976725E0,2.5860846E0,1.3657227E0,4.229814E0,3.0650818E0,2.275779E0,1.5872672E0,1.5775092E0,1.0654448E0,1.0024649E0,1.946281E0,2.2835333E0,1.0804057E0,1.1953734E0],"tree_param":{"num_deleted":"0","num_feature":"9","num_nodes":"25","size_leaf_vector":"0"}},{"base_weights":[-3.877476E-2,-1.9083801E-1,1.0748471E-1,-5.350193E-2,-5.3015697E-1,2.1380122E-1,-2.0882821E-1,-2.590798E-1,2.4289517E-1,3.788847E-2,4.174765E-1,-3.8337174E-1,1.0813843E-1,-4.382505E-1,-5.0239246E-2,-1.4697586E-2,3.6901844E-1,2.7035913E-1,-3.3542567E-1,-2.1825197E-1,1.8850425E-1,-5.492995E-2,3.8320428E-1,4.7884396E-1,8.302036E-2],"categories":[],"categories_nodes":[],"categories_segments":[],"categories_sizes":[],"default_left":[true,true,true,true,false,true,true,true,true,true,false,false,false,false,true,false,false,true,false,false,false,false,true,false,false],"id":24,"left_children":[1,3,5,7,-1,9,11,13,15,17,-1,-1,-1,-1,19,-1,-1,21,-1,-1,-1,-1,23,-1,-1],"loss_changes":[5.2293247E-1,5.0454414E-1,4.5339543E-1,6.267384E-1,0E0,3.278208E-1,2.3860428E-1,2.0052361E-1,1.4530495E-1,6.327485E-1,0E0,0E0,0E0,0E0,1.9660717E-1,0E0,0E0,1.8266582E-1,0E0,0E0,0E0,0E0,5.7692647E-2,0E0,0E0],"parents":[2147483647,0,0,1,1,2,2,3,3,5,5,6,6,7,7,8,8,9,9,14,14,17,17,22,22],"right_children":[2,4,6,8,-1,10,12,14,16,18,-1,-1,-1,-1,20,-1,-1,22,-1,-1,-1,-1,24,-1,-1],"split_conditions":[6.5E0,2.115E2,3.55E2,3.4646652E1,-1.590471E-1,3.0078743E1,4.6526978E1,-7.1803427E-1,3.5E0,1.98E2,1.2524296E-1,-1.1501153E-1,3.244153E-2,-1.3147517E-1,7.5E2,-4.409276E-3,1.1070553E-1,1.38342085E1,-1.00627705E-1,-6.54756E-2,5.6551278E-2,-1.6478986E-2,3.5E0,1.436532E-1,2.4906108E-2],"split_indices":[0,1,1,2,0,2,2,3,0,1,0,0,0,0,4,0,0,2,0,0,0,0,8,0,0],"split_type":[0,0,0,0,0,0,0,0,0,0,0,0,0,0,0,0,0,0,0,0,0,0,0,0,0],"sum_hessian":[2.1590141E1,1.0435625E1,1.1154516E1,8.252984E0,2.1826413E0,8.591047E0,2.5634692E0,4.9474134E0,3.3055706E0,5.246076E0,3.344971E0,1.5180339E0,1.0454353E0,2.071617E0,2.8757968E0,1.3768907E0,1.92868E0,3.402841E0,1.843235E0,1.7383121E0,1.1374846E0,1.0086163E0,2.3942246E0,1.3643649E0,1.0298598E0],"tree_param":{"num_deleted":"0","num_feature":"9","num_nodes":"25","size_leaf_vector":"0"}},{"base_weights":[-3.361003E-2,-1.0896958E-1,2.4889037E-1,1.1652782E-2,-3.513754E-1,4.972414E-2,3.2994354E-1,-2.9535764E-1,1.4155181E-1,-5.615214E-1,-4.6227098E-2,-3.991172E-1,1.1652923E-2,-1.0885954E-1,3.4208414E-1,2.0924246E-1,-3.1789848E-1,1.794556E-1,-3.423776E-1,4.8193368E-1,1.774981E-1,-4.3096387E-1,-8.787875E-2,-7.6882586E-2,3.3803222E-1],"categories":[],"categories_nodes":[],"categories_segments":[],"categories_sizes":[],"default_left":[true,true,true,true,true,false,false,true,true,false,true,false,false,true,true,false,false,false,true,false,true,false,false,false,false],"id":25,"left_children":[1,3,5,7,9,-1,-1,11,13,-1,15,-1,-1,17,19,-1,-1,-1,21,-1,23,-1,-1,-1,-1],"loss_changes":[4.8740005E-1,5.234761E-1,6.200728E-2,5.534264E-1,3.545742E-1,0E0,0E0,1.3647327E-1,5.2386105E-1,0E0,3.1010848E-1,0E0,0E0,4.026525E-1,4.387647E-2,0E0,0E0,0E0,3.3008724E-2,0E0,1.9611263E-1,0E0,0E0,0E0,0E0],"parents":[2147483647,0,0,1,1,2,2,3,3,4,4,7,7,8,8,10,10,13,13,14,14,18,18,20,20],"right_children":[2,4,6,8,10,-1,-1,12,14,-1,16,-1,-1,18,20,-1,-1,-1,22,-1,24,-1,-1,-1,-1],"split_conditions":[9.5E0,2.475E2,2.548954E1,2.0308624E1,4.247425E1,1.4917242E-2,9.8983064E-2,-6.419779E-1,4.5E0,-1.6845644E-1,3.505E2,-1.1973517E-1,3.4958771E-3,8.3E1,1.625E2,6.277274E-2,-9.536955E-2,5.383668E-2,8.5431854E1,1.4458011E-1,3.1106804E1,-1.2928917E-1,-2.6363626E-2,-2.3064777E-2,1.01409666E-1],"split_indices":[0,1,2,2,2,0,0,3,0,0,1,0,0,1,1,0,0,0,6,0,2,0,0,0,0],"split_type":[0,0,0,0,0,0,0,0,0,0,0,0,0,0,0,0,0,0,0,0,0,0,0,0,0],"sum_hessian":[2.0620384E1,1.6762976E1,3.8574085E0,1.1828822E1,4.934153E0,1.5824478E0,2.2749608E0,3.1381648E0,8.690658E0,2.4243917E0,2.509761E0,2.1212428E0,1.0169221E0,4.067982E0,4.622676E0,1.411879E0,1.0978822E0,1.9240052E0,2.143977E0,1.4567294E0,3.1659462E0,1.0760436E0,1.0679332E0,1.4265431E0,1.7394031E0],"tree_param":{"num_deleted":"0","num_feature":"9","num_nodes":"25","size_leaf_vector":"0"}},{"base_weights":[-2.9452031E-2,-1.3895483E-1,1.3877834E-1,-2.0619119E-2,-4.000648E-1,2.3594022E-1,-1.9977437E-1,-2.5165403E-1,1.308544E-1,-5.294172E-1,-2.032862E-2,-6.79813E-2,3.7074828E-1,3.9318416E-2,-4.20261E-1,2.7943403E-1,-2.2785452E-1,2.715112E-1,-3.6987466E-1,4.4197217E-1,1.1298051E-1,-1.2914947E-1,4.110322E-1,1.3080828E-1,4.718588E-1],"categories":[],"categories_nodes":[],"categories_segments":[],"categories_sizes":[],"default_left":[true,true,true,true,true,true,false,true,true,false,false,true,true,false,false,true,false,false,false,false,false,false,true,false,false],"id":26,"left_children":[1,3,5,7,9,11,-1,13,15,-1,-1,17,19,-1,-1,21,-1,-1,-1,-1,-1,-1,23,-1,-1],"loss_changes":[4.0194008E-1,3.959625E-1,3.329932E-1,3.848615E-1,1.8696594E-1,3.206389E-1,0E0,2.2868124E-1,4.224637E-1,0E0,0E0,4.14119E-1,4.4617653E-2,0E0,0E0,3.3318877E-1,0E0,0E0,0E0,0E0,0E0,0E0,9.5149875E-3,0E0,0E0],"parents":[2147483647,0,0,1,1,2,2,3,3,4,4,5,5,7,7,8,8,11,11,12,12,15,15,22,22],"right_children":[2,4,6,8,10,12,-1,14,16,-1,-1,18,20,-1,-1,22,-1,-1,-1,-1,-1,-1,24,-1,-1],"split_conditions":[7.5E0,2.265E2,4.03E2,2.7136307E1,4.6570854E1,1.897367E1,-5.9932314E-2,9.15E1,-4.4343194E-1,-1.5882517E-1,-6.0985866E-3,1.355E2,3.21E2,1.1795525E-2,-1.2607831E-1,5.9183215E2,-6.835636E-2,8.145336E-2,-1.109624E-1,1.3259165E-1,3.3894155E-2,-3.874484E-2,3.4646652E1,3.9242484E-2,1.4155765E-1],"split_indices":[0,1,1,2,2,2,0,1,3,0,0,1,1,0,0,7,0,0,0,0,0,0,2,0,0],"split_type":[0,0,0,0,0,0,0,0,0,0,0,0,0,0,0,0,0,0,0,0,0,0,0,0,0],"sum_hessian":[1.9772038E1,1.2081858E1,7.6901793E0,9.056428E0,3.0254292E0,6.210817E0,1.4793624E0,3.3244457E0,5.7319827E0,1.9626915E0,1.0627377E0,2.0607111E0,4.1501055E0,1.5009663E0,1.8234794E0,4.2094154E0,1.5225674E0,1.0173239E0,1.0433873E0,2.6917374E0,1.4583683E0,1.0300238E0,3.1793914E0,1.1289428E0,2.0504487E0],"tree_param":{"num_deleted":"0","num_feature":"9","num_nodes":"25","size_leaf_vector":"0"}},{"base_weights":[-2.8282257E-2,-2.4139377E-1,5.9357177E-2,1.372719E-1,-4.0051442E-1,1.6816877E-1,-1.5450956E-1,-5.3495073E-1,-2.035199E-1,-1.17599495E-1,2.6743123E-1,-4.1497782E-1,1.5510577E-1,5.1414154E-2,-3.771772E-1,2.3039626E-1,-3.858066E-1,3.9663044E-1,7.592689E-2,-4.8399966E-2,2.7728525E-1,-1.02604546E-1,3.433851E-1,2.0271173E-1,-3.18817E-1],"categories":[],"categories_nodes":[],"categories_segments":[],"categories_sizes":[],"default_left":[true,true,true,false,true,true,true,false,true,true,true,false,true,false,false,false,false,false,true,false,false,true,false,false,false],"id":27,"left_children":[1,3,5,-1,7,9,11,-1,13,15,17,-1,19,-1,-1,-1,-1,-1,21,-1,-1,23,-1,-1,-1],"loss_changes":[3.8818532E-1,4.1832966E-1,3.7474045E-1,0E0,1.03369355E-2,3.267907E-1,5.1395035E-1,0E0,1.7168139E-1,4.0424544E-1,1.6863936E-1,0E0,9.485225E-2,0E0,0E0,0E0,0E0,0E0,2.4881452E-1,0E0,0E0,2.925282E-1,0E0,0E0,0E0],"parents":[2147483647,0,0,1,1,2,2,4,4,5,5,6,6,8,8,9,9,10,10,12,12,18,18,21,21],"right_children":[2,4,6,-1,8,10,12,-1,14,16,18,-1,20,-1,-1,-1,-1,-1,22,-1,-1,24,-1,-1,-1],"split_conditions":[4.5E0,7.25E1,2.915E2,4.118157E-2,2.9461151E1,1.7722944E1,4.317489E1,-1.6048522E-1,1.415E2,7.0398605E1,2.025E2,-1.2449335E-1,8.741614E1,1.5424247E-2,-1.1315317E-1,6.911888E-2,-1.1574198E-1,1.1898913E-1,4.067485E1,-1.451999E-2,8.3185576E-2,-9.613859E-1,1.03015535E-1,6.081352E-2,-9.56451E-2],"split_indices":[0,1,1,0,2,2,2,0,1,6,1,0,6,0,0,0,0,0,2,0,0,3,0,0,0],"split_type":[0,0,0,0,0,0,0,0,0,0,0,0,0,0,0,0,0,0,0,0,0,0,0,0,0],"sum_hessian":[1.9016996E1,5.0303564E0,1.3986639E1,1.5290133E0,3.501343E0,9.411773E0,4.574867E0,1.0614258E0,2.4399173E0,2.3787677E0,7.0330048E0,2.2998145E0,2.2750525E0,1.2738302E0,1.1660872E0,1.0967382E0,1.2820294E0,3.5600626E0,3.472942E0,1.080013E0,1.1950394E0,2.4523451E0,1.020597E0,1.0425663E0,1.4097788E0],"tree_param":{"num_deleted":"0","num_feature":"9","num_nodes":"25","size_leaf_vector":"0"}},{"base_weights":[-2.8340526E-2,-1.6738881E-1,1.0311262E-1,-3.4780154E-1,1.49893435E-2,1.7558376E-1,-2.007518E-1,-4.551282E-1,3.7227895E-2,1.8879047E-1,-3.2972556E-1,2.4380453E-3,3.5127014E-1,-1.4540718E-1,-5.4401153E-1,-1.0793213E-1,3.666688E-1,2.2250992E-1,-3.252469E-1,1.17686406E-1,4.1015026E-1,-1.2286018E-2,3.532489E-1],"categories":[],"categories_nodes":[],"categories_segments":[],"categories_sizes":[],"default_left":[true,true,true,true,true,true,false,true,false,true,false,true,true,false,false,false,false,true,false,false,false,false,false],"id":28,"left_children":[1,3,5,7,9,11,-1,13,-1,15,-1,17,19,-1,-1,-1,-1,21,-1,-1,-1,-1,-1],"loss_changes":[3.6957303E-1,3.259565E-1,2.67065E-1,2.2115558E-1,4.101151E-1,2.7392563E-1,0E0,2.9364645E-2,0E0,2.768761E-1,0E0,4.7307003E-1,1.3300657E-2,0E0,0E0,0E0,0E0,1.2460528E-1,0E0,0E0,0E0,0E0,0E0],"parents":[2147483647,0,0,1,1,2,2,3,3,4,4,5,5,7,7,9,9,11,11,12,12,17,17],"right_children":[2,4,6,8,10,12,-1,14,-1,16,-1,18,20,-1,-1,-1,-1,22,-1,-1,-1,-1,-1],"split_conditions":[6.5E0,-7.819493E-1,4.03E2,4.483126E1,-4.028518E-1,3.0078743E1,-6.0225543E-2,-1.1520154E0,1.1168369E-2,2.9019875E1,-9.891767E-2,1.98E2,6.736627E1,-4.362216E-2,-1.6320346E-1,-3.237964E-2,1.1000064E-1,1.7022646E3,-9.757408E-2,3.5305925E-2,1.2304508E-1,-3.6858055E-3,1.05974674E-1],"split_indices":[0,3,1,2,3,2,0,3,0,2,0,1,6,0,0,0,0,7,0,0,0,0,0],"split_type":[0,0,0,0,0,0,0,0,0,0,0,0,0,0,0,0,0,0,0,0,0,0,0],"sum_hessian":[1.8274902E1,8.748042E0,9.52686E0,3.9417427E0,4.806299E0,8.033135E0,1.4937247E0,2.9401245E0,1.0016181E0,3.4959912E0,1.3103082E0,4.5564528E0,3.476683E0,1.2433848E0,1.6967397E0,1.457661E0,2.03833E0,2.9178202E0,1.6386324E0,1.3036622E0,2.1730208E0,1.3676554E0,1.5501648E0],"tree_param":{"num_deleted":"0","num_feature":"9","num_nodes":"23","size_leaf_vector":"0"}},{"base_weights":[-2.689261E-2,-1.14983685E-1,1.7082994E-1,1.00175716E-1,-2.2831766E-1,2.5879672E-1,-9.459818E-2,-1.8817636E-1,2.673555E-1,-3.3035955E-1,7.489829E-2,-3.0053139E-2,4.061639E-1,-4.8438825E-2,4.1085672E-1,2.9986836E-3,-3.881325E-1,-1.13790214E-1,2.3638758E-1,-4.7589257E-1,-9.7208254E-2],"categories":[],"categories_nodes":[],"categories_segments":[],"categories_sizes":[],"default_left":[true,true,true,true,true,true,false,false,true,true,true,false,false,false,false,false,true,false,false,false,false],"id":29,"left_children":[1,3,5,7,9,11,-1,-1,13,15,17,-1,-1,-1,-1,-1,19,-1,-1,-1,-1],"loss_changes":[3.455957E-1,3.531365E-1,1.6854833E-1,3.090747E-1,3.0865583E-1,2.2086933E-1,0E0,0E0,1.9260079E-1,1.3694733E-1,1.2214103E-1,0E0,0E0,0E0,0E0,0E0,1.0735309E-1,0E0,0E0,0E0,0E0],"parents":[2147483647,0,0,1,1,2,2,3,3,4,4,5,5,8,8,9,9,10,10,16,16],"right_children":[2,4,6,8,10,12,-1,-1,14,16,18,-1,-1,-1,-1,-1,20,-1,-1,-1,-1],"split_conditions":[8.5E0,1.225E2,4.03E2,2.5E0,4.4510746E1,7.5E2,-2.8379455E-2,-5.645291E-2,1.7620083E1,5.616448E2,9.272449E1,-9.015942E-3,1.2184917E-1,-1.4531648E-2,1.2325702E-1,8.996051E-4,3.8010479E3,-3.4137066E-2,7.091628E-2,-1.4276777E-1,-2.9162478E-2],"split_indices":[0,1,1,0,2,4,0,0,2,7,6,0,0,0,0,0,7,0,0,0,0],"split_type":[0,0,0,0,0,0,0,0,0,0,0,0,0,0,0,0,0,0,0,0,0],"sum_hessian":[1.7714014E1,1.2543835E1,5.1701794E0,4.367823E0,8.176012E0,3.9019873E0,1.268192E0,1.5568948E0,2.8109283E0,6.0503545E0,2.125657E0,1.5871433E0,2.314844E0,1.0852143E0,1.7257141E0,1.0337228E0,5.0166316E0,1.1164898E0,1.0091673E0,3.365578E0,1.6510538E0],"tree_param":{"num_deleted":"0","num_feature":"9","num_nodes":"21","size_leaf_vector":"0"}},{"base_weights":[-1.9344741E-2,-2.6922095E-1,4.204872E-2,3.2061152E-2,-4.116381E-1,2.1519016E-1,-7.800963E-2,-1.8061846E-1,3.178504E-1,-3.5499883E-1,6.254926E-2,4.048919E-1,5.9966195E-2,2.9506718E-3,-5.188471E-1,2.9157287E-1,-6.6053696E-2,1.21068016E-1,4.887561E-1,-2.1509859E-1,1.6543047E-1,-3.2856685E-1,2.0389073E-2],"categories":[],"categories_nodes":[],"categories_segments":[],"categories_sizes":[],"default_left":[true,true,true,false,false,true,true,false,true,true,true,true,false,false,false,false,true,false,false,true,false,false,false],"id":30,"left_children":[1,3,5,-1,-1,7,9,-1,11,13,15,17,-1,-1,-1,-1,19,-1,-1,21,-1,-1,-1],"loss_changes":[2.9133058E-1,1.7346519E-1,3.3935073E-1,0E0,0E0,3.2641035E-1,4.075434E-1,0E0,1.0184884E-1,2.0572218E-1,2.3767923E-1,3.6686122E-2,0E0,0E0,0E0,0E0,2.2756411E-1,0E0,0E0,1.0876255E-1,0E0,0E0,0E0],"parents":[2147483647,0,0,1,1,2,2,5,5,6,6,8,8,9,9,10,10,11,11,16,16,19,19],"right_children":[2,4,6,-1,-1,8,10,-1,12,14,16,18,-1,-1,-1,-1,20,-1,-1,22,-1,-1,-1],"split_conditions":[3.5E0,7.25E1,1.795E2,9.618346E-3,-1.23491436E-1,1.3426865E1,3.0078743E1,-5.4185543E-2,1.2404649E2,-1.021111E0,1.5E0,6.24125E1,1.7989859E-2,8.8520156E-4,-1.5565413E-1,8.7471865E-2,-5.6547856E-1,3.6320407E-2,1.4662683E-1,8.5E0,4.9629144E-2,-9.8570056E-2,6.1167222E-3],"split_indices":[0,1,1,0,0,2,2,0,5,3,8,6,0,0,0,0,3,0,0,0,0,0,0],"split_type":[0,0,0,0,0,0,0,0,0,0,0,0,0,0,0,0,0,0,0,0,0,0,0],"sum_hessian":[1.7252687E1,2.7351673E0,1.4517521E1,1.1266432E0,1.6085241E0,5.620119E0,8.897402E0,1.0010749E0,4.6190443E0,2.481556E0,6.4158454E0,3.027234E0,1.5918102E0,1.0875789E0,1.3939769E0,1.8514476E0,4.564398E0,1.2478203E0,1.7794137E0,2.8196833E0,1.7447146E0,1.6360847E0,1.1835988E0],"tree_param":{"num_deleted":"0","num_feature":"9","num_nodes":"23","size_leaf_vector":"0"}},{"base_weights":[-1.8906984E-2,-1.016077E-1,1.4965963E-1,5.236978E-2,-2.846961E-1,-9.403232E-2,2.458341E-1,2.0349887E-1,-1.7788798E-1,-4.418632E-1,-8.894748E-4,3.8775855E-1,7.438525E-2,-1.5945433E-1,3.3888564E-1,-3.1679234E-1,8.2417455E-4,-2.7955392E-1,2.8994566E-1,-9.119169E-2,1.8440753E-1,3.9411215E-3,4.9644852E-1],"categories":[],"categories_nodes":[],"categories_segments":[],"categories_sizes":[],"default_left":[true,true,true,true,true,false,true,true,true,false,true,false,true,false,true,false,false,false,false,false,false,false,false],"id":31,"left_children":[1,3,5,7,9,-1,11,13,15,-1,17,-1,19,-1,21,-1,-1,-1,-1,-1,-1,-1,-1],"loss_changes":[2.6185924E-1,3.66326E-1,1.6907701E-1,3.012122E-1,2.6053548E-1,0E0,8.654618E-2,3.0288902E-1,8.8419296E-2,0E0,3.312363E-1,0E0,7.848249E-2,0E0,2.0958519E-1,0E0,0E0,0E0,0E0,0E0,0E0,0E0,0E0],"parents":[2147483647,0,0,1,1,2,2,3,3,4,4,6,6,7,7,8,8,10,10,12,12,14,14],"right_children":[2,4,6,8,10,-1,12,14,16,-1,18,-1,20,-1,22,-1,-1,-1,-1,-1,-1,-1,-1],"split_conditions":[4.0777138E1,8.630324E1,6.739421E1,1.975E2,1.3030675E2,-2.8209696E-2,1.4065469E3,5.812419E2,3.0076431E1,-1.3255897E-1,4.0681023E3,1.1632757E-1,9.7940475E1,-4.78363E-2,-6.3032436E-1,-9.5037706E-2,2.4725238E-4,-8.386618E-2,8.69837E-2,-2.7357507E-2,5.5322263E-2,1.1823365E-3,1.4893456E-1],"split_indices":[2,6,6,1,5,0,7,7,2,0,7,0,6,0,3,0,0,0,0,0,0,0,0],"split_type":[0,0,0,0,0,0,0,0,0,0,0,0,0,0,0,0,0,0,0,0,0,0,0],"sum_hessian":[1.6693142E1,1.146534E1,5.2278023E0,6.6155887E0,4.8497505E0,1.4856522E0,3.74215E0,4.0642447E0,2.551344E0,2.7628286E0,2.086922E0,1.357096E0,2.385054E0,1.0558603E0,3.0083845E0,1.0008168E0,1.550527E0,1.0855696E0,1.0013523E0,1.0204663E0,1.3645878E0,1.2903638E0,1.7180207E0],"tree_param":{"num_deleted":"0","num_feature":"9","num_nodes":"23","size_leaf_vector":"0"}},{"base_weights":[-1.4073807E-2,-7.851295E-2,2.1006311E-1,2.7068991E-2,-3.0942068E-1,3.3290389E-3,2.9584917E-1,-3.4672275E-1,1.13007836E-1,-4.0139794E-1,-3.845246E-2,-3.903238E-2,3.1713122E-1,-1.1696444E-1,-4.8082677E-1,1.6894065E-1,-1.7334892E-1,1.9440405E-2,4.144507E-1,-2.7679643E-1,2.0346376E-3],"categories":[],"categories_nodes":[],"categories_segments":[],"categories_sizes":[],"default_left":[true,true,true,true,true,false,false,false,true,true,false,true,true,false,false,false,true,false,false,false,false],"id":32,"left_children":[1,3,5,7,9,-1,-1,-1,11,13,-1,15,17,-1,-1,-1,19,-1,-1,-1,-1],"loss_changes":[2.649505E-1,3.5186213E-1,7.1965426E-2,3.7929714E-1,9.674907E-2,0E0,0E0,0E0,3.029521E-1,1.7288744E-2,0E0,2.0405276E-1,1.1091009E-1,0E0,0E0,0E0,7.848549E-2,0E0,0E0,0E0,0E0],"parents":[2147483647,0,0,1,1,2,2,3,3,4,4,8,8,9,9,11,11,12,12,16,16],"right_children":[2,4,6,8,10,-1,-1,-1,12,14,-1,16,18,-1,-1,-1,20,-1,-1,-1,-1],"split_conditions":[9.5E0,2.585E2,2.548954E1,1.6013857E1,1.5E3,9.987117E-4,8.875476E-2,-1.0401683E-1,5.5E0,1.2842532E3,-1.1535739E-2,8.35E1,2.3638157E1,-3.5089333E-2,-1.4424804E-1,5.06822E-2,4.5E0,5.8321217E-3,1.24335214E-1,-8.303893E-2,6.103913E-4],"split_indices":[0,1,2,2,4,0,0,0,0,7,0,1,2,0,0,0,0,0,0,0,0],"split_type":[0,0,0,0,0,0,0,0,0,0,0,0,0,0,0,0,0,0,0,0,0],"sum_hessian":[1.620242E1,1.3089043E1,3.1133769E0,9.587812E0,3.5012302E0,1.2176918E0,1.8956851E0,1.2250253E0,8.362787E0,2.2545877E0,1.2466427E0,5.2563806E0,3.1064067E0,1.0319082E0,1.2226795E0,1.9614816E0,3.2948987E0,1.0609187E0,2.0454879E0,1.7087702E0,1.5861286E0],"tree_param":{"num_deleted":"0","num_feature":"9","num_nodes":"21","size_leaf_vector":"0"}},{"base_weights":[-1.6782233E-2,-2.4076608E-1,3.848222E-2,-1.9130403E-2,-3.796097E-1,2.9159707E-1,-4.426524E-2,2.2996138E-3,4.388238E-1,-3.679394E-1,6.0415708E-2,1.9393726E-1,-1.2108782E-1,-7.047788E-2,3.571628E-1,-3.188917E-1,9.761993E-2,7.226536E-2,-1.7591709E-1,4.3845418E-1,1.4423238E-1],"categories":[],"categories_nodes":[],"categories_segments":[],"categories_sizes":[],"default_left":[true,true,true,false,false,true,true,false,false,false,true,true,true,true,true,false,false,false,false,false,false],"id":33,"left_children":[1,3,5,-1,-1,7,9,-1,-1,-1,11,13,15,17,19,-1,-1,-1,-1,-1,-1],"loss_changes":[2.1680479E-1,9.908649E-2,3.1263345E-1,0E0,0E0,1.5477204E-1,4.170592E-1,0E0,0E0,0E0,2.5769037E-1,2.8207475E-1,2.3496485E-1,5.947786E-2,3.3198893E-3,0E0,0E0,0E0,0E0,0E0,0E0],"parents":[2147483647,0,0,1,1,2,2,5,5,6,6,10,10,11,11,12,12,13,13,14,14],"right_children":[2,4,6,-1,-1,8,10,-1,-1,-1,12,14,16,18,20,-1,-1,-1,-1,-1,-1],"split_conditions":[3.5E0,7.65E1,1.255E2,-5.739121E-3,-1.13882914E-1,1.6013857E1,2.4743458E1,6.898842E-4,1.3164714E-1,-1.1038183E-1,2.915E2,5.5E0,4.317489E1,1.845E2,2.163582E3,-9.566752E-2,2.928598E-2,2.1679608E-2,-5.277513E-2,1.3153626E-1,4.3269716E-2],"split_indices":[0,1,1,0,0,2,2,0,0,0,1,0,2,1,7,0,0,0,0,0,0],"split_type":[0,0,0,0,0,0,0,0,0,0,0,0,0,0,0,0,0,0,0,0,0],"sum_hessian":[1.5766342E1,2.4559386E0,1.3310404E1,1.3841723E0,1.0717663E0,2.657495E0,1.0652908E1,1.2388331E0,1.4186621E0,1.9887661E0,8.664143E0,4.952427E0,3.7117155E0,2.107167E0,2.8452601E0,1.7084683E0,2.003247E0,1.0288877E0,1.0782793E0,1.2926258E0,1.5526342E0],"tree_param":{"num_deleted":"0","num_feature":"9","num_nodes":"21","size_leaf_vector":"0"}},{"base_weights":[-1.3345601E-2,-9.681148E-2,1.6715647E-1,-1.961572E-1,9.482113E-2,2.802748E-1,-9.2725635E-2,-2.1331025E-2,-3.5797307E-1,2.7079138E-1,-1.715337E-1,3.0906482E-2,3.9206353E-1,-2.4603252E-1,1.3949884E-1,-4.420589E-1,-1.3229707E-1,7.432003E-2,3.4823507E-1,-8.684828E-2,2.6660487E-1],"categories":[],"categories_nodes":[],"categories_segments":[],"categories_sizes":[],"default_left":[true,true,true,true,true,true,false,true,true,true,false,false,false,false,true,false,false,false,false,false,false],"id":34,"left_children":[1,3,5,7,9,11,-1,13,15,17,-1,-1,-1,-1,19,-1,-1,-1,-1,-1,-1],"loss_changes":[2.6151812E-1,2.4264711E-1,1.8813908E-1,2.208418E-1,2.663723E-1,1.0194361E-1,0E0,2.130447E-1,1.990521E-2,2.3010358E-2,0E0,0E0,0E0,0E0,1.2444127E-1,0E0,0E0,0E0,0E0,0E0,0E0],"parents":[2147483647,0,0,1,1,2,2,3,3,4,4,5,5,7,7,8,8,9,9,14,14],"right_children":[2,4,6,8,10,12,-1,14,16,18,-1,-1,-1,-1,20,-1,-1,-1,-1,-1,-1],"split_conditions":[8.5E0,4.1003056E1,3.55E2,1.415E2,2.915E2,1.8587887E3,-2.781769E-2,3.5E0,-8.0156624E-1,4.5E0,-5.1460113E-2,9.271945E-3,1.1761906E-1,-7.380976E-2,1.7576778E1,-1.3261767E-1,-3.9689124E-2,2.2296011E-2,1.0447053E-1,-2.6054485E-2,7.998146E-2],"split_indices":[0,2,1,1,1,7,0,0,3,0,0,0,0,0,2,0,0,0,0,0,0],"split_type":[0,0,0,0,0,0,0,0,0,0,0,0,0,0,0,0,0,0,0,0,0],"sum_hessian":[1.5284301E1,1.0768498E1,4.5158024E0,7.076372E0,3.6921268E0,3.091641E0,1.4241613E0,3.9454849E0,3.130887E0,2.2132573E0,1.4788693E0,1.3520594E0,1.7395816E0,1.4249144E0,2.5205705E0,1.5824518E0,1.5484352E0,1.1798056E0,1.0334517E0,1.0203259E0,1.5002446E0],"tree_param":{"num_deleted":"0","num_feature":"9","num_nodes":"21","size_leaf_vector":"0"}},{"base_weights":[-1.0714215E-2,-1.3211685E-1,1.0039346E-1,1.3851601E-2,-3.055911E-1,1.8540108E-1,-1.3648097E-1,-2.1103005E-1,2.1526732E-1,-4.0851974E-1,-9.379102E-2,-1.7590998E-2,3.0443597E-1,-3.5709497E-1,4.186454E-2,-3.8608704E-2,3.7909028E-1,2.0649207E-1,-2.862248E-1,8.543655E-2,3.8717014E-1],"categories":[],"categories_nodes":[],"categories_segments":[],"categories_sizes":[],"default_left":[true,true,true,true,true,true,false,true,true,false,false,true,true,false,false,false,false,false,false,false,false],"id":35,"left_children":[1,3,5,7,9,11,-1,13,15,-1,-1,17,19,-1,-1,-1,-1,-1,-1,-1,-1],"loss_changes":[2.2792241E-1,2.077291E-1,2.040618E-1,2.864335E-1,4.268521E-2,1.7345789E-1,0E0,1.2646641E-1,1.5196428E-1,0E0,0E0,2.7081183E-1,4.7368944E-2,0E0,0E0,0E0,0E0,0E0,0E0,0E0,0E0],"parents":[2147483647,0,0,1,1,2,2,3,3,4,4,5,5,7,7,8,8,11,11,12,12],"right_children":[2,4,6,8,10,12,-1,14,16,-1,-1,18,20,-1,-1,-1,-1,-1,-1,-1,-1],"split_conditions":[6.5E0,1.625E2,3.55E2,2.8121532E1,4.1003056E1,2.4677094E1,-4.0944293E-2,-6.804161E-1,2.5E0,-1.2255593E-1,-2.8137308E-2,1.515E2,2.5E0,-1.0712849E-1,1.2559363E-2,-1.1582611E-2,1.13727085E-1,6.194762E-2,-8.586745E-2,2.5630968E-2,1.1615104E-1],"split_indices":[0,1,1,2,2,2,0,3,0,0,0,1,8,0,0,0,0,0,0,0,0],"split_type":[0,0,0,0,0,0,0,0,0,0,0,0,0,0,0,0,0,0,0,0,0],"sum_hessian":[1.4913891E1,7.0364127E0,7.877478E0,4.3208346E0,2.7155783E0,5.956985E0,1.9204931E0,2.018942E0,2.3018925E0,1.2024325E0,1.5131459E0,2.516972E0,3.440013E0,1.0185975E0,1.0003446E0,1.2025816E0,1.0993109E0,1.4983971E0,1.018575E0,1.5005865E0,1.9394263E0],"tree_param":{"num_deleted":"0","num_feature":"9","num_nodes":"21","size_leaf_vector":"0"}},{"base_weights":[-1.1982262E-2,-1.1293138E-1,1.1302747E-1,9.9498086E-2,-2.3109022E-1,1.837474E-1,-1.3207231E-1,-2.0475392E-1,3.288118E-1,2.1537496E-2,-3.115389E-1,6.2890984E-2,3.7899953E-1,-4.5805493E-1,-1.0425654E-2,2.2414455E-1,-1.9066602E-1,-1.0622128E-2,3.2690662E-1],"categories":[],"categories_nodes":[],"categories_segments":[],"categories_sizes":[],"default_left":[true,true,true,true,true,true,false,false,false,false,true,true,false,false,false,true,false,false,false],"id":36,"left_children":[1,3,5,7,9,11,-1,-1,-1,-1,13,15,-1,-1,-1,17,-1,-1,-1],"loss_changes":[2.0850134E-1,2.5093687E-1,1.5304244E-1,3.4255475E-1,1.3142371E-1,1.2208749E-1,0E0,0E0,0E0,0E0,2.034142E-1,2.4793035E-1,0E0,0E0,0E0,8.856866E-2,0E0,0E0,0E0],"parents":[2147483647,0,0,1,1,2,2,3,3,4,4,5,5,10,10,11,11,15,15],"right_children":[2,4,6,8,10,12,-1,-1,-1,-1,14,16,-1,-1,-1,18,-1,-1,